0.2,0.2,0.2,0.2,0.2,0.2
0.26169302528194255,-0.27791615879219017,-5.6675605726545184e-05,0.009790727793388585,-0.28664014757064504,-0.18348699259325374,-0.27791615879218956,0.29926982187920936,0.00011021234729652347,-0.06561833897837235,0.30901559178956145,0.17930717530041532,-5.667560572654523e-05,0.0001102123472965218,0.999999593263604,0.00018641746194140242,0.0002064123733116867,-0.000559323578561643,0.009790727793388515,-0.06561833897837134,0.00018641746194140172,0.9140676488149647,-0.09394365276036626,0.25510434301980983,-0.2866401475706451,0.309015591789563,0.00020641237331168576,-0.09394365276036637,0.3221479467192578,0.17594196085160252,-0.18348699259325432,0.17930717530041335,-0.0005593235785616425,0.2551043430198111,0.17594196085160416,0.20670187445284413
0.2,0.2,0.2,0.2,0.2,0.2
0.2616975444852101,-0.27785072367510405,-5.674512877132408e-05,0.009823543050125198,-0.2866350747851682,-0.18358572896777792,-0.2778507236751029,0.29936021349143505,0.0001104819667237253,-0.06573892558418032,0.3087554724828781,0.1796626641273938,-5.674512877132328e-05,0.00011048196672372551,0.9999995924023173,0.00018681357928375974,0.0002068570773076423,-0.0005605027074990057,0.009823543050124842,-0.06573892558418036,0.00018681357928375985,0.913885536030342,-0.09415054948450419,0.2556463704375209,-0.2866350747851686,0.3087554724828804,0.0002068570773076455,-0.09415054948450538,0.32200148483674057,0.17656007996056422,-0.18358572896777825,0.1796626641273932,-0.0005605027074990115,0.2556463704375231,0.17656007996056508,0.20508864563074433
0.2,0.2,0.2,0.2,0.2,0.2
0.2619013820225216,-0.2775503113729176,-5.574177936546396e-05,0.009373606719343888,-0.28760239109768876,-0.18226602095987426,-0.27755031137291714,0.3013537993939516,0.00010993277850092981,-0.06545251596963109,0.30769188460352703,0.17874720918111775,-5.574177936546511e-05,0.00010993277850093068,0.9999996001150342,0.00018330148384664482,0.00020151738104455256,-0.0005501058461397819,0.009373606719344329,-0.06545251596963139,0.00018330148384664434,0.9154854932062222,-0.09174584962642944,0.2509087682618899,-0.28760239109768854,0.3076918846035273,0.00020151738104455012,-0.09174584962642868,0.32676643253756893,0.16949186783934106,-0.18226602095987532,0.1787472091811193,-0.0005501058461397793,0.25090876826188946,0.16949186783934228,0.21911955517851656
0.2,0.2,0.2,0.2,0.2,0.2
0.2617565416633293,-0.27774206579706107,-5.648863213690205e-05,0.009709126507605206,-0.2869052438848717,-0.1832510518238378,-0.27774206579706107,0.30012095163769453,0.00011026162178468718,-0.06562481025792426,0.3083541510985281,0.1792980065641834,-5.64886321369024e-05,0.00011026162178468917,0.9999995944169692,0.00018589489186542248,0.00020552621220500683,-0.0005577782644787819,0.009709126507605402,-0.06562481025792481,0.0001858948918654224,0.914304711923066,-0.09355378490947362,0.2544027878547194,-0.2869052438848715,0.3083541510985274,0.00020552621220500732,-0.09355378490947369,0.3232872479805485,0.17480999097091607,-0.18325105182383855,0.179298006564186,-0.0005577782644787828,0.25440278785472,0.17480999097091623,0.20877901315630676
0.2,0.2,0.2,0.2,0.2,0.2
0.26180334455504733,-0.2776846628134394,-5.624042827159409e-05,0.00959750259736109,-0.2871323597556862,-0.182923152130902,-0.2776846628134398,0.30034170854988784,0.00011030684311675367,-0.06564109750252824,0.30816441272226897,0.17934063544888798,-5.6240428271592096e-05,0.00011030684311674921,0.9999995961621734,0.00018510316344354035,0.00020418402739556457,-0.000555443057774921,0.009597502597360027,-0.06564109750252645,0.0001851031634435401,0.914663968476634,-0.09294787751867765,0.25334305352186504,-0.28713235975568663,0.30816441272226947,0.00020418402739556647,-0.09294787751867904,0.32442863284179446,0.1730266195548675,-0.18292315213089944,0.17934063544888215,-0.0005554430577749219,0.253343053521866,0.17302661955486534,0.21190512955185017
0.2,0.2,0.2,0.2,0.2,0.2
0.2617796592126228,-0.2776913922240553,-5.640064909880064e-05,0.009670133910813465,-0.2870075562917158,-0.183137387784495,-0.2776913922240538,0.30052024770140484,0.00011011966553031279,-0.06555301248541617,0.3081610629055649,0.1790708136692042,-5.640064909880118e-05,0.00011011966553031091,0.9999995951598455,0.00018555508909575278,0.00020508422618799023,-0.0005567672561047176,0.009670133910813554,-0.06555301248541523,0.0001855550890957515,0.9144602694565785,-0.09335672775245218,0.2539397120289639,-0.2870075562917165,0.30816106290556816,0.00020508422618798782,-0.09335672775245199,0.32375748257112447,0.17423390198052616,-0.18313738778449526,0.17907081366920183,-0.000556767256104715,0.25393971202896515,0.17423390198052754,0.21015805528302248
0.2,0.2,0.2,0.2,0.2,0.2
0.26188933256031677,-0.27740294024675344,-5.605871297697273e-05,0.00952033311529391,-0.2874708781408629,-0.18270337348010873,-0.27740294024675344,0.3018997925577631,0.0001102255369312858,-0.06557526846066623,0.3070716046770909,0.179091338593753,-5.605871297697296e-05,0.00011022553693128712,0.9999995972897113,0.0001845902638577974,0.0002034319407663275,-0.0005539161418838086,0.009520333115293962,-0.06557526846066702,0.00018459026385779655,0.9148978142278558,-0.09262707177968381,0.25264590027870126,-0.2874708781408628,0.3070716046770902,0.00020343194076632735,-0.09262707177968409,0.32577834926199223,0.1721111102403753,-0.18270337348010904,0.17909133859375573,-0.0005539161418838072,0.25264590027870126,0.1721111102403745,0.2139853884792039
0.2,0.2,0.2,0.2,0.2,0.2
0.26197252779219976,-0.2757334449161232,-5.6818801385431184e-05,0.007970152955611532,-0.28868640630352094,-0.1815236434801807,-0.27573344491612384,0.302916460649141,0.00011665189778097805,-0.06079102709101198,0.3037628573652396,0.17826413606409044,-5.681880138543013e-05,0.00011665189778097908,0.9999995906217267,0.0001726332718227823,0.00019931787443936986,-0.0005450283534500431,0.007970152955610947,-0.06079102709101215,0.00017263327182278143,0.9106687987980108,-0.09011498324984424,0.24803786923680418,-0.28868640630352127,0.30376285736523845,0.00019931787443937116,-0.09011498324984506,0.3314559875432769,0.16601872471453977,-0.18152364348017877,0.1782641360640905,-0.0005450283534500393,0.24803786923680327,0.16601872471453627,0.2266840086469677
0.4222275328421464,0.24698023380802683,0.20000800019118234,0.20061623694857128,0.3266443597812795,0.2479789243406194
0.2625297402275429,-0.27549859833853,-5.440327230576472e-05,0.00880473487455797,-0.29007903105127153,-0.18064515059519376,-0.27549859833853035,0.3109553400051341,0.00011105762412428659,-0.065783763069211,0.2998111395903955,0.17940832723843897,-5.440327230576424e-05,0.00011105762412429179,0.999999606760575,0.0001803077512003953,0.00019587004998962418,-0.0005412575487964713,0.008804734874557733,-0.06578376306921335,0.00018030775120039523,0.9168374047142115,-0.08933086085037319,0.24690713964557515,-0.29007903105127164,0.2998111395903931,0.00019587004998962654,-0.08933086085037442,0.3366638912864627,0.16258895711474416,-0.18064515059519276,0.1794083272384457,-0.0005412575487964687,0.24690713964557445,0.16258895711473945,0.23097528476469037
0.2,0.2,0.2,0.2,0.2,0.2
0.2644070109514022,-0.27009447831517186,-4.9318667902811255e-05,0.006725482535839996,-0.29773543750611925,-0.17444121120911857,-0.2700944783151714,0.34090745483962454,0.0001088948888335035,-0.0629109912429338,0.2796205418143515,0.1721806761482243,-4.931866790281231e-05,0.00010889488883350432,0.9999996412049135,0.00016405942482874893,0.0001721069441880482,-0.000494032254098048,0.006725482535840473,-0.06291099124293414,0.0001640594248287488,0.9237216840335545,-0.07970613151132873,0.22546172875521334,-0.297735437506119,0.2796205418143518,0.00017210694418804716,-0.07970613151132833,0.3687809050937079,0.13340414665875605,-0.17444121120912037,0.17218067614822566,-0.0004940322540980494,0.2254617287552143,0.13340414665875844,0.29499137790611735
0.2,0.2,0.2,0.2,0.2,0.2
0.26166146490876907,-0.2779869782345652,-5.679294287799031e-05,0.009842667614750878,-0.2865013969254306,-0.18363831072518136,-0.2779869782345658,0.2989100490411153,0.00011021227074459559,-0.06562502907305626,0.30927955807733054,0.17933885099147107,-5.6792942877991945e-05,0.00011021227074459856,0.9999995924666895,0.0001867792472410633,0.00020700381966800232,-0.000560393299437547,0.009842667614751591,-0.06562502907305771,0.00018677924724106346,0.9139032791938477,-0.09420722985096465,0.2555905694258752,-0.2865013969254293,0.3092795580773282,0.00020700381966800275,-0.09420722985096483,0.3215151880616403,0.17671250962700646,-0.18363831072518494,0.17933885099147562,-0.0005603932994375537,0.25559056942587804,0.17671250962701043,0.2052631410307083
0.2,0.2,0.2,0.2,0.2,0.2
0.26212415624382085,-0.27685576163418585,-5.5215511059211035e-05,0.0091478090120679,-0.28849563446057336,-0.1816192617602678,-0.2768557616341862,0.3049355877960767,0.00010997392817552017,-0.06540450848745433,0.305020969513662,0.17848285409962064,-5.5215511059210676e-05,0.00010997392817551767,0.9999996032493171,0.00018188024208155734,0.00019920599654834242,-0.000545891134981247,0.009147809012067696,-0.06540450848745324,0.0001818802420815572,0.9161311967135608,-0.09074687842799115,0.2489916643072396,-0.28849563446057347,0.30502096951366237,0.00019920599654834137,-0.0907468784279908,0.33041942053742623,0.16661980594547623,-0.18161926176026696,0.17848285409961717,-0.000545891134981244,0.24899166430723862,0.16661980594547637,0.22481575439926027
0.278783037843372,0.2166552068983159,0.20000283618936238,0.20021846536393967,0.2448973503044079,0.21700925787038405
0.27783980586334633,-0.2229274262429538,-2.5896332011338636e-05,-0.0031420864939690402,-0.34919272855256933,-0.14687310081485697,-0.22292742624295392,0.5305187668247731,0.00015901651882383578,-0.08341567881913643,0.10497338452213444,0.22484028633453443,-2.5896332011338575e-05,0.0001590165188238351,0.9999997276358447,0.0001263490930796764,7.199249220930802e-05,-0.00038299007930469095,-0.0031420864939690585,-0.0834156788191361,0.00012634909307967647,0.940995681753149,-0.03677466316647976,0.17592991180139597,-0.3491927285525693,0.10497338452213449,7.199249220930794e-05,-0.03677466316647967,0.5695202925545834,0.013019467888027318,-0.1468731008148569,0.2248402863345332,-0.0003829900793046912,0.17592991180139603,0.013019467888027624,0.43970909508310163
0.2,0.2,0.2,0.2,0.2,0.2
0.2620478190567028,-0.2770852805126652,-5.5409534978728646e-05,0.009231561102237065,-0.28818533827160986,-0.18185994155007038,-0.2770852805126652,0.30350692514250477,0.00011020698217778101,-0.06553673949482819,0.3059096928678755,0.17892527362535943,-5.540953497872856e-05,0.00011020698217778306,0.9999996018152549,0.00018253517957145197,0.0002000765639684483,-0.0005478423286467976,0.00923156110223702,-0.06553673949482916,0.00018253517957145192,0.9158316069071306,-0.09112537468767946,0.24988509892227556,-0.2881853382716099,0.30590969286787467,0.00020007656396844992,-0.09112537468768034,0.32912714862918174,0.16771130818606184,-0.18185994155007046,0.1789252736253624,-0.0005478423286467993,0.24988509892227684,0.16771130818606064,0.2221496088935932
0.2,0.2,0.2,0.2,0.2,0.2
0.26185838765037556,-0.2775619127422519,-5.603442759268447e-05,0.009506285025006948,-0.28737483603513364,-0.18265736411415626,-0.2775619127422525,0.30100251188664456,0.00011026843924205582,-0.0656113373685222,0.30770688111870287,0.17923039374047575,-5.60344275926837e-05,0.0001102684392420558,0.9999995976042941,0.0001844477664864706,0.00020314298848082455,-0.0005535036134300935,0.009506285025006691,-0.06561133736852208,0.00018444776648647164,0.9149620546779865,-0.09248380212075585,0.2524605487434329,-0.2873748360351337,0.30770688111870187,0.00020314298848082564,-0.09248380212075583,0.3255374635511767,0.171669774433965,-0.18265736411415495,0.1792303937404754,-0.0005535036134300927,0.2524605487434316,0.17166977443396306,0.2145186313915871
0.2,0.2,0.2,0.2,0.2,0.2
0.26172858439426383,-0.2778002702398263,-5.659962497121406e-05,0.009758424877733882,-0.28678030809065214,-0.18339493163466322,-0.27780027023982584,0.29987095759134963,0.00011021861161116889,-0.06560999971537526,0.30856734472898933,0.17926183252790728,-5.659962497121926e-05,0.0001102186116111741,0.9999995936957541,0.00018622156592181145,0.00020609585335931832,-0.0005587418644388818,0.009758424877736526,-0.06560999971537759,0.0001862215659218128,0.9141566569957681,-0.0938084215781642,0.25483965113942364,-0.28678030809065,0.3085673447289882,0.0002060958533593129,-0.09380842157816059,0.32270743231986454,0.17555563501716612,-0.1833949316346714,0.17926183252791386,-0.000558741864438887,0.25483965113942353,0.17555563501717764,0.20748973260783585
0.2,0.2,0.2,0.2,0.2,0.2
0.26181419306064657,-0.27755769634170013,-5.635980291719406e-05,0.009654124581362857,-0.2871341992400004,-0.1830939364916499,-0.27755769634169986,0.30120679415448726,0.00011014125818578398,-0.06555005557861965,0.30763779493464466,0.17903825629302367,-5.6359802917195045e-05,0.0001101412581857827,0.9999995952948516,0.0001854944676846824,0.0002049813854500017,-0.0005565846710345255,0.00965412458136322,-0.06555005557861923,0.0001854944676846815,0.9144877238502394,-0.09331995617001343,0.25385657851723403,-0.28713419923999994,0.3076377949346454,0.00020498138545000077,-0.09331995617001348,0.3242109242493005,0.17414041099127192,-0.18309393649165193,0.17903825629302306,-0.0005565846710345298,0.25385657851723675,0.17414041099127567,0.21041051154906038
0.2,0.2,0.2,0.2,0.2,0.2
0.261983675169814,-0.2771887592616983,-5.5711791997038375e-05,0.0093668579848417,-0.2878845594115572,-0.18225639031601165,-0.27718875926169895,0.30273348185990484,0.00011047690666924504,-0.06567359453787283,0.3062838412855544,0.17935768009011666,-5.571179199704119e-05,0.0001104769066692499,0.9999995993964953,0.0001836383145628071,0.0002016740813446759,-0.0005511128200786736,0.009366857984842873,-0.06567359453787493,0.00018363831456280605,0.9153282412311903,-0.0918437553432488,0.25137792879041077,-0.2878845594115559,0.30628384128555153,0.0002016740813446728,-0.09184375534324779,0.32766083423856335,0.1698210890064314,-0.18225639031601515,0.17935768009012296,-0.0005511128200786723,0.25137792879041143,0.169821089006435,0.2177213105717972
0.2,0.2,0.2,0.2,0.2,0.2
0.262350909497967,-0.2760508035246594,-5.4705335704297117e-05,0.008737369993568604,-0.2895153337501982,-0.18076786101785097,-0.27605080352466016,0.3083680460352635,0.00011055106083728129,-0.0645261351112909,0.30236118485681474,0.17763645724845445,-5.470533570429471e-05,0.00011055106083727717,0.9999996063975091,0.00017867804975851365,0.00019597705739845864,-0.0005395303959491275,0.008737369993567418,-0.06452613511128896,0.00017867804975851294,0.9164336057046447,-0.0893755622745033,0.2460319749772785,-0.2895153337501989,0.30236118485681485,0.00019597705739846067,-0.08937556227450469,0.33473983220489123,0.16257126751263312,-0.18076786101784756,0.17763645724844906,-0.0005395303959491262,0.24603197497727886,0.16257126751262932,0.23351560642441635
0.2,0.2,0.2,0.2,0.2,0.2
0.2618497709801483,-0.27762411048640717,-5.59993936136204e-05,0.009489193195945475,-0.28735641890436897,-0.18260514252566606,-0.2776241104864069,0.30092541469899997,0.00011000895024836655,-0.06549511516338484,0.3079490440128955,0.1788871589287818,-5.599939361361901e-05,0.00011000895024836155,0.9999995981943823,0.00018417501354437658,0.00020289482592362538,-0.0005526887472806166,0.00948919319594483,-0.06549511516338266,0.00018417501354437704,0.915088055377936,-0.09236649797053723,0.2520841943839156,-0.2873564189043695,0.30794904401289813,0.00020289482592362562,-0.09236649797053718,0.32554973717968455,0.17131669216124057,-0.1826051425256644,0.17888715892877421,-0.0005526887472806161,0.252084194383915,0.17131669216124099,0.21564273415693527
0.2,0.2,0.2,0.2,0.2,0.2
0.2616915027636234,-0.2779495808220743,-5.663450938678388e-05,0.009771430190813337,-0.2866469131177284,-0.18342906985764806,-0.2779495808220745,0.2991096974499956,0.00011018726187229058,-0.06560991523645684,0.30915307440910506,0.1792879949120975,-5.66345093867835e-05,0.0001101872618722847,0.9999995936325331,0.0001862493742677815,0.000206150463723862,-0.0005588277567431126,0.009771430190813066,-0.06560991523645403,0.0001862493742677811,0.9141441755760009,-0.09382210503842571,0.2548787099266036,-0.28664691311772866,0.3091530744091071,0.00020615046372385906,-0.09382210503842468,0.3222451935456665,0.17557917225410885,-0.18342906985764706,0.17928799491208902,-0.0005588277567431091,0.25487870992660283,0.17557917225411088,0.20736691926216066
0.21739010064147138,0.2036763716162109,0.2000006260436231,0.20004822274907882,0.20991037489416559,0.20375452272849368
0.26208089522852496,-0.2769031827154956,-5.545442694564525e-05,0.00925540625622636,-0.28828256779140826,-0.18193553455795602,-0.27690318271549624,0.30452404337510935,0.0001101716222871231,-0.06550187971711229,0.30517967418821956,0.17878545081623343,-5.5454426945644794e-05,0.0001101716222871216,0.9999996013133711,0.00018276293921077122,0.00020050330863644042,-0.0005485058794222693,0.009255406256226093,-0.06550187971711155,0.00018276293921077087,0.9157285961578339,-0.0913330156769517,0.25018451574830547,-0.2882825677914083,0.30517967418821873,0.00020050330863644064,-0.091333015676952,0.32933304722830326,0.1683454234671735,-0.18193553455795514,0.1787854508162322,-0.0005485058794222695,0.2501845157483061,0.16834542346717224,0.22128094820285008
0.2,0.2,0.2,0.2,0.2,0.2
0.27593546175477107,-0.22938103388538972,-2.9582948462151068e-05,-0.0015905095407568975,-0.34179500546393227,-0.15126959718045113,-0.22938103388539002,0.4968024637474622,0.00016259901954175513,-0.08567778951084296,0.1267749865744447,0.23255987449633525,-2.9582948462150513e-05,0.0001625990195417544,0.9999996973813264,0.00014015209498167858,9.186558024800801e-05,-0.0004239059856560643,-0.001590509540757149,-0.08567778951084266,0.0001401520949816787,0.9346865047922036,-0.04538631678905732,0.1946510594025716,-0.3417950054639323,0.1267749865744443,9.18655802480089e-05,-0.045386316789057704,0.5389229310929133,0.03780546361862096,-0.1512695971804505,0.2325598744963346,-0.00042390598565606493,0.1946510594025717,0.03780546361861995,0.3841255059183425
0.2,0.2,0.2,0.2,0.2,0.2
0.2622598073519653,-0.2764897740785441,-5.4807185384013186e-05,0.008969332775306043,-0.2890643553184798,-0.18110279474527072,-0.27648977407854386,0.3062498108662242,0.0001105392730173351,-0.06563621677083371,0.3036563941096319,0.17913036080856132,-5.4807185384011424e-05,0.00011053927301733463,0.999999605342241,0.00018094048176420976,0.00019722941281320302,-0.0005431338334474235,0.008969332775305058,-0.06563621677083309,0.00018094048176420832,0.9165535882961425,-0.08987519474111237,0.2477517297034707,-0.28906435531848046,0.3036563941096321,0.00019722941281320538,-0.08987519474111412,0.332879991727117,0.16408531285708658,-0.18110279474526794,0.1791303608085601,-0.0005431338334474207,0.24775172970347165,0.16408531285708217,0.2284564763242542
0.2,0.2,0.2,0.2,0.2,0.2
0.26206207991667146,-0.27697233264441534,-5.548210788396924e-05,0.009266662407080645,-0.2882121928266781,-0.1819668045660342,-0.2769723326444153,0.30441877633122016,0.00010991388255472398,-0.06538700469637336,0.3054398892748823,0.17844672685248908,-5.548210788397023e-05,0.0001099138825547247,0.9999996014404813,0.00018270048496640367,0.0002006014617026905,-0.0005483116436272637,0.00926666240708125,-0.06538700469637335,0.00018270048496640443,0.9157590622361217,-0.09137263665008226,0.2500901127349891,-0.28821219282667776,0.30543988927488197,0.00020060146170268933,-0.09137263665008102,0.32907304404341176,0.1684551136369421,-0.18196680456603584,0.17844672685248977,-0.0005483116436272647,0.25009011273498843,0.16845511363694476,0.2215729254897063
0.2,0.2,0.2,0.2,0.2,0.2
0.2631586834321549,-0.2731321050617659,-5.356040229197441e-05,0.008466942383193402,-0.29240961669691734,-0.179715128005678,-0.27313210506176594,0.31708127482948345,0.00011739636051803425,-0.06854331599789952,0.29079305846629955,0.18742041086676806,-5.356040229197444e-05,0.00011739636051803406,0.9999996041026957,0.00018163265522444695,0.00019318215519201947,-0.0005453878237378581,0.008466942383193342,-0.0685433159978995,0.00018163265522444643,0.916184502502769,-0.08828171251185347,0.24893135933285343,-0.2924096166969173,0.2907930584662992,0.00019318215519201966,-0.08828171251185395,0.34514755727252355,0.15974620046775193,-0.1797151280056781,0.1874204108667687,-0.0005453878237378592,0.2489313593328547,0.15974620046775181,0.2247157939666717
0.2,0.2,0.2,0.2,0.2,0.2
0.2616873323567097,-0.2763662517133947,-5.774275970254277e-05,0.008127718875789353,-0.28761431010288857,-0.18240485733314643,-0.2763662517133947,0.3013338143803298,0.00011523461510490812,-0.062031414007529685,0.3054538401186932,0.17876433899931196,-5.77427597025421e-05,0.0001152346151049061,0.9999995862725727,0.00017510894049290295,0.00020370461040677723,-0.0005513931145835096,0.00812771887578892,-0.06203141400752851,0.0001751089404929028,0.9099857604572145,-0.09090463689211065,0.25090621371743005,-0.2876143101028887,0.3054538401186937,0.00020370461040677837,-0.09090463689211137,0.3273070130020761,0.1703344835051626,-0.1824048573331457,0.17876433899930985,-0.0005513931145835123,0.25090621371743194,0.1703344835051622,0.21812464511726404
0.2,0.2,0.2,0.2,0.2,0.2
0.2617376872331176,-0.27659053790820415,-5.733553176193644e-05,0.008416751332701746,-0.28761315383633695,-0.1824206955991819,-0.27659053790820465,0.3016707620206356,0.00011395669078413838,-0.06285839428542014,0.30574430666835245,0.17874054825575225,-5.7335531761937156e-05,0.00011395669078413812,0.9999995891230931,0.00017710253951128737,0.00020348815615563713,-0.000551487147706391,0.008416751332701984,-0.06285839428541981,0.00017710253951128694,0.9111982375688633,-0.09115477781871756,0.25105842334232653,-0.2876131538363364,0.30574430666835156,0.0002034881561556365,-0.09115477781871754,0.3271529381868213,0.1704495223767247,-0.18242069559918345,0.17874054825575217,-0.0005514871477063936,0.2510584233423287,0.1704495223767274,0.2178654640853991
0.2,0.2,0.2,0.2,0.2,0.2
0.2624049877160506,-0.2751109358533399,-5.52979877463273e-05,0.008286306511520758,-0.2899716033433249,-0.18074590095822152,-0.27511093585334057,0.30679575901644507,0.00011608284444039968,-0.060692374453364714,0.30124034318549625,0.17743172562627185,-5.529798774632635e-05,0.00011608284444039874,0.999999598678152,0.00017365522935594563,0.00019520325975286139,-0.0005398526049360054,0.008286306511520467,-0.06069237445336362,0.00017365522935594587,0.9126689769244304,-0.09025554575175955,0.2463953043680223,-0.28997160334332506,0.30124034318549575,0.00019520325975286223,-0.09025554575175956,0.3357578620830126,0.16309827273017452,-0.18074590095822002,0.17743172562626944,-0.0005398526049360045,0.24639530436802193,0.16309827273017316,0.23285232234931177
0.2,0.2,0.2,0.2,0.2,0.2
0.2621642862640684,-0.27680064390398806,-5.501133700964537e-05,0.009056135307357247,-0.2886881953076141,-0.181350212306132,-0.27680064390398773,0.3052893352751608,0.00010988016660656402,-0.06535534123255651,0.30483050734712747,0.1783256115793523,-5.501133700964489e-05,0.00010988016660656574,0.9999996048130484,0.0001811684613239468,0.00019810835136707336,-0.0005437852874505619,0.009056135307357091,-0.0653553412325574,0.00018116846132394703,0.9164553070191465,-0.09025202221513604,0.2480325460143684,-0.2886881953076143,0.30483050734712724,0.0001981083513670749,-0.09025202221513667,0.33137883575562643,0.16516449745918146,-0.18135021230613138,0.1783256115793551,-0.000543785287450562,0.24803254601436828,0.1651644974591794,0.2276544341036461
0.2,0.2,0.2,0.2,0.2,0.2
0.26172104463451423,-0.2778612126961814,-5.655907547505558e-05,0.009738852843941243,-0.2867668907407192,-0.18333541377120027,-0.2778612126961824,0.2995396836198319,0.00011021744370939546,-0.06561559119105836,0.3088147084958042,0.1792903914173104,-5.6559075475053526e-05,0.0001102174437093927,0.999999594067408,0.00018605259875322221,0.00020580991778787504,-0.0005582456040325586,0.009738852843940332,-0.06561559119105727,0.0001860525987532223,0.914233362644156,-0.09367387925407036,0.25461458612967086,-0.28676689074071954,0.30881470849580367,0.00020580991778787705,-0.09367387925407124,0.3227435574490705,0.17515129900248805,-0.18333541377119744,0.17929039141730596,-0.0005582456040325572,0.2546145861296701,0.1751512990024849,0.208149612395828
0.2,0.2,0.2,0.2,0.2,0.2
0.2621366069565003,-0.27627086807018314,-5.563263861495682e-05,0.008720957849717692,-0.28879406221830733,-0.18146615652056688,-0.27627086807018264,0.30548549966405386,0.0001120812209598214,-0.06375293589864095,0.3037914797440549,0.17809428387036394,-5.563263861495843e-05,0.00011208122095981862,0.9999995997630636,0.0001785073591009543,0.00019883005006175538,-0.0005446644345494522,0.008720957849718564,-0.06375293589863965,0.00017850735910095484,0.914446990696696,-0.09041438102439854,0.24826751142576436,-0.28879406221830717,0.3037914797440567,0.00019883005006175142,-0.09041438102439606,0.331642615621429,0.16599557443158042,-0.18146615652056886,0.1780942838703605,-0.000544664434549453,0.2482675114257628,0.16599557443158516,0.22670458989200074
0.2,0.2,0.2,0.2,0.2,0.2
0.25861166034423155,-0.2740346178774791,-7.356261423102348e-05,-0.000561845254805763,-0.2822500271010355,-0.1844750389985795,-0.27403461787748,0.2937420268308187,0.0001319723566531868,-0.05207646805344379,0.30380551795290545,0.1803687711070572,-7.356261423102841e-05,0.0001319723566531924,0.9999995002145324,0.00012957929516880325,0.00023039003231313258,-0.0005650416805419105,-0.0005618452548067294,-0.05207646805344528,0.00012957929516880541,0.878231082558307,-0.0798106034030285,0.25295495813174707,-0.2822500271010347,0.3038055179529019,0.00023039003231312597,-0.07981060340303225,0.31552496058173324,0.1780143518129202,-0.18447503899858086,0.1803687711070645,-0.0005650416805419089,0.25295495813175184,0.17801435181291916,0.20473372369783596
0.2,0.2,0.2,0.2,0.2,0.2
0.26196719321437245,-0.2773329977709126,-5.56053166903256e-05,0.009315763906694585,-0.2878607417732827,-0.18210146101719957,-0.27733299777091225,0.30243850352272855,0.00010998630558194952,-0.06545660561708708,0.3068532882105423,0.17872245766831968,-5.560531669032579e-05,0.00010998630558195006,0.999999600843328,0.00018297214744056632,0.00020095240319011596,-0.00054912930102975,0.009315763906694651,-0.06545660561708729,0.00018297214744056637,0.9156347939015235,-0.0915051952417045,0.2504653787915024,-0.28786074177328264,0.30685328821054264,0.00020095240319011634,-0.09150519524170468,0.327792862316726,0.16880557258196485,-0.1821014610172,0.17872245766831996,-0.0005491293010297513,0.250465378791503,0.16880557258196538,0.2204376059708357
0.2,0.2,0.2,0.2,0.2,0.2
0.26225384798059054,-0.2764592543508554,-5.4896170684858904e-05,0.009010319136813985,-0.28901981244191244,-0.1812247168153391,-0.27645925435085406,0.30726293981380415,0.00010971317181284646,-0.06524299523849997,0.30348899494553283,0.17792273336911263,-5.489617068485987e-05,0.0001097131718128476,0.9999996054681521,0.0001808687549912513,0.00019778538565504663,-0.0005428810891927178,0.009010319136814526,-0.06524299523850051,0.00018086875499125207,0.9165930898918092,-0.09013079552622834,0.24761566491298506,-0.2890198124419126,0.30348899494553505,0.00019778538565504484,-0.0901307955262271,0.3325867606315739,0.16484554788837094,-0.18122471681534033,0.17792273336911296,-0.0005428810891927159,0.24761566491298334,0.16484554788837286,0.22891776139553072
0.2,0.2,0.2,0.2,0.2,0.2
0.26172636048529063,-0.27782704062327973,-5.657397058772264e-05,0.009746266179544633,-0.28678028617523676,-0.18335827332688232,-0.2778270406232809,0.2997104321892796,0.00011023176452256896,-0.06561892551401736,0.3086776132978923,0.17929423133403574,-5.6573970587721565e-05,0.00011023176452256861,0.9999995939039342,0.00018612718178744124,0.0002059257366553806,-0.0005584650635690429,0.009746266179544077,-0.06561892551401702,0.00018612718178744072,0.9141993945574866,-0.09372907677659639,0.25471442719296017,-0.28678028617523715,0.30867761329789,0.00020592573665538072,-0.09372907677659698,0.32275544190225514,0.17531819912738064,-0.18335827332687954,0.17929423133403666,-0.000558465063569037,0.2547144271929584,0.17531819912737573,0.20785638416941296
0.6736191170684349,0.3001259230629696,0.20001705028821448,0.2013133458116308,0.46990890414966213,0.3022543673750751
0.26189543004305804,-0.27752494868440636,-5.582443734500077e-05,0.009411625633336853,-0.287558689138143,-0.1823789763817178,-0.277524948684406,0.30136267445772175,0.00011007221506640143,-0.06551560281377533,0.3075843342202182,0.17893419910045544,-5.582443734499997e-05,0.0001100722150664027,0.9999995993296473,0.00018366073073301656,0.00020200228891393025,-0.0005511713346120934,0.009411625633336364,-0.06551560281377589,0.00018366073073301567,0.915321182874869,-0.09196810374487932,0.2513960904594153,-0.28755868913814353,0.30758433422021864,0.00020200228891393095,-0.09196810374488011,0.3264803350897525,0.17015100191242163,-0.1823789763817162,0.17893419910045605,-0.0005511713346120885,0.2513960904594143,0.17015100191241858,0.21767418572868336
0.2,0.2,0.2,0.2,0.2,0.2
0.262422493241115,-0.2758885312257671,-5.4569176230558276e-05,0.008872667171140306,-0.2896746747853452,-0.18083459438089405,-0.27588853122576684,0.30939424217573513,0.00011056748912958659,-0.06559059744165859,0.3013116983162218,0.17888623538782558,-5.456917623055927e-05,0.00011056748912958732,0.9999996064371616,0.00018044506714493634,0.00019645237801655622,-0.0005416526507824397,0.008872667171140717,-0.0655905974416591,0.00018044506714493612,0.916778830530006,-0.08956680905094326,0.24707629662392275,-0.2896746747853451,0.3013116983162219,0.00019645237801655416,-0.08956680905094257,0.33514939231608554,0.16324264474503283,-0.18083459438089503,0.17888623538782686,-0.0005416526507824372,0.24707629662392214,0.1632426447450341,0.23048546839365686
0.21739010064147138,0.2036763716162109,0.2000006260436231,0.20004822274907882,0.20991037489416559,0.20375452272849368
0.2619492547690852,-0.2773580283684496,-5.569634212588609e-05,0.009356626248156407,-0.2877745243541039,-0.18222136062774955,-0.27735802836845,0.3019817626836784,0.00011032201535473152,-0.06561730396054008,0.3069513747357842,0.17921645274513973,-5.5696342125886964e-05,0.00011032201535472981,0.9999995998538516,0.00018342744782596807,0.00020143142420920158,-0.0005504893983774915,0.009356626248156877,-0.06561730396053922,0.0001834274478259686,0.915425178255155,-0.09172088677683762,0.251091805232734,-0.28777452435410344,0.3069513747357846,0.0002014314242091982,-0.09172088677683572,0.327362584641643,0.16943920945132018,-0.18222136062775032,0.1792164527451357,-0.0005504893983774877,0.2510918052327316,0.16943920945132346,0.21856496668363043
0.2,0.2,0.2,0.2,0.2,0.2
0.27154281539992725,-0.24590715159565898,-3.5449033039459636e-05,0.0007592907896174607,-0.3255371974392569,-0.15773812859196182,-0.24590715159565948,0.43380757994195174,0.00013928024032665835,-0.07628000544944752,0.18974134577488655,0.20668679202468063,-3.5449033039459534e-05,0.00013928024032665946,0.9999996939869905,0.0001412448322494698,0.00011087714544982432,-0.00042655440981173885,0.0007592907896174099,-0.07628000544944806,0.00014124483224946995,0.9343714819456561,-0.05282332121301748,0.19535408625439074,-0.32553719743925663,0.18974134577488516,0.00011087714544982531,-0.0528233212130179,0.4794667943733089,0.0579719275360817,-0.15773812859196182,0.20668679202468232,-0.00042655440981174,0.19535408625439116,0.05797192753608097,0.38266301685613335
0.21739010064147138,0.2036763716162109,0.2000006260436231,0.20004822274907882,0.20991037489416559,0.20375452272849368
0.2621647063535633,-0.27673354478320195,-5.511386832792105e-05,0.009103973759718855,-0.2886595063730028,-0.18149331918549533,-0.2767335447832022,0.3051603586844453,0.00011038127047258857,-0.06558494712525963,0.3045680059600161,0.17901330893445483,-5.511386832792206e-05,0.00011038127047259448,0.9999996034686294,0.00018178812022831559,0.00019873591268097635,-0.0005456348393027035,0.009103973759719306,-0.0655849471252624,0.00018178812022831586,0.9161697291197717,-0.09054202274540268,0.2488849679725521,-0.2886595063730022,0.3045680059600137,0.0001987359126809771,-0.09054202274540303,0.331096187038896,0.1660277284329705,-0.18149331918549697,0.17901330893446157,-0.0005456348393027039,0.2488849679725518,0.1660277284329704,0.2251097702598514
0.2,0.2,0.2,0.2,0.2,0.2
0.2620128677268946,-0.27709627676627907,-5.5644726023126145e-05,0.009338157606589808,-0.28800128782193923,-0.18217431597628295,-0.27709627676628074,0.3035122064662761,0.00011018343007622957,-0.06552608484844744,0.3059165391368315,0.17889151796306893,-5.564472602312368e-05,0.00011018343007622484,0.9999996000899245,0.00018331838452413573,0.0002013926992290315,-0.0005501516378876773,0.009338157606588526,-0.06552608484844506,0.00018331838452413472,0.9154760721945902,-0.09172292609333563,0.2509333688498397,-0.28800128782193957,0.30591653913683065,0.0002013926992290328,-0.09172292609333688,0.3281367034736833,0.16947523500978912,-0.1821743159762791,0.1788915179630613,-0.0005501516378876736,0.2509333688498397,0.1694752350097856,0.21905902850243136
0.2,0.2,0.2,0.2,0.2,0.2
0.2616488387211811,-0.2780124946424587,-5.6844271957861694e-05,0.009865492452237513,-0.2864446257767691,-0.1837049669191365,-0.278012494642459,0.29877467426592347,0.00011021937855812087,-0.06563078503206199,0.30937365053973204,0.17936036537854516,-5.684427195785775e-05,0.00011021937855812001,0.9999995921049579,0.0001869436078322265,0.00020726745969639135,-0.0005608793867810417,0.00986549245223572,-0.0656307850320614,0.00018694360783222654,0.9138285508307349,-0.09432516817035852,0.25581165778605214,-0.28644462577677027,0.30937365053973165,0.00020726745969639853,-0.09432516817036204,0.32125007809519973,0.17705798182249743,-0.18370496691913135,0.17936036537854363,-0.0005608793867810438,0.25581165778605464,0.17705798182248894,0.20460888049928438
0.2,0.2,0.2,0.2,0.2,0.2
0.26190959706789746,-0.27744874305864997,-5.5840777706170195e-05,0.009420493364205623,-0.28760122157466234,-0.18240733412615387,-0.2774487430586519,0.30184384178450313,0.00011000167874941756,-0.06547471560297172,0.30727732498351706,0.17879542983133725,-5.584077770616847e-05,0.00011000167874941586,0.9999995991941478,0.00018372120403951033,0.00020216837662092796,-0.000551343568845231,0.00942049336420489,-0.0654747156029706,0.00018372120403951065,0.9152943646657611,-0.09204934776586518,0.251472074863495,-0.2876012215746621,0.30727732498351434,0.0002021683766209307,-0.09204934776586605,0.3265771127971069,0.17039978291500055,-0.18240733412615182,0.17879542983133473,-0.0005513435688452325,0.25147207486349504,0.1703997829149978,0.21745999792253873
0.6736191170684349,0.3001259230629696,0.20001705028821448,0.2013133458116308,0.46990890414966213,0.3022543673750751
0.2610581100749516,-0.27571603049530713,-6.113348234322542e-05,0.006263309900611203,-0.2865757573205159,-0.18285590665920906,-0.27571603049530874,0.2981532952178207,0.00012082774689221985,-0.058673641091831465,0.3053834958447391,0.17930352529263258,-6.113348234322794e-05,0.00012082774689223006,0.9999995661939675,0.00016407840531787262,0.0002085647763572913,-0.0005541915680730767,0.0062633099006114135,-0.0586736410918314,0.0001640784053178686,0.9027494567111418,-0.08876524435607029,0.25078894365644794,-0.28657575732051455,0.3053834958447344,0.0002085647763572903,-0.08876524435607093,0.3250321410075183,0.17157510583520472,-0.18285590665921145,0.17930352529263968,-0.0005541915680730727,0.2507889436564515,0.17157510583520555,0.21601346291058704
0.2,0.2,0.2,0.2,0.2,0.2
0.2619476373353643,-0.277291719168894,-5.581110520006882e-05,0.009410001654698375,-0.2877362429291186,-0.18238083271723515,-0.2772917191688939,0.3024882448573551,0.00011019048414446058,-0.06554834676473391,0.3066664077026808,0.17899241917298112,-5.581110520006755e-05,0.00011019048414445861,0.9999995990537826,0.00018378866584490365,0.00020214443612731834,-0.0005515460863624599,0.009410001654697714,-0.06554834676473312,0.00018378866584490267,0.9152622674423797,-0.09205007756371539,0.2515679757191575,-0.28773624292911937,0.3066664077026816,0.0002021444361273189,-0.09205007756371608,0.32703413369226325,0.1704194082376509,-0.1823808327172329,0.17899241917297898,-0.0005515460863624571,0.2515679757191573,0.17041940823764778,0.21717418068776764
0.2,0.2,0.2,0.2,0.2,0.2
0.2618497520471891,-0.27748796086368765,-5.621176750378883e-05,0.009588223108656738,-0.2872951783485608,-0.18290137538629925,-0.27748796086368804,0.30160817435960696,0.00011008871815607186,-0.06551872500358821,0.3073811504307997,0.17893197812196857,-5.621176750378282e-05,0.00011008871815606477,0.9999995963764619,0.00018500243807499802,0.00020421658599681415,-0.0005551283137120447,0.009588223108653862,-0.06551872500358476,0.00018500243807499723,0.9147116885716433,-0.0929775133505441,0.2531934153292623,-0.287295178348563,0.3073811504308015,0.00020421658599682017,-0.0929775133505473,0.3249684173446712,0.17313687963030647,-0.18290137538629042,0.17893197812195874,-0.0005551283137120397,0.253193415329261,0.17313687963029523,0.2123746352173834
0.2,0.2,0.2,0.2,0.2,0.2
0.2620716998952453,-0.27704133744041237,-5.530519179747459e-05,0.00918501036662676,-0.28829510723418095,-0.18172378489137309,-0.27704133744041254,0.3039356093195457,0.00010999705598148504,-0.06543357508790744,0.3057435096060662,0.178603756475009,-5.5305191797472943e-05,0.00010999705598148213,0.9999996027585347,0.00018210313263342093,0.00019953590711097112,-0.0005465562694552396,0.009185010366626088,-0.06543357508790647,0.00018210313263342188,0.9160296256472241,-0.09088299147775088,0.24929540049049836,-0.2882951072341815,0.30574350960606667,0.00019953590711097328,-0.09088299147775157,0.3296522702107393,0.167000740290482,-0.18172378489137092,0.17860375647500637,-0.0005465562694552417,0.2492954004904979,0.16700074029047926,0.2239063027528412
0.2,0.2,0.2,0.2,0.2,0.2
0.2621754695326426,-0.2766848897156479,-5.5111673119845495e-05,0.009103900376563058,-0.28869614467154653,-0.1814945013036732,-0.2766848897156473,0.30557727528968326,0.00011022555452932342,-0.06550662838676162,0.3043694739433638,0.1787654132505619,-5.511167311984675e-05,0.00011022555452932258,0.9999996035873467,0.0001817315586224502,0.00019877415549605362,-0.0005454587249770042,0.009103900376563756,-0.06550662838676127,0.00018173155862245084,0.9161967571391686,-0.09056314612080782,0.24880072630938366,-0.2886961446715463,0.3043694739433651,0.00019877415549605085,-0.09056314612080622,0.3312109197316202,0.16609597494501033,-0.18149450130367503,0.17876541325056072,-0.0005454587249770041,0.24880072630938277,0.1660959749450141,0.22537230738852382
0.2,0.2,0.2,0.2,0.2,0.2
0.2611047741304986,-0.27517694934298714,-6.140546014836804e-05,0.006050637324806171,-0.28686548933415473,-0.18284572926787268,-0.27517694934298836,0.2977682421327772,0.00012350823466419173,-0.05678052823676825,0.3045780522781669,0.17913807566152867,-6.140546014836577e-05,0.00012350823466418466,0.9999995624135064,0.00016193557639205872,0.00020829979408136634,-0.0005547334063823446,0.006050637324805473,-0.056780528236764945,0.00016193557639205985,0.9002951993193278,-0.08958459638914662,0.2519580930607891,-0.28686548933415484,0.3045780522781671,0.0002082997940813687,-0.08958459638914634,0.3255311880313583,0.1724111732606062,-0.18284572926787035,0.1791380756615202,-0.0005547334063823497,0.25195809306078876,0.17241117326060565,0.21418459915155558
0.278783037843372,0.2166552068983159,0.20000283618936238,0.20021846536393967,0.2448973503044079,0.21700925787038405
0.2687747345211275,-0.2549904475462779,-4.1292044874008755e-05,0.0032402244094918106,-0.31463286895984865,-0.16480255973888036,-0.2549904475462778,0.3932723035185127,0.00013446483251142692,-0.07485788166000008,0.22273659848226596,0.20372587889756322,-4.129204487400871e-05,0.00013446483251142527,0.999999661397366,0.00015594841794903534,0.00013851732512656928,-0.00046989425500022417,0.003240224409491777,-0.07485788165999938,0.00015594841794903526,0.9277234607102224,-0.06474932685255404,0.2149726967635642,-0.31463286895984865,0.22273659848226676,0.00013851732512656887,-0.0647493268525539,0.4350206884846867,0.09222650539713839,-0.1648025597388804,0.20372587889756086,-0.00046989425500022476,0.2149726967635646,0.09222650539713939,0.3247282485907212
0.2,0.2,0.2,0.2,0.2,0.2
0.26451877257392525,-0.2684742714539222,-5.10100765867218e-05,0.007397281458525388,-0.2976653832286137,-0.1766898931664086,-0.26847427145392244,0.33442721539546844,0.00012442555433396857,-0.07140689680378115,0.2730175775162647,0.19536463792803588,-5.1010076586722615e-05,0.0001244255543339709,0.9999996110789657,0.0001785991590631598,0.00018295913554376733,-0.0005366168979398691,0.007397281458525692,-0.07140689680378197,0.00017859915906315914,0.9175071868756955,-0.08397690440523031,0.24510071047171508,-0.29766538322861336,0.2730175775162635,0.0001829591355437669,-0.08397690440523023,0.3655741883533122,0.14754429307379988,-0.1766898931664097,0.19536463792803882,-0.0005366168979398684,0.24510071047171536,0.1475442930738004,0.23582090294993346
0.2,0.2,0.2,0.2,0.2,0.2
0.2616858345938592,-0.2779218109432324,-5.6718707496864975e-05,0.009810193878588029,-0.28660380500451044,-0.1835442980862337,-0.2779218109432346,0.29919702248092067,0.00011026164448262458,-0.06564205727287364,0.3090335285668727,0.17938005602487667,-5.6718707496863546e-05,0.00011026164448262212,0.9999995928988906,0.00018658397151444293,0.00020664756623585897,-0.000559817326772145,0.009810193878587262,-0.06564205727287227,0.00018658397151444283,0.9139916068733168,-0.094050119989028,0.2553298752917901,-0.2866038050045101,0.3090335285668695,0.00020664756623586065,-0.09405011998902901,0.3219588233833261,0.1762557296297657,-0.18354429808623146,0.17938005602487372,-0.0005598173267721463,0.2553298752917912,0.17625572962976319,0.20603286543179541
0.2,0.2,0.2,0.2,0.2,0.2
0.26173649207024013,-0.2778108710087443,-5.652599337265818e-05,0.009724785752408135,-0.28682784104183245,-0.183295322431167,-0.2778108710087438,0.2998747500588079,0.00011014654651549939,-0.0655772242157415,0.3086174603178479,0.17916461797643776,-5.65259933726589e-05,0.00011014654651549453,0.9999995943294231,0.00018593245710111014,0.0002056741555329535,-0.0005578859747716954,0.009724785752408574,-0.06557722421573928,0.0001859324571011111,0.9142885595536279,-0.0936159664928339,0.2544491588575138,-0.28682784104183195,0.30861746031785015,0.00020567415553295239,-0.09361596649283277,0.32298730719918184,0.1749860649129399,-0.1832953224311691,0.17916461797643213,-0.0005578859747717033,0.2544491588575155,0.1749860649129459,0.2086457898652586
0.2,0.2,0.2,0.2,0.2,0.2
0.2618850916445482,-0.2773645649592738,-5.614945520331533e-05,0.00956227078536902,-0.28743045391682176,-0.18282826357564164,-0.2773645649592729,0.30182116685322025,0.00011052284571631168,-0.06571155096272469,0.30691659771409,0.17949934091101924,-5.6149455203317206e-05,0.00011052284571631304,0.9999995962710985,0.00018505826576410974,0.00020397031754416963,-0.0005553095842969557,0.009562270785370119,-0.06571155096272531,0.00018505826576411182,0.9146827995804558,-0.09287451573293709,0.2532861254457732,-0.2874304539168212,0.3069165977140907,0.00020397031754416817,-0.09287451573293548,0.32548595718946827,0.1728458556544975,-0.18282826357564483,0.1794993409110225,-0.0005553095842969602,0.25328612544577295,0.1728458556545017,0.21207887607434295
0.278783037843372,0.2166552068983159,0.20000283618936238,0.20021846536393967,0.2448973503044079,0.21700925787038405
0.2652717603064741,-0.2667859219785034,-4.8199900315114694e-05,0.006153177995792202,-0.30098378226102357,-0.17306546510751897,-0.2667859219785033,0.3433283997711469,0.00012371399815495375,-0.07091682585380414,0.2670487227124491,0.19363131482117132,-4.819990031511418e-05,0.00012371399815495172,0.9999996315629549,0.00016928542850299367,0.0001682283565146036,-0.0005090704865603816,0.006153177995792013,-0.07091682585380314,0.00016928542850299383,0.921745112404083,-0.0774005481344145,0.23256127166547708,-0.3009837822610238,0.26704872271245017,0.00016822835651460368,-0.07740054813441447,0.3809040263431679,0.12830278699330866,-0.17306546510751838,0.19363131482116822,-0.000509070486560382,0.2325612716654771,0.12830278699330885,0.27293292775337147
0.2,0.2,0.2,0.2,0.2,0.2
0.2614476410826706,-0.2760608483994347,-5.9129120043326546e-05,0.007472579330149734,-0.2871861332119304,-0.18272192812847696,-0.2760608483994368,0.2999052842054718,0.00011780934590256429,-0.06047064005713242,0.3053979971193247,0.1789914457526395,-5.912912004332188e-05,0.00011780934590256206,0.99999957742688,0.00017119189235374283,0.00020605158316105846,-0.0005537773020067248,0.007472579330146611,-0.06047064005713087,0.00017119189235374318,0.9066110916875862,-0.090656340730469,0.25181933803619727,-0.28718613321193154,0.30539799711932225,0.00020605158316106605,-0.09065634073047386,0.3259870394050085,0.17188819635841754,-0.1827219281284693,0.17899144575263498,-0.0005537773020067258,0.2518193380361974,0.17188819635840638,0.21511590123531527
0.4222275328421464,0.24698023380802683,0.20000800019118234,0.20061623694857128,0.3266443597812795,0.2479789243406194
0.26206211197267265,-0.2770470588956988,-5.536538686490742e-05,0.009212237342042044,-0.28824592412549344,-0.1818040032022644,-0.27704705889569714,0.3039882245328008,0.00010992482613391029,-0.06539988707096968,0.3057542227632053,0.17850108878579102,-5.5365386864909203e-05,0.00010992482613390773,0.9999996023863095,0.00018227090598360338,0.00019987207280511678,-0.0005470478137521204,0.009212237342042748,-0.06539988707096857,0.0001822709059836023,0.9159540237612216,-0.09103544327452429,0.2495168308876918,-0.2882459241254935,0.3057542227632081,0.00019987207280511225,-0.09103544327452287,0.32939303847048684,0.16745056843545097,-0.1818040032022666,0.17850108878578996,-0.000547047813752119,0.24951683088769308,0.16745056843545522,0.22325796891563998
0.2,0.2,0.2,0.2,0.2,0.2
0.27376153256460445,-0.23783568250655004,-3.2040514243788555e-05,-0.0006352064412904247,-0.33388621848928574,-0.15385062610296027,-0.23783568250655032,0.46582774168434127,0.00014838577358986215,-0.07980842178961746,0.15983422517550908,0.21616496319486608,-3.204051424378811e-05,0.00014838577358986243,0.9999997035947019,0.00013705650543613932,9.722725889373641e-05,-0.0004144224708488188,-0.0006352064412906321,-0.07980842178961756,0.00013705650543613927,0.9362056316399087,-0.047192735925489726,0.19002730904130308,-0.33388621848928574,0.15983422517550852,9.722725889373731e-05,-0.047192735925490135,0.5111770118039195,0.042202305557926534,-0.1538506261029597,0.21616496319486656,-0.00041442247084881877,0.19002730904130313,0.04220230555792535,0.3981570456899135
0.2,0.2,0.2,0.2,0.2,0.2
0.2617470356798389,-0.27780883318987193,-5.645316478040783e-05,0.00969175166172029,-0.2868838387091014,-0.1831978553677064,-0.277808833189873,0.2998023233521782,0.00011021767381942554,-0.0656107759992449,0.30862239597359264,0.17926762945575522,-5.6453164780406445e-05,0.00011021767381942564,0.9999995947998882,0.00018572003765838705,0.00020526462228171694,-0.0005572627758527992,0.009691751661719906,-0.06561077599924489,0.00018572003765838916,0.9143844443226091,-0.09342990011732205,0.2541679308650969,-0.2868838387091011,0.3086223959735903,0.00020526462228172125,-0.093429900117323,0.3232902208692369,0.17443654797246047,-0.1831978553677056,0.17926762945575675,-0.0005572627758528057,0.2541679308650974,0.17443654797245825,0.20947038762383316
0.278783037843372,0.2166552068983159,0.20000283618936238,0.20021846536393967,0.2448973503044079,0.21700925787038405
0.2676241708315835,-0.26068113063185033,-4.0655718019374165e-05,0.0028429960029356413,-0.3110286999669789,-0.16347002180541065,-0.26068113063185067,0.3768815186598226,0.00011994234513816426,-0.06857648938410071,0.2452793833493039,0.18561578878585971,-4.065571801937357e-05,0.00011994234513816318,0.9999996881668232,0.000143516974781047,0.00012895255022160192,-0.0004327651978523191,0.00284299600293534,-0.0685764893841002,0.00014351697478104709,0.9334876687597362,-0.059976552725903826,0.19776915445482154,-0.311028699966979,0.24527938334930374,0.00012895255022160251,-0.0599765527259041,0.4260364848282674,0.07750867603386183,-0.16347002180540987,0.1856157887858577,-0.0004327651978523189,0.19776915445482143,0.07750867603386126,0.376056229846508
0.2,0.2,0.2,0.2,0.2,0.2
0.2625376516252829,-0.2754092599658922,-5.4487084296215755e-05,0.00884449646283013,-0.29008026447390856,-0.18076502421869634,-0.27540925996589194,0.3106035697426378,0.00011189622203392975,-0.06617048908536964,0.2994745495511312,0.18057193861279483,-5.4487084296217964e-05,0.0001118962220339324,0.9999996051899047,0.00018103620400289507,0.00019640659220423345,-0.0005434434296575939,0.008844496462831248,-0.06617048908537085,0.00018103620400289572,0.916499607995548,-0.0895809559712892,0.24792081226508075,-0.2900802644739076,0.29947454955113056,0.00019640659220423215,-0.08958095597128814,0.33650160431126075,0.163336175010686,-0.18076502421869992,0.18057193861279955,-0.0005434434296575985,0.24792081226508242,0.16333617501069012,0.2279330302470844
0.2,0.2,0.2,0.2,0.2,0.2
0.26195256588315224,-0.27727941137749623,-5.579474737900029e-05,0.00940280709296872,-0.28775733305790924,-0.18235994304983916,-0.2772794113774958,0.3025205836023755,0.00011022097868817752,-0.06556156317493701,0.3066212023165507,0.17903078063918842,-5.5794747379003e-05,0.00011022097868817614,0.9999995991320493,0.00018375368495772873,0.0002020630645270393,-0.0005514439462218198,0.009402807092970015,-0.0655615631749364,0.00018375368495772909,0.9152779099950944,-0.09201398459039338,0.2515222958426661,-0.28775733305790846,0.30662120231655127,0.00020206306452703548,-0.0920139845903914,0.32712751115074,0.17031413162831432,-0.18235994304984313,0.17903078063918929,-0.0005514439462218249,0.2515222958426681,0.170314131628321,0.21730756667862686
0.2,0.2,0.2,0.2,0.2,0.2
0.26198334254468253,-0.2772574025635778,-5.5606448751545623e-05,0.009317713741311193,-0.28791422016393803,-0.18210937691085782,-0.277257402563578,0.3028748198694607,0.00010995455025490784,-0.06543412278154889,0.3065523774858628,0.17864019708523857,-5.560644875154465e-05,0.00010995455025490952,0.9999996007834502,0.00018299895810658517,0.00020103111910223999,-0.0005492041465409094,0.009317713741310794,-0.06543412278154974,0.0001829989581065854,0.9156229403705174,-0.0915466485315877,0.2504981267663368,-0.28791422016393853,0.3065523774858619,0.00020103111910224142,-0.09154664853158821,0.32795057014971374,0.1689366728597672,-0.18210937691085588,0.1786401970852403,-0.0005492041465409056,0.25049812676633465,0.16893667285976322,0.22034817447024327
0.2,0.2,0.2,0.2,0.2,0.2
0.2626929270090473,-0.2750700768951947,-5.38902132482706e-05,0.008579877276518674,-0.29077149616544495,-0.1799936572784505,-0.27507007689519375,0.31386202293714194,0.00011035383546316431,-0.06541055877952799,0.29816973722563767,0.1781990579177751,-5.389021324827138e-05,0.00011035383546316584,0.9999996108545494,0.0001784367777798077,0.00019338671389949142,-0.0005356903575107209,0.00857987727651898,-0.06541055877952875,0.0001784367777798074,0.9176934074999107,-0.08823420947352477,0.24435823628600908,-0.2907714961654452,0.2981697372256388,0.00019338671389949004,-0.08823420947352445,0.33970780143819895,0.15939972936654753,-0.1799936572784513,0.17819905791777704,-0.0005356903575107182,0.2443582362860087,0.15939972936654823,0.2385687843047432
0.2,0.2,0.2,0.2,0.2,0.2
0.26219705588141934,-0.2766782219155194,-5.4965257449455566e-05,0.009037534355357972,-0.2888107011201379,-0.18129880197829473,-0.27667822191551944,0.30601986636027523,0.00010979685049604451,-0.06530400671829584,0.30434928930924104,0.17814746988278238,-5.496525744945639e-05,0.00010979685049604398,0.9999996051074331,0.00018103356302695398,0.00019796609919871515,-0.0005433790266543408,0.009037534355358371,-0.06530400671829566,0.00018103356302695426,0.916517367406499,-0.09019654604245195,0.24784520480000127,-0.2888107011201377,0.3043492893092414,0.00019796609919871253,-0.09019654604245073,0.33183199086834947,0.16501471397982304,-0.1812988019782953,0.17814746988278074,-0.0005433790266543376,0.24784520479999958,0.16501471397982517,0.22822071676373096
0.2,0.2,0.2,0.2,0.2,0.2
0.273998080021042,-0.23772445251182434,-3.0263104151990524e-05,-0.0014407898839543308,-0.3353239025064978,-0.1514837610922038,-0.23772445251182456,0.49517621390743327,0.00011861602264221423,-0.06576527461676715,0.15938661645159022,0.17336112913605395,-3.0263104151989775e-05,0.00011861602264221424,0.9999997505178619,0.00011520931147178883,8.481763607204415e-05,-0.00034866404461160266,-0.0014407898839546894,-0.06576527461676716,0.00011520931147178882,0.9463807676824619,-0.0415597458357115,0.15939166171059932,-0.33532390250649796,0.15938661645158997,8.48176360720453e-05,-0.04155974583571204,0.5210909893017085,0.02567727212845591,-0.1514837610922027,0.17336112913605392,-0.0003486640446116023,0.15939166171059913,0.025677272128454127,0.49042458434212977
0.2,0.2,0.2,0.2,0.2,0.2
0.2621102611301458,-0.27693511608907284,-5.519209288486059e-05,0.009135666822278038,-0.2884561632281503,-0.18158115447723486,-0.27693511608907223,0.3045566674692632,0.00010992497044021321,-0.06538932658456378,0.30533717226492363,0.17845108103348367,-5.5192092884861264e-05,0.00010992497044021385,0.9999996035612009,0.00018173753336998743,0.00019900031911284708,-0.0005454706750131212,0.0091356668222784,-0.06538932658456394,0.00018173753336998757,0.916196361411631,-0.09064747424755921,0.2487999095320133,-0.28845616322815043,0.30533717226492485,0.00019900031911284548,-0.09064747424755823,0.33034603382305705,0.16631725743234646,-0.1815811544772353,0.1784510810334834,-0.0005454706750131188,0.24879990953201175,0.1663172574323476,0.22537953093001237
0.2,0.2,0.2,0.2,0.2,0.2
0.2658730096501672,-0.26588358750257446,-4.522438442771191e-05,0.004818980772535973,-0.3038651651619871,-0.1691538462903487,-0.26588358750257446,0.35300023559850385,0.00011794674013511398,-0.06812022280648444,0.2641138672985106,0.18500569108924914,-4.5224384427712434e-05,0.00011794674013511322,0.9999996595922619,0.00015645253715220156,0.0001516458714747048,-0.00047093949279730413,0.004818980772536264,-0.06812022280648415,0.00015645253715220207,0.9276233786292389,-0.06992504708795427,0.21508913811694458,-0.30386516516198686,0.2641138672985106,0.0001516458714747042,-0.06992504708795369,0.3954711570797338,0.10632966574590723,-0.1691538462903496,0.1850056910892491,-0.00047093949279730635,0.21508913811694463,0.10632966574590877,0.32487847796549
0.2,0.2,0.2,0.2,0.2,0.2
0.2619278997250115,-0.2772796100640667,-5.597252118169156e-05,0.009483534295628723,-0.2876240433439946,-0.182598255363417,-0.2772796100640659,0.30254521260189227,0.00011022522734272982,-0.0655631218697369,0.30659550997564283,0.17903319999130834,-5.597252118169062e-05,0.00011022522734273124,0.9999995977978895,0.00018435973424043534,0.0002030640684578783,-0.0005532317304856443,0.009483534295628513,-0.06556312186973783,0.00018435973424043718,0.9150026143191607,-0.09246904743567351,0.25233435363480994,-0.2876240433439952,0.3065955099756437,0.00020306406845788062,-0.0924690474356736,0.3263963993990421,0.17165831924948075,-0.1825982553634157,0.17903319999131084,-0.0005532317304856446,0.25233435363480733,0.1716583192494774,0.21491232007885094
0.2,0.2,0.2,0.2,0.2,0.2
0.26205926477711167,-0.2770574568941441,-5.536994104622569e-05,0.009214108433029267,-0.28823501981229244,-0.18180922344100214,-0.2770574568941444,0.303821787510567,0.00011003551217961205,-0.06545315123247064,0.30579895424935183,0.17866555260525757,-5.5369941046224545e-05,0.00011003551217961025,0.9999996022528208,0.00018233347061369346,0.00019988466875368893,-0.0005472380848502332,0.009214108433028606,-0.06545315123247028,0.00018233347061369303,0.915924674870106,-0.09104032159012602,0.24960613254875963,-0.2882350198122927,0.3057989542493518,0.00019988466875369066,-0.09104032159012727,0.32935107264336205,0.1674635734097864,-0.18180922344100064,0.17866555260525588,-0.000547238084850235,0.24960613254876068,0.1674635734097845,0.22298616313183744
0.278783037843372,0.2166552068983159,0.20000283618936238,0.20021846536393967,0.2448973503044079,0.21700925787038405
0.2629675899753993,-0.27357123233017777,-5.425519577663739e-05,0.008774121019189294,-0.2915737690282533,-0.18060944990193967,-0.27357123233017805,0.3148736077218394,0.0001174038249596144,-0.06858806141333125,0.2924024247353418,0.18762431290347942,-5.4255195776639313e-05,0.00011740382495961687,0.99999959933774,0.00018379608949115094,0.00019671687512267928,-0.0005517836235650019,0.008774121019190256,-0.06858806141333254,0.00018379608949115213,0.9152014630792087,-0.08985635450589823,0.25183887049854303,-0.29157376902825255,0.2924024247353397,0.0001967168751226778,-0.08985635450589705,0.34134289705680626,0.16434856971873016,-0.18060944990194217,0.18762431290348405,-0.000551783623565005,0.2518388704985429,0.16434856971873282,0.21611388135985637
0.2,0.2,0.2,0.2,0.2,0.2
0.26213678600612783,-0.2767509959681172,-5.5288454160059884e-05,0.009182925975733764,-0.2885161856485047,-0.18172589237543813,-0.2767509959681168,0.3050223496901208,0.00011045606472694981,-0.06562150281168508,0.30461271149796154,0.17912564388801827,-5.5288454160060975e-05,0.00011045606472695061,0.9999996021041394,0.0001824091583266182,0.00019970276176849895,-0.0005474707854918943,0.009182925975734231,-0.06562150281168538,0.00018240915832661806,0.9158870208523905,-0.0909802448327515,0.2497208049371138,-0.28851618564850456,0.30461271149796154,0.00019970276176849722,-0.09098024483275084,0.33033973112534154,0.1673200859590624,-0.1817258923754394,0.17912564388802063,-0.0005474707854918938,0.24972080493711368,0.16732008595906375,0.22263844521801618
0.2,0.2,0.2,0.2,0.2,0.2
0.2619638728187402,-0.2768117013419974,-5.6131038880319356e-05,0.009078829215303466,-0.28798879948851125,-0.18226068043045304,-0.2768117013419968,0.30370162587531857,0.00011126243266284599,-0.06455053156208862,0.30538788798190947,0.17853904802225593,-5.613103888032022e-05,0.00011126243266284542,0.9999995968093385,0.0001814462475469163,0.00020207620456331625,-0.0005505258811148497,0.009078829215303702,-0.06455053156208815,0.00018144624754691546,0.9141537589572888,-0.09169900934414059,0.25099822116324666,-0.28798879948851114,0.30538788798191063,0.00020207620456331454,-0.09169900934414033,0.3281101584843424,0.17001841409595927,-0.18226068043045432,0.1785390480222546,-0.0005505258811148484,0.2509982211632477,0.17001841409596205,0.21871744154621162
0.2,0.2,0.2,0.2,0.2,0.2
0.2618117926617863,-0.27549942617290885,-5.780649492701063e-05,0.00758234326989927,-0.2883697091705038,-0.18184651154563228,-0.27549942617290774,0.30131757275257043,0.00011906222456848733,-0.059323971382324474,0.30390467096674684,0.1784863998817307,-5.780649492701163e-05,0.0001190622245684832,0.9999995835961016,0.0001700028442051611,0.00020105722825831647,-0.0005475297714326597,0.007582343269900036,-0.059323971382322795,0.00017000284420516296,0.9079711879579787,-0.09038199343215188,0.2491493204239447,-0.2883697091705037,0.30390467096674995,0.00020105722825831436,-0.09038199343214988,0.33020837663901464,0.16770666007363247,-0.18184651154563444,0.17848639988172657,-0.000547529771432665,0.24914932042394475,0.16770666007363794,0.2233419062525405
0.2,0.2,0.2,0.2,0.2,0.2
0.2649711398629427,-0.26777449106694085,-4.882047213437866e-05,0.006416195141880806,-0.29980968771343286,-0.17381403181046054,-0.2677744910669401,0.3416398538932724,0.0001203378181402633,-0.06941819174564234,0.27066724799655095,0.18921739295087264,-4.882047213438137e-05,0.00012033781814026678,0.9999996312844968,0.0001693500875098031,0.0001709785380193054,-0.0005091294643180648,0.006416195141882033,-0.06941819174564394,0.0001693500875098027,0.9217431110829636,-0.0785805398428657,0.2325075917982688,-0.29980968771343214,0.27066724799655106,0.00017097853801930195,-0.07858053984286431,0.3762537555378154,0.13168597259965487,-0.17381403181046423,0.18921739295087736,-0.0005091294643180644,0.2325075917982692,0.1316859725996594,0.273268814668601
0.2,0.2,0.2,0.2,0.2,0.2
0.2616610297162539,-0.277986346139648,-5.679706834606535e-05,0.009844553083239137,-0.2864987614305175,-0.1836438949800107,-0.2779863461396528,0.2989116287234237,0.00011021472122653818,-0.06562611265318911,0.309276549605227,0.1793419930913565,-5.679706834605654e-05,0.00011021472122653237,0.9999995924327496,0.00018679470656526482,0.00020702751403195378,-0.0005604389962147441,0.00984455308323502,-0.0656261126531861,0.00018679470656526422,0.913896237845398,-0.09421804707828836,0.2556113820817446,-0.28649876143051917,0.30927654960522133,0.0002070275140319657,-0.09421804707829382,0.321499605773086,0.17674453016184472,-0.18364389497999767,0.1793419930913469,-0.0005604389962147398,0.25561138208174305,0.17674453016182626,0.20520162573105488
0.2,0.2,0.2,0.2,0.2,0.2
0.2619166772030873,-0.27733040135141085,-5.5974192506792486e-05,0.00948332806839636,-0.28758631831633513,-0.18259620400339796,-0.2773304013514109,0.30242188691486627,0.00011007814621474127,-0.065498732110502,0.30679128598248323,0.17884571045495426,-5.5974192506794146e-05,0.00011007814621474894,0.9999995979888803,0.0001842702652055865,0.00020302956190742927,-0.0005529625306149758,0.009483328068397115,-0.06549873211050529,0.00018427026520558565,0.9150444399912385,-0.09244965460745434,0.25220862603359,-0.2875863183163347,0.30679128598248107,0.00020302956190742884,-0.09244965460745447,0.3262817667404784,0.17159554235947017,-0.18259620400340038,0.17884571045496325,-0.0005529625306149732,0.2522086260335898,0.17159554235947033,0.21529010406725785
0.2,0.2,0.2,0.2,0.2,0.2
0.2623710748520171,-0.2760651829287778,-5.466561440005143e-05,0.00891310749320376,-0.2894754611182618,-0.18094892248402047,-0.2760651829287795,0.3082907004825502,0.0001107419412071558,-0.06569018669361949,0.30200345259796774,0.17922078660557697,-5.466561440004985e-05,0.00011074194120715474,0.9999996057334473,0.0001807673699256087,0.00019682520454252292,-0.0005426179883724592,0.008913107493203102,-0.06569018669361883,0.00018076736992560886,0.9166308492804821,-0.08972300569895497,0.24752019166732792,-0.28947546111826167,0.3020034525979653,0.00019682520454252547,-0.08972300569895574,0.33437173664739334,0.16368359860699355,-0.18094892248401828,0.1792207866055758,-0.0005426179883724602,0.24752019166732753,0.16368359860698997,0.22915267608949455
0.2,0.2,0.2,0.2,0.2,0.2
0.27889106297075605,-0.21880933844054287,-2.4770790974795788e-05,-0.0035748940393555773,-0.35298959499811094,-0.14571132892825403,-0.21880933844054273,0.5461579153148973,0.00016620652324129314,-0.08638778798494133,0.0881511514148159,0.23310667726234333,-2.477079097479582e-05,0.0001662065232412926,0.9999997224512467,0.00012884474642739353,7.093939824331534e-05,-0.0003904920524552263,-0.0035748940393555534,-0.08638778798494105,0.00012884474642739353,0.9398037172338428,-0.03661628244629623,0.17950036868424524,-0.35298959499811094,0.0881511514148162,7.093939824331516e-05,-0.03661628244629613,0.5823806129226178,0.013027079043934402,-0.1457113289282542,0.2331066772623429,-0.00039049205245522673,0.17950036868424551,0.013027079043934884,0.42903370528810886
0.4222275328421464,0.24698023380802683,0.20000800019118234,0.20061623694857128,0.3266443597812795,0.2479789243406194
0.2617364106760156,-0.27784010252286423,-5.648111449097081e-05,0.009703850214642972,-0.28684044060518593,-0.18323268077870283,-0.27784010252286445,0.2996344127727639,0.00011022291055315916,-0.06561627594208207,0.308742473757658,0.17928968705082357,-5.648111449097009e-05,0.00011022291055316086,0.9999995946206076,0.00018580148488195843,0.0002053917848611029,-0.0005575043985381118,0.009703850214642873,-0.06561627594208289,0.0001858014848819594,0.914347384779038,-0.09348536870299454,0.2542779786271863,-0.286840440605186,0.3087424737576572,0.00020539178486110522,-0.09348536870299476,0.32310859492026667,0.17459684026723252,-0.18323268077870228,0.17928968705082513,-0.0005575043985381134,0.25427797862718526,0.17459684026723074,0.20914339854231162
0.2,0.2,0.2,0.2,0.2,0.2
0.2623678995285494,-0.27551093178309743,-5.518158619233863e-05,0.008590573496050018,-0.28966014422369313,-0.18099875401600893,-0.2755109317830968,0.3081314481670901,0.00011320470905679818,-0.06280845239051905,0.30140305878134654,0.17765144068079344,-5.518158619233835e-05,0.00011320470905679671,0.9999996011958031,0.00017699193558510964,0.0001967505770283994,-0.0005417435496870307,0.008590573496049938,-0.0628084523905183,0.0001769919355851096,0.9143004330736657,-0.0902548771832282,0.24718098215648496,-0.2896601442236935,0.3014030587813483,0.0001967505770283992,-0.09025487718322797,0.3346943658522026,0.16430849999169778,-0.1809987540160087,0.17765144068079075,-0.0005417435496870301,0.24718098215648485,0.1643084999916987,0.2303856637487899
0.2,0.2,0.2,0.2,0.2,0.2
0.2684826495319255,-0.2560135734607081,-4.181029695504956e-05,0.0034561485167403623,-0.31350914126942653,-0.16541067345910584,-0.25601357346070824,0.38796560224047344,0.00013447062860349676,-0.07495938005917929,0.22664112966612263,0.20420639245384145,-4.181029695504868e-05,0.00013447062860349579,0.999999658470292,0.00015727596143213146,0.00014061547701036303,-0.00047384116513516647,0.0034561485167399525,-0.07495938005917882,0.0001572759614321314,0.9271195247002454,-0.0656281316940185,0.2167715746244476,-0.31350914126942686,0.2266411296661227,0.00014061547701036406,-0.06562813169401896,0.4306360784740124,0.09470710299352815,-0.16541067345910473,0.20420639245383992,-0.0004738411651351662,0.2167715746244474,0.09470710299352689,0.3193639685482822
0.6736191170684349,0.3001259230629696,0.20001705028821448,0.2013133458116308,0.46990890414966213,0.3022543673750751
0.2616512173138572,-0.27800976145838063,-5.683136579286467e-05,0.009859683412580988,-0.2864562551636124,-0.1836878955645261,-0.27800976145838174,0.2987984840498656,0.00011020816775391906,-0.06562525527577372,0.3093642659819908,0.17934315453700322,-5.683136579286439e-05,0.00011020816775391677,0.9999995922094244,0.00018689596904660375,0.0002071979503712725,-0.000560738222866948,0.009859683412580799,-0.06562525527577309,0.00018689596904660285,0.9138502832512234,-0.0942937803408221,0.25574724487647116,-0.28645625516361195,0.30936426598198996,0.00020719795037127292,-0.0942937803408225,0.32130890035612636,0.17696559414302537,-0.18368789556452603,0.17934315453699975,-0.0005607382228669506,0.2557472448764729,0.1769655941430267,0.2047998265685202
0.2,0.2,0.2,0.2,0.2,0.2
0.26197283524677234,-0.2772338474641333,-5.571893382667681e-05,0.009369242919474203,-0.28784690652474404,-0.18226217314277016,-0.2772338474641325,0.3030859482946334,0.00010988883376799145,-0.06540047462643778,0.30643970926472314,0.1785317083762198,-5.5718933826677536e-05,0.00010988883376798986,0.9999995999813966,0.00018336214391101094,0.00020168914032622984,-0.0005502713461147989,0.009369242919474574,-0.06540047462643708,0.00018336214391101135,0.9154585528083137,-0.09184760267549172,0.2509809981056961,-0.287846906524744,0.3064397092647253,0.00020168914032622757,-0.0918476026754906,0.327539076123838,0.16982846546616734,-0.18226217314277116,0.178531708376217,-0.0005502713461147982,0.2509809981056958,0.1698284654661706,0.21893023549634116
0.2,0.2,0.2,0.2,0.2,0.2
0.26223590638395616,-0.2765202504063707,-5.493259084965557e-05,0.009025704000951616,-0.28894849522761884,-0.1812683294499573,-0.2765202504063706,0.30597460864314435,0.00011067280459947536,-0.06570191783769677,0.303762351014653,0.1793347003954445,-5.493259084965601e-05,0.00011067280459947423,0.9999996043010888,0.00018141566865695206,0.00019790535408946124,-0.0005445428902882898,0.009025704000951809,-0.06570191783769636,0.00018141566865695257,0.9163366228842048,-0.09018015194216161,0.24839526436017573,-0.2889484952276188,0.30376235101465343,0.0001979053540894603,-0.09018015194216104,0.33229709922204276,0.16498241193982333,-0.18126832944995797,0.17933470039544339,-0.000544542890288291,0.24839526436017545,0.16498241193982494,0.22654733309682876
0.2,0.2,0.2,0.2,0.2,0.2
0.2624960364319362,-0.2758220455442687,-5.414076044961511e-05,0.008679374725272799,-0.2900434327656623,-0.18026590083696678,-0.2758220455442685,0.3098222548626028,0.0001104169543443233,-0.0655141866336426,0.3011129204795372,0.178647223003587,-5.4140760449615604e-05,0.00011041695434432291,0.9999996097371248,0.00017894368314970137,0.00019409199770410707,-0.0005372151307594322,0.008679374725273102,-0.06551418663364239,0.00017894368314970172,0.9174620641631914,-0.08849866719491138,0.24505667147665094,-0.29004343276566236,0.3011129204795377,0.0001940919977041058,-0.0884986671949105,0.33706092399528675,0.16009527491380793,-0.1802659008369674,0.17864722300358668,-0.0005372151307594317,0.24505667147665008,0.16009527491380904,0.2364558729659019
0.2,0.2,0.2,0.2,0.2,0.2
0.26186772835630834,-0.2775172581374178,-5.603647285606366e-05,0.00950806179613001,-0.28740540152252725,-0.18266388712122003,-0.2775172581374175,0.3013235275014571,0.00011018705481867676,-0.06556849392496222,0.3075266358029339,0.1790915148015516,-5.603647285606397e-05,0.00011018705481867612,0.9999995976210928,0.00018443880092388102,0.0002031992885816097,-0.0005534716254425331,0.009508061796130049,-0.06556849392496196,0.00018443880092387988,0.9149668408263484,-0.09251278432658842,0.2524436870016435,-0.2874054015225271,0.3075266358029347,0.00020319928858160942,-0.09251278432658887,0.3256252362199208,0.17176060851283756,-0.1826638871212209,0.17909151480155083,-0.0005534716254425348,0.25244368700164554,0.17176060851283917,0.21457698339295786
0.6736191170684349,0.3001259230629696,0.20001705028821448,0.2013133458116308,0.46990890414966213,0.3022543673750751
0.2617211045408918,-0.2779019007060476,-5.649522185516135e-05,0.009709082625428613,-0.2867854809632126,-0.18324636739924954,-0.2779019007060466,0.29936949358915615,0.00011016003504508831,-0.06559268975772004,0.30898314662111365,0.17922860869698026,-5.649522185515969e-05,0.00011016003504508034,0.9999995946466073,0.00018578841770477872,0.00020541422726280762,-0.0005574650310561073,0.009709082625427929,-0.06559268975771661,0.00018578841770477947,0.9143537979323989,-0.09349099031174875,0.2542588460585326,-0.2867854809632137,0.30898314662111837,0.0002054142272628059,-0.09349099031174762,0.32291877795333307,0.17460654495403666,-0.18324636739924693,0.17922860869696944,-0.0005574650310561033,0.25425884605852983,0.17460654495403677,0.20920017979080952
0.2,0.2,0.2,0.2,0.2,0.2
0.2621741965797913,-0.27662714129708765,-5.521144276980508e-05,0.00915030616969739,-0.2886628504866234,-0.18163312582833097,-0.27662714129708793,0.30559848818389895,0.00011052823746282392,-0.06564350147396941,0.3041364007353306,0.17917160216963882,-5.5211442769804535e-05,0.00011052823746282583,0.9999996024722182,0.00018224354277533654,0.00019938346600276404,-0.000546981391496478,0.009150306169697201,-0.06564350147397026,0.00018224354277533746,0.9159617341639699,-0.09084428714903471,0.24949967301411374,-0.28866285048662343,0.3041364007353295,0.00019938346600276578,-0.09084428714903511,0.33092141124054036,0.16693240105631194,-0.18163312582833013,0.1791716021696409,-0.0005469813914964782,0.2494996730141127,0.16693240105630966,0.2232935967867075
0.2,0.2,0.2,0.2,0.2,0.2
0.26195966161576073,-0.27720924348255466,-5.5852888044767625e-05,0.009430542916685334,-0.2877642030002656,-0.18244382450877314,-0.2772092434825565,0.3028984082523958,0.00011022816393501483,-0.0655578464342584,0.30633457760523825,0.17900602657096742,-5.5852888044764955e-05,0.00011022816393501188,0.9999995986120807,0.00018399014682650802,0.00020245706522649488,-0.00055213923138347,0.009430542916684027,-0.06555784643425708,0.0001839901468265078,0.9151705055016597,-0.09219834655264197,0.25183785252199875,-0.287764203000266,0.30633457760523625,0.0002024570652264978,-0.09219834655264347,0.3270387013777909,0.17086667550352566,-0.1824438245087689,0.17900602657096307,-0.0005521392313834683,0.2518378525219981,0.17086667550352022,0.21638101160306886
0.2,0.2,0.2,0.2,0.2,0.2
0.26196326071784626,-0.27544350501695397,-5.710079341379455e-05,0.0077382073248570835,-0.2887946846395762,-0.18148243216485044,-0.2754435050169546,0.3022767001653898,0.00011848367820486179,-0.05957451133531504,0.30346891601092735,0.1782699366634692,-5.710079341378977e-05,0.00011848367820485952,0.9999995878308757,0.00017057788745098148,0.00019907908623866756,-0.000544845977931125,0.007738207324854557,-0.059574511335313406,0.00017057788745097988,0.9093375097879155,-0.09014898085784738,0.2479561892039017,-0.2887946846395777,0.30346891601092735,0.00019907908623867498,-0.09014898085785189,0.33180483097023805,0.16588974183959587,-0.18148243216484422,0.178269936663465,-0.000544845977931125,0.24795618920390455,0.16588974183958644,0.22692990592428353
0.2,0.2,0.2,0.2,0.2,0.2
0.2727615058557114,-0.24226321392760933,-3.21641317292708e-05,-0.0006636023288449763,-0.33063378238564506,-0.15364706133896056,-0.24226321392760944,0.467915783675559,0.00012266428047247218,-0.06810899890009633,0.1765609273477343,0.18124817239286498,-3.216413172927092e-05,0.00012266428047247207,0.9999997352547934,0.0001222069874941296,9.281925966173125e-05,-0.00036959783729774865,-0.0006636023288449233,-0.06810899890009628,0.00012220698749412965,0.9431634446951113,-0.04486922828469391,0.16903259497647685,-0.330633782385645,0.17656092734773401,9.281925966173121e-05,-0.04486922828469393,0.5026589648875511,0.034926918541994936,-0.15364706133896072,0.18124817239286528,-0.0003695978372977493,0.16903259497647732,0.03492691854199507,0.4615039596309316
0.21739010064147138,0.2036763716162109,0.2000006260436231,0.20004822274907882,0.20991037489416559,0.20375452272849368
0.26171790159830105,-0.27786004890220173,-5.658351108685248e-05,0.009749971542240894,-0.2867494331046835,-0.1833682732782642,-0.27786004890220234,0.2996117279450194,0.00011015587485526255,-0.06558635618282052,0.3088044345860437,0.17920060970558613,-5.65835110868507e-05,0.00011015587485525896,0.9999995939452333,0.00018610700282209973,0.0002059502164923558,-0.0005584030555828547,0.009749971542239878,-0.06558635618281873,0.00018610700282209824,0.9142091684870228,-0.09373778325862239,0.2546845154525397,-0.2867494331046841,0.3088044345860434,0.0002059502164923572,-0.09373778325862382,0.3226460516377599,0.17534030451725097,-0.18336827327826072,0.17920060970558294,-0.0005584030555828538,0.2546845154525414,0.17534030451724655,0.20794775176420854
0.2,0.2,0.2,0.2,0.2,0.2
0.2616983573439288,-0.2778763741931569,-5.669912813813812e-05,0.009802165578599397,-0.2866511144386211,-0.18352189310463043,-0.2778763741931568,0.29947867258075667,0.00011021999498256168,-0.06561794599561616,0.3088547860718533,0.1792985154535095,-5.669912813814123e-05,0.00011021999498256296,0.9999995930361232,0.0001865210120090051,0.00020658225032953493,-0.0005596279555292867,0.009802165578600773,-0.06561794599561656,0.00018652101200900434,0.9140205843574573,-0.09402384871194448,0.25524254800560653,-0.28665111443862,0.30885478607185274,0.00020658225032952943,-0.09402384871194228,0.3221364265640753,0.176183350670819,-0.18352189310463443,0.17929851545351222,-0.0005596279555292845,0.25524254800560664,0.176183350670825,0.2062963335554508
0.2,0.2,0.2,0.2,0.2,0.2
0.26208871597315836,-0.2769774460932409,-5.528252102278049e-05,0.009175930028868386,-0.28835792780006536,-0.18169878092095773,-0.2769774460932412,0.30391468006601235,0.00011035254202205058,-0.06559510159919547,0.30550741969478673,0.179085849293366,-5.528252102278119e-05,0.00011035254202205356,0.9999996025020944,0.00018222604377713924,0.00019945791910454158,-0.0005469337580607828,0.009175930028868663,-0.06559510159919692,0.00018222604377713883,0.91597088023386,-0.09085207674386934,0.2494755576537644,-0.2883579278000651,0.3055074196947852,0.00019945791910454188,-0.09085207674386973,0.32987948391469496,0.16691595565198664,-0.18169878092095865,0.17908584929336996,-0.0005469337580607838,0.24947555765376525,0.16691595565198666,0.22335420891354743
0.2,0.2,0.2,0.2,0.2,0.2
0.2620628254302777,-0.27550662243019286,-5.6569944176447346e-05,0.007944089124305786,-0.28901106908490437,-0.18130966353304004,-0.27550662243019197,0.3033239048696699,0.00011730431711006523,-0.060262775706588396,0.3032103941655545,0.178107275093759,-5.6569944176449264e-05,0.00011730431711006476,0.9999995914475086,0.00017195197279479984,0.00019815115643318686,-0.0005435847647565215,0.00794408912430679,-0.06026277570658848,0.00017195197279480182,0.9106406960253648,-0.09010137401095551,0.24749863342788286,-0.28901106908490415,0.30321039416555606,0.0001981511564331838,-0.09010137401095322,0.33257421834751116,0.1651157014247593,-0.18130966353304245,0.17810727509375898,-0.0005435847647565236,0.24749863342788092,0.1651157014247637,0.22849573656886793
0.2,0.2,0.2,0.2,0.2,0.2
0.26184216682621586,-0.2776679205364486,-5.598599896066029e-05,0.009482278178423936,-0.28733497457882595,-0.18258347909501896,-0.27766792053644757,0.3007185205988065,0.00010997964907262098,-0.06548566070560778,0.308123519175291,0.17886634080774583,-5.598599896065983e-05,0.00010997964907262045,0.9999995983720386,0.00018409370146495394,0.00020277896577557434,-0.0005524490513093596,0.009482278178423686,-0.06548566070560752,0.00018409370146495367,0.9151251972616569,-0.09231057189638922,0.25197483569529366,-0.2873349745788267,0.3081235191752928,0.00020277896577557486,-0.09231057189638973,0.3255110140434761,0.17114657129822067,-0.18258347909501815,0.17886634080774597,-0.0005524490513093593,0.2519748356952942,0.17114657129821914,0.21596446316420354
0.2,0.2,0.2,0.2,0.2,0.2
0.2622369509621172,-0.2765624283820655,-5.4857939874724625e-05,0.008990999154257535,-0.2889742509963907,-0.1811647187235119,-0.27656242838206435,0.30641263978992994,0.00011000227212031899,-0.06538979177275268,0.3039152345403467,0.17839013269259385,-5.485793987472624e-05,0.00011000227212032007,0.999999605579293,0.0001808231454668115,0.00019746321305028766,-0.0005427642828260064,0.008990999154258253,-0.06538979177275314,0.00018082314546681165,0.9166113110762109,-0.08997642248263649,0.24757059071914936,-0.2889742509963905,0.30391523454034847,0.00019746321305028557,-0.08997642248263564,0.332520356995213,0.16437721404898642,-0.18116471872351445,0.17839013269259538,-0.0005427642828260076,0.2475705907191501,0.16437721404899022,0.2290236572497419
0.2,0.2,0.2,0.2,0.2,0.2
0.261886209811227,-0.2775896972300316,-5.5789956658692216e-05,0.00939473699115329,-0.28753800611419383,-0.18232727610908098,-0.27758969723003124,0.3011391327222731,0.0001099448763627769,-0.0654620035084318,0.3078412280770936,0.1787826214033568,-5.5789956658689844e-05,0.00010994487636277123,0.9999995997860024,0.00018345105088406235,0.0002017510094044721,-0.0005505489981488847,0.009394736991152291,-0.06546200350842955,0.000183451050884063,0.915417430494965,-0.09184911197652522,0.25111056631662265,-0.2875380061141947,0.30784122807709596,0.0002017510094044741,-0.09184911197652582,0.32648397837330373,0.16979240037922116,-0.18232727610907798,0.17878262140335036,-0.0005505489981488862,0.25111056631662226,0.16979240037921853,0.21852098632354963
0.2,0.2,0.2,0.2,0.2,0.2
0.2688739284641198,-0.2551921692632488,-4.0243547687123864e-05,0.002760207579060745,-0.3152751811710288,-0.16338033080782596,-0.2551921692632489,0.3944114745668526,0.00013158310405203018,-0.07352835847168684,0.22403816775499377,0.19975668808006233,-4.024354768712393e-05,0.00013158310405202947,0.9999996732658776,0.00015050435283732455,0.00013171979445124476,-0.0004537339343136137,0.0027602075790608064,-0.07352835847168651,0.00015050435283732482,0.9302207780160593,-0.06163740565780573,0.20755919365096986,-0.3152751811710287,0.22403816775499372,0.0001317197944512447,-0.06163740565780557,0.43919100931619937,0.08300696721713988,-0.16338033080782624,0.19975668808006186,-0.00045373393431361525,0.20755919365097011,0.08300696721714056,0.34673704985997883
0.2,0.2,0.2,0.2,0.2,0.2
0.26210802748548595,-0.27658489524646634,-5.559155078465041e-05,0.009070765882984048,-0.28848539718367355,-0.1818391411782922,-0.2765848952464663,0.3054962164899759,0.00011072089739060392,-0.0647815767815086,0.3043174394523764,0.17827317776386703,-5.5591550784650836e-05,0.00011072089739060788,0.9999996003318757,0.000181294730718603,0.00020030008489948665,-0.0005475203146120826,0.009070765882984198,-0.0647815767815105,0.00018129473071860295,0.9151455164623866,-0.09115353016420442,0.24968431482721315,-0.2884853971836736,0.3043174394523752,0.0002003000848994869,-0.09115353016420474,0.3301379745155508,0.16802063157092875,-0.18183914117829209,0.1782731777638726,-0.0005475203146120799,0.24968431482721218,0.16802063157092625,0.22271364150942966
0.2,0.2,0.2,0.2,0.2,0.2
0.2620917414589965,-0.2768356222329928,-5.5481319096402194e-05,0.009268901680709103,-0.28831098012060447,-0.1819773055788058,-0.27683562223299474,0.3049699420377713,0.00011009228516117281,-0.06545766281931219,0.3049047452737691,0.1786379034225486,-5.54813190963996e-05,0.00011009228516116752,0.9999996011163602,0.00018285117834220877,0.0002007216884681142,-0.0005487598630813631,0.009268901680707809,-0.06545766281930962,0.00018285117834220812,0.915689233131424,-0.09143739809044894,0.25029745450752877,-0.2883109801206047,0.3049047452737676,0.00020072168846811661,-0.09143739809045028,0.32936757172378267,0.16866158538401105,-0.18197730557880248,0.17863790342254074,-0.0005487598630813633,0.2502974545075293,0.16866158538400855,0.22095786906621187
0.2,0.2,0.2,0.2,0.2,0.2
0.2618949170043689,-0.27741796477101494,-5.5995007703528e-05,0.00949111782688779,-0.2875077928393058,-0.1826166962541061,-0.2774179647710146,0.3017949151304327,0.0001102393344750622,-0.06558343562688149,0.30714112561508156,0.17911982390330558,-5.599500770352856e-05,0.00011023933447506224,0.9999995977689756,0.00018437279124861175,0.0002030586122430148,-0.0005532758968572569,0.009491117826888246,-0.06558343562688146,0.0001843727912486134,0.9149964606430145,-0.09245621794857205,0.2523555623731148,-0.28750779283930566,0.30714112561508167,0.00020305861224301528,-0.09245621794857138,0.3260078407922961,0.1716046909095081,-0.1826166962541074,0.17911982390330689,-0.0005532758968572624,0.2523555623731154,0.17160469090950986,0.21483971804372998
0.2,0.2,0.2,0.2,0.2,0.2
0.26171466040047825,-0.27784130915532773,-5.6636161442998826e-05,0.009774237281466907,-0.28672345971954716,-0.18344044230243758,-0.277841309155326,0.299630703628502,0.0001102452002356312,-0.06562652421255435,0.30872568953158686,0.17931920047166133,-5.6636161443000344e-05,0.00011024520023563592,0.9999995934420136,0.00018633718753452357,0.00020626117044379703,-0.0005590856824985932,0.009774237281467776,-0.06562652421255605,0.00018633718753452444,0.9141038903441457,-0.09388049158716544,0.2549967127091847,-0.2867234597195473,0.30872568953158847,0.0002062611704437959,-0.09388049158716412,0.3224696593462148,0.1757638222450442,-0.18344044230244008,0.17931920047166608,-0.0005590856824985917,0.2549967127091826,0.17576382224504664,0.2070219382592753
0.2,0.2,0.2,0.2,0.2,0.2
0.261693726430868,-0.277910967102351,-5.667863211311945e-05,0.009792200752314777,-0.28664161152736667,-0.18349148918422487,-0.2779109671023508,0.2993026465480838,0.00011020779168721203,-0.06561566676594724,0.3089944225307415,0.17929804392275475,-5.6678632113119716e-05,0.00011020779168720943,0.9999995932397956,0.00018642820633059433,0.0002064344660823378,-0.0005593548634769308,0.009792200752314784,-0.0656156667659464,0.00018642820633059317,0.9140628108908152,-0.09395408695551201,0.2551184054980074,-0.28664161152736695,0.3089944225307426,0.00020643446608233673,-0.0939540869555121,0.32214664649739877,0.17597337909320243,-0.18349148918422525,0.1792980439227525,-0.0005593548634769315,0.2551184054980091,0.17597337909320437,0.20666105875974997
0.2,0.2,0.2,0.2,0.2,0.2
0.2721326261608552,-0.2460533126647812,-3.029418434141624e-05,-0.0015858890916966087,-0.3293660519506157,-0.1508331125199264,-0.2460533126647814,0.474585855674319,9.565622028813629e-05,-0.0557410418516548,0.19082214214726703,0.1441850031016014,-3.0294184341416116e-05,9.565622028813651e-05,0.9999997848093298,9.920347405563498e-05,7.57698568416262e-05,-0.00030071499898499417,-0.0015858890916966664,-0.055741041851654904,9.920347405563504e-05,0.9538383155689101,-0.03684706576561045,0.13706763863599544,-0.32936605195061563,0.19082214214726667,7.576985684162653e-05,-0.03684706576561056,0.5056158127174519,0.010970988648662656,-0.15083311251992623,0.14418500310160143,-0.0003007149989849942,0.13706763863599533,0.01097098864866231,0.5572351251073533
0.2,0.2,0.2,0.2,0.2,0.2
0.268379543398787,-0.255813168681542,-4.2881954285141534e-05,0.003946651177024314,-0.3128488678574897,-0.16686392226064037,-0.25581316868154164,0.38640330983991883,0.00013775599419440907,-0.07647969814856026,0.22536817365524187,0.2087591767314769,-4.288195428514165e-05,0.00013775599419440956,0.9999996460770285,0.00016296539684629554,0.00014748634891653347,-0.000490746484884677,0.00394665117702436,-0.07647969814856051,0.00016296539684629562,0.9245074366079481,-0.06877278936273216,0.22453362736626867,-0.31284886785748983,0.22536817365524223,0.0001474863489165337,-0.06877278936273226,0.4263915507189523,0.10402286164323593,-0.16686392226064062,0.20875917673147798,-0.0004907464848846779,0.2245336273662689,0.10402286164323593,0.2962965075890994
0.278783037843372,0.2166552068983159,0.20000283618936238,0.20021846536393967,0.2448973503044079,0.21700925787038405
0.2624891321001018,-0.2758937505979019,-5.4078000860860556e-05,0.008649510294730748,-0.2900390096861479,-0.1801757198263785,-0.2758937505979021,0.3097540815649392,0.00011009368877412234,-0.06536887394831459,0.30139438744795743,0.17821722421238897,-5.407800086086052e-05,0.00011009368877412352,0.9999996106121679,0.00017854034681381455,0.00019367783405912071,-0.000536012454044914,0.008649510294730703,-0.06536887394831509,0.00017854034681381444,0.9176479028590042,-0.08830522355062795,0.24450260307188562,-0.29003900968614776,0.3013943874479564,0.000193677834059122,-0.08830522355062867,0.33716969199422675,0.15951642150299428,-0.18017571982637864,0.17821722421239128,-0.000536012454044916,0.24450260307188695,0.15951642150299344,0.23810780855260702
0.2,0.2,0.2,0.2,0.2,0.2
0.27224234933149977,-0.24641563090846463,-2.9382345405385596e-05,-0.00129676634279038,-0.3295743463817541,-0.15044262838437775,-0.24641563090846458,0.481413989129195,9.001760932949887e-05,-0.04927170857955427,0.19019384855768603,0.13115983209564464,-2.938234540538567e-05,9.001760932949898e-05,0.9999997916302853,9.566527744914542e-05,7.55642728301236e-05,-0.0002904274740468658,-0.0012967663427903401,-0.049271708579554346,9.56652774491455e-05,0.9552262637812337,-0.03940981658174102,0.1320656118858006,-0.3295743463817542,0.1901938485576861,7.55642728301234e-05,-0.0394098165817409,0.5055686679858722,0.014000500671321338,-0.1504426283843778,0.13115983209564475,-0.0002904274740468659,0.13206561188580052,0.0140005006713216,0.5726132537255998
0.2,0.2,0.2,0.2,0.2,0.2
0.26168262251477176,-0.2779262849349741,-5.673488317883446e-05,0.009817454533592795,-0.286588479873446,-0.18356560632207555,-0.277926284934974,0.2992122146279398,0.00011022528655560904,-0.06562530100562951,0.3090477003997839,0.17932949704818604,-5.673488317883662e-05,0.00011022528655560879,0.999999592819473,0.00018661938916741868,0.00020673528021791424,-0.0005599201994516684,0.009817454533593542,-0.06562530100562955,0.00018661938916741716,0.9139758211463179,-0.09408968177656789,0.25537569298663665,-0.2865884798734452,0.30904770039978385,0.00020673528021791096,-0.09408968177656728,0.32188303772924526,0.17637214552915492,-0.18356560632207866,0.17932949704818685,-0.0005599201994516696,0.2553756929866389,0.17637214552915997,0.20589998192747852
0.2,0.2,0.2,0.2,0.2,0.2
0.2624156441719234,-0.27599326841022453,-5.445564817862608e-05,0.008819122670488844,-0.28968442010969114,-0.18067352678904605,-0.2759932684102249,0.30863338649113786,0.00011074510463994974,-0.06568515367599848,0.30175288697930264,0.17919554616033465,-5.4455648178624767e-05,0.00011074510463994722,0.9999996072289528,0.00018008832276831833,0.00019570453576940843,-0.0005406129172095661,0.00881912267048825,-0.06568515367599721,0.0001800883227683183,0.9169392988830201,-0.08921883937560947,0.24660921520531534,-0.2896844201096916,0.301752886979303,0.00019570453576940925,-0.08921883937560977,0.3353913960156373,0.162202463190168,-0.18067352678904403,0.17919554616033087,-0.0005406129172095647,0.2466092152053146,0.16220246319016618,0.2318434831936964
0.278783037843372,0.2166552068983159,0.20000283618936238,0.20021846536393967,0.2448973503044079,0.21700925787038405
0.26168810589416047,-0.27793119454523574,-5.668766336751556e-05,0.009795917769848988,-0.28662031614037264,-0.18350188602952025,-0.27793119454523446,0.29920035246774224,0.00011020339898061522,-0.06561557583934621,0.30907315507298183,0.17930129089183033,-5.668766336751485e-05,0.00011020339898061813,0.9999995931992571,0.00018644649427512514,0.00020646604019885535,-0.0005594093248605471,0.00979591776984883,-0.06561557583934728,0.00018644649427512625,0.9140545261879763,-0.09396693109364435,0.25514314272724836,-0.28662031614037375,0.3090731550729828,0.00020646604019885654,-0.0939669310936443,0.3220663696457259,0.17600903271111,-0.18350188602951828,0.17930129089183494,-0.0005594093248605431,0.2551431427272458,0.17600903271110477,0.20658707683220212
0.2,0.2,0.2,0.2,0.2,0.2
0.26188348328699657,-0.2774445757573682,-5.6036317364662555e-05,0.009509372487246726,-0.2874577071290301,-0.1826698194869854,-0.2774445757573683,0.3014531634785088,0.00011044439698000554,-0.0656827521281517,0.3072478895781077,0.17942731709749332,-5.603631736466266e-05,0.00011044439698000437,0.9999995972843969,0.00018459645163819657,0.00020325965051439532,-0.0005539464977156185,0.0095093724872466,-0.06568275212815124,0.00018459645163819557,0.9148931436997271,-0.09254549867458028,0.25266551426736455,-0.2874577071290303,0.30724788957810834,0.0002032596505143933,-0.09254549867458005,0.3257799214436333,0.17186501860640221,-0.18266981948698482,0.17942731709749024,-0.0005539464977156132,0.2526655142673639,0.17186501860640255,0.21390947250982462
0.6736191170684349,0.3001259230629696,0.20001705028821448,0.2013133458116308,0.46990890414966213,0.3022543673750751
0.26192416489698833,-0.27734843481527044,-5.589191454537021e-05,0.009445621047086026,-0.2876349969332928,-0.18248437692706587,-0.27734843481526866,0.30239227929923834,0.0001099980991042564,-0.06546295219339204,0.30687207469160077,0.17874079333254703,-5.589191454537182e-05,0.00010999809910425917,0.9999995987044535,0.00018394379349143467,0.00020255148426397634,-0.0005519963491749819,0.009445621047086803,-0.0654629521933931,0.00018394379349143426,0.9151933742239632,-0.09223101290352442,0.2517678793226623,-0.2876349969332928,0.30687207469160266,0.00020255148426397493,-0.0922310129035238,0.3265818623623414,0.17094780081514616,-0.18248437692706826,0.17874079333255144,-0.0005519963491749821,0.2517678793226632,0.1709478008151483,0.21659440084891854
0.2,0.2,0.2,0.2,0.2,0.2
0.26206051753744874,-0.27673943607194035,-5.5859061846168305e-05,0.009442275305257241,-0.2880969112623334,-0.18249179208817257,-0.2767394360719398,0.30359917196598685,0.00011203157099908098,-0.06636240814924002,0.30453459081880746,0.1813778761638309,-5.58590618461731e-05,0.00011203157099908372,0.9999995962386327,0.0001851011789278208,0.00020288630362516128,-0.0005554867773873501,0.009442275305259392,-0.06636240814924124,0.00018510117892782047,0.9146511803365946,-0.09242752136290866,0.25340156761729926,-0.2880969112623316,0.30453459081880735,0.00020288630362515607,-0.09242752136290623,0.32800769573224814,0.17159371111390834,-0.18249179208817987,0.18137787616383488,-0.0005554867773873574,0.2534015676173022,0.17159371111391958,0.2116736944808825
0.278783037843372,0.2166552068983159,0.20000283618936238,0.20021846536393967,0.2448973503044079,0.21700925787038405
0.2618475533342656,-0.27755911129789035,-5.6116914032643264e-05,0.009543796915540935,-0.28731508018520213,-0.18276818776037287,-0.2775591112978894,0.30107292937663643,0.00011022698552031976,-0.06559128067018223,0.30768208171624156,0.17916756084034363,-5.6116914032644524e-05,0.00011022698552032119,0.999999597026132,0.00018470963883021716,0.00020361095810683387,-0.0005542739286785213,0.009543796915541568,-0.065591280670183,0.0001847096388302177,0.9148434645356309,-0.09269678380876192,0.2528093223791872,-0.28731508018520213,0.3076820817162427,0.00020361095810683238,-0.09269678380876098,0.32520501760151077,0.17229930424561316,-0.18276818776037462,0.17916756084034585,-0.000554273928678522,0.25280932237918663,0.17229930424561476,0.2134930825353247
0.2,0.2,0.2,0.2,0.2,0.2
0.26205265919775544,-0.2769919436066682,-5.551951737478443e-05,0.009283278271632797,-0.28817008805659,-0.18201529883297082,-0.2769919436066672,0.3043637426352554,0.00010987077948839141,-0.06536850403714763,0.30551032607403655,0.17839325360989985,-5.5519517374785695e-05,0.00010987077948839084,0.9999996012250775,0.00018279751374868878,0.00020079512815214266,-0.0005485964369743556,0.009283278271633316,-0.06536850403714731,0.00018279751374868832,0.9157153377608181,-0.09145924567508713,0.25021846760406574,-0.2881700880565901,0.30551032607403833,0.0002007951281521392,-0.0914592456750857,0.32887744324799784,0.16870880427845328,-0.18201529883297174,0.17839325360989894,-0.0005485964369743516,0.25021846760406435,0.16870880427845536,0.22119613438201183
0.2,0.2,0.2,0.2,0.2,0.2
0.26184134583922797,-0.276718684600462,-5.682660373404866e-05,0.008872445047372989,-0.28769344275557884,-0.18256463759658192,-0.27671868460046173,0.302656907968196,0.00011258700509298796,-0.06380343693998368,0.3055722699563867,0.1787443184721662,-5.682660373404823e-05,0.00011258700509298498,0.9999995920239207,0.0001801939024799924,0.00020365212958935636,-0.000552865714814346,0.008872445047372843,-0.06380343693998239,0.00018019390247999255,0.9124646058376625,-0.09198119781399099,0.2520168027135124,-0.28769344275557884,0.3055722699563881,0.00020365212958935609,-0.09198119781399068,0.3269270905652128,0.17159321464151978,-0.18256463759658148,0.17874431847216282,-0.000552865714814347,0.25201680271351223,0.17159321464152036,0.21561708719080644
0.2,0.2,0.2,0.2,0.2,0.2
0.26184013764258246,-0.2775425110237993,-5.6196161378402587e-05,0.009580099833563985,-0.28726767190574465,-0.18287583814364594,-0.277542511023798,0.3012955823934612,0.00011010693377834456,-0.06553276927191308,0.3076003166229422,0.17898487898963875,-5.619616137840305e-05,0.00011010693377834721,0.999999596535469,0.00018493041064329834,0.00020407624346594343,-0.0005549187070652986,0.00958009983356418,-0.06553276927191423,0.0001849304106432979,0.9147442087574024,-0.0929096234695766,0.25309899590727497,-0.28726767190574504,0.30760031662294307,0.00020407624346594383,-0.09290962346957693,0.32491576629894175,0.17293011785135431,-0.1828758381436465,0.17898487898964344,-0.000554918707065298,0.2530989959072756,0.17293011785135337,0.2126482501543698
0.2,0.2,0.2,0.2,0.2,0.2
0.26209653753235457,-0.2767424002682559,-5.559261159321992e-05,0.009321214193101647,-0.28829453816765005,-0.182134377801659,-0.27674240026825564,0.3051263895819302,0.00011045118920213422,-0.06561752231482657,0.3045312077651406,0.17910772812258594,-5.5592611593219434e-05,0.00011045118920213537,0.9999995998193508,0.0001834468510218257,0.0002014280353948019,-0.0005505308222059241,0.009321214193101248,-0.06561752231482705,0.00018344685102182447,0.91541575723274,-0.09176527315322619,0.25111040019189906,-0.2882945381676502,0.30453120776514075,0.0002014280353948029,-0.09176527315322731,0.3291063349696919,0.16963999131941085,-0.18213437780165814,0.17910772812258732,-0.0005505308222059222,0.2511104001919001,0.16963999131940882,0.21854133679189408
0.278783037843372,0.2166552068983159,0.20000283618936238,0.20021846536393967,0.2448973503044079,0.21700925787038405
0.261279406831575,-0.2759720745515256,-5.999645483973969e-05,0.007099869949049271,-0.2868326358412415,-0.1829590522499789,-0.275972074551526,0.2991403895037483,0.00011885426721204285,-0.05986250074543883,0.30550704262440187,0.17912715450492103,-5.999645483974077e-05,0.00011885426721204523,0.9999995723301411,0.00016925518018346696,0.00020781630220341026,-0.0005555135606996292,0.007099869949049428,-0.05986250074543941,0.00016925518018346647,0.9047347606973246,-0.09047446767166532,0.2525342195529358,-0.28683263584124125,0.30550704262440026,0.00020781630220340883,-0.09047446767166525,0.3248833853186664,0.1730529360835119,-0.1829590522499795,0.17912715450492425,-0.0005555135606996265,0.25253421955293553,0.17305293608351172,0.21286511175683132
0.2,0.2,0.2,0.2,0.2,0.2
0.2617725623880312,-0.27768959793509923,-5.645476378740695e-05,0.009694742837096634,-0.2869683064832447,-0.18321008524484222,-0.2776895979350992,0.3004216440194951,0.00011023610443916654,-0.06560765231937403,0.3081501849896708,0.17923661624297366,-5.6454763787408705e-05,0.00011023610443916835,0.9999995946371584,0.0001857945560040705,0.00020538663495636012,-0.0005574791789263843,0.00969474283709728,-0.06560765231937471,0.00018579455600406888,0.9143505358823341,-0.09349426941118051,0.25426600398781696,-0.2869683064832442,0.3081501849896697,0.00020538663495635803,-0.09349426941118029,0.32353857654269147,0.1746401846293158,-0.18321008524484397,0.17923661624297815,-0.0005574791789263854,0.25426600398781923,0.174640184629317,0.20918767048253625
0.2,0.2,0.2,0.2,0.2,0.2
0.26183356966765253,-0.2776767283853166,-5.603445633495231e-05,0.009504116681066935,-0.2872923403650836,-0.18264769425562113,-0.2776767283853166,0.3005748364844918,0.00011008353726942071,-0.06553544348833099,0.3081551167130794,0.179019301120891,-5.6034456334951935e-05,0.0001100835372694243,0.9999995979156984,0.00018430278781542272,0.0002030400525923252,-0.0005530711278684035,0.009504116681066857,-0.06553544348833265,0.00018430278781542315,0.9150293586148452,-0.09242854250040526,0.2522600636247237,-0.2872923403650836,0.30815511671307794,0.00020304005259232726,-0.09242854250040586,0.32529248922563686,0.17149385081706034,-0.18264769425562052,0.17901930112089612,-0.0005530711278684036,0.2522600636247225,0.17149385081705715,0.21511538306217526
0.2,0.2,0.2,0.2,0.2,0.2
0.2618645491215936,-0.27752853806261335,-5.604189540018642e-05,0.009510310137155824,-0.28739323001809025,-0.18267020107695128,-0.2775285380626134,0.30122361904106226,0.00011022729307033883,-0.06558858976668112,0.30757200216421554,0.17915483342519078,-5.6041895400187786e-05,0.00011022729307034008,0.9999995975527712,0.000184470518941552,0.00020321788600848856,-0.0005535675353667918,0.009510310137156652,-0.0655885897666816,0.0001844705189415529,0.9149520901530328,-0.0925203712298078,0.25248833796896075,-0.28739323001808953,0.3075720021642144,0.00020321788600848845,-0.09252037122980698,0.3255785550277187,0.1717816639493014,-0.1826702010769539,0.1791548334251946,-0.0005535675353667987,0.25248833796896225,0.17178166394930425,0.2144417375307579
0.2,0.2,0.2,0.2,0.2,0.2
0.2619669542082816,-0.2773884353419259,-5.5520887637404975e-05,0.009276370323489632,-0.2878841168004827,-0.1819835758078099,-0.2773884353419265,0.3020305490482361,0.00011008281840347397,-0.0655078769106349,0.3070893143236788,0.17889012452189373,-5.552088763740375e-05,0.00011008281840347298,0.9999996014391368,0.00018270311071239562,0.00020042188761942208,-0.0005483424087632289,0.009276370323489111,-0.06550787691063435,0.00018270311071239608,0.9157561376855313,-0.09125980659704001,0.25011078425115374,-0.2878841168004829,0.3070893143236782,0.00020042188761942387,-0.09125980659704055,0.3280199470002273,0.16807421265999906,-0.18198357580780802,0.1788901245218927,-0.0005483424087632298,0.2501107842511531,0.16807421265999645,0.2214730178861876
0.278783037843372,0.2166552068983159,0.20000283618936238,0.20021846536393967,0.2448973503044079,0.21700925787038405
