0.42426547683733995,0.3064656934940817,0.19999484488021915,0.20623064251005005,0.2863582456360812,0.22521582701594692
0.28186918516853554,-0.21234456331004523,-1.322246661967445e-05,-0.0075802848128455145,-0.36603647479042983,-0.13215661655786448,-0.21234456331004523,0.7021376508934583,4.725807000103147e-05,-0.024311295467278032,0.057933397986617875,0.0518499633497121,-1.3222466619674472e-05,4.72580700010315e-05,0.9999999863037345,5.0626567887240355e-06,-4.1075444899531084e-05,-2.4454634509147765e-05,-0.00758028481284551,-0.02431129546727804,5.0626567887240355e-06,0.9977794237289164,0.01142142004107199,0.007525292241015823,-0.3660364747904299,0.0579333979866179,-4.107544489953109e-05,0.011421420041071988,0.6945185272165072,-0.1298699081440891,-0.1321566165578645,0.051849963349712105,-2.445463450914775e-05,0.007525292241015818,-0.12986990814408908,0.9383615814720958
0.42426547683733995,0.3064656934940817,0.19999484488021915,0.20623064251005005,0.2863582456360812,0.22521582701594692
0.28186918516853554,-0.21234456331004523,-1.322246661967445e-05,-0.0075802848128455145,-0.36603647479042983,-0.13215661655786448,-0.21234456331004523,0.7021376508934583,4.725807000103147e-05,-0.024311295467278032,0.057933397986617875,0.0518499633497121,-1.3222466619674472e-05,4.72580700010315e-05,0.9999999863037345,5.0626567887240355e-06,-4.1075444899531084e-05,-2.4454634509147765e-05,-0.00758028481284551,-0.02431129546727804,5.0626567887240355e-06,0.9977794237289164,0.01142142004107199,0.007525292241015823,-0.3660364747904299,0.0579333979866179,-4.107544489953109e-05,0.011421420041071988,0.6945185272165072,-0.1298699081440891,-0.1321566165578645,0.051849963349712105,-2.445463450914775e-05,0.007525292241015818,-0.12986990814408908,0.9383615814720958
0.42426547683733995,0.3064656934940817,0.19999484488021915,0.20623064251005005,0.2863582456360812,0.22521582701594692
0.28186918516853554,-0.21234456331004523,-1.322246661967445e-05,-0.0075802848128455145,-0.36603647479042983,-0.13215661655786448,-0.21234456331004523,0.7021376508934583,4.725807000103147e-05,-0.024311295467278032,0.057933397986617875,0.0518499633497121,-1.3222466619674472e-05,4.72580700010315e-05,0.9999999863037345,5.0626567887240355e-06,-4.1075444899531084e-05,-2.4454634509147765e-05,-0.00758028481284551,-0.02431129546727804,5.0626567887240355e-06,0.9977794237289164,0.01142142004107199,0.007525292241015823,-0.3660364747904299,0.0579333979866179,-4.107544489953109e-05,0.011421420041071988,0.6945185272165072,-0.1298699081440891,-0.1321566165578645,0.051849963349712105,-2.445463450914775e-05,0.007525292241015818,-0.12986990814408908,0.9383615814720958
0.456359245204102,0.30798579419324923,0.1999973081677117,0.20579749673242437,0.30824127239185595,0.2343372345592108
0.2829095522206761,-0.20805747151339388,-1.4070445089266813e-05,-0.007195530816911532,-0.3683184179769345,-0.13350533149496038,-0.20805747151339382,0.7272076026947362,4.188908325337103e-05,-0.021985439654908782,0.043504777775339294,0.043175047447042675,-1.407044508926683e-05,4.188908325337102e-05,0.9999999878270199,4.500088094148336e-06,-3.822609501785418e-05,-2.2221855254474232e-05,-0.007195530816911526,-0.021985439654908786,4.500088094148336e-06,0.9980063336132249,0.010123671084735244,0.006655568482997898,-0.36831841797693454,0.043504777775339454,-3.82260950178542e-05,0.010123671084735256,0.7031586878874437,-0.12506840696067276,-0.1335053314949604,0.0431750474470427,-2.2221855254474232e-05,0.006655568482997898,-0.1250684069606727,0.9417538724435212
0.42426547683733995,0.3064656934940817,0.19999484488021915,0.20623064251005005,0.2863582456360812,0.22521582701594692
0.28186918516853554,-0.21234456331004523,-1.322246661967445e-05,-0.0075802848128455145,-0.36603647479042983,-0.13215661655786448,-0.21234456331004523,0.7021376508934583,4.725807000103147e-05,-0.024311295467278032,0.057933397986617875,0.0518499633497121,-1.3222466619674472e-05,4.72580700010315e-05,0.9999999863037345,5.0626567887240355e-06,-4.1075444899531084e-05,-2.4454634509147765e-05,-0.00758028481284551,-0.02431129546727804,5.0626567887240355e-06,0.9977794237289164,0.01142142004107199,0.007525292241015823,-0.3660364747904299,0.0579333979866179,-4.107544489953109e-05,0.011421420041071988,0.6945185272165072,-0.1298699081440891,-0.1321566165578645,0.051849963349712105,-2.445463450914775e-05,0.007525292241015818,-0.12986990814408908,0.9383615814720958
0.42426547683733995,0.3064656934940817,0.19999484488021915,0.20623064251005005,0.2863582456360812,0.22521582701594692
0.28186918516853554,-0.21234456331004523,-1.322246661967445e-05,-0.0075802848128455145,-0.36603647479042983,-0.13215661655786448,-0.21234456331004523,0.7021376508934583,4.725807000103147e-05,-0.024311295467278032,0.057933397986617875,0.0518499633497121,-1.3222466619674472e-05,4.72580700010315e-05,0.9999999863037345,5.0626567887240355e-06,-4.1075444899531084e-05,-2.4454634509147765e-05,-0.00758028481284551,-0.02431129546727804,5.0626567887240355e-06,0.9977794237289164,0.01142142004107199,0.007525292241015823,-0.3660364747904299,0.0579333979866179,-4.107544489953109e-05,0.011421420041071988,0.6945185272165072,-0.1298699081440891,-0.1321566165578645,0.051849963349712105,-2.445463450914775e-05,0.007525292241015818,-0.12986990814408908,0.9383615814720958
0.42426547683733995,0.3064656934940817,0.19999484488021915,0.20623064251005005,0.2863582456360812,0.22521582701594692
0.28186918516853554,-0.21234456331004523,-1.322246661967445e-05,-0.0075802848128455145,-0.36603647479042983,-0.13215661655786448,-0.21234456331004523,0.7021376508934583,4.725807000103147e-05,-0.024311295467278032,0.057933397986617875,0.0518499633497121,-1.3222466619674472e-05,4.72580700010315e-05,0.9999999863037345,5.0626567887240355e-06,-4.1075444899531084e-05,-2.4454634509147765e-05,-0.00758028481284551,-0.02431129546727804,5.0626567887240355e-06,0.9977794237289164,0.01142142004107199,0.007525292241015823,-0.3660364747904299,0.0579333979866179,-4.107544489953109e-05,0.011421420041071988,0.6945185272165072,-0.1298699081440891,-0.1321566165578645,0.051849963349712105,-2.445463450914775e-05,0.007525292241015818,-0.12986990814408908,0.9383615814720958
0.42426547683733995,0.3064656934940817,0.19999484488021915,0.20623064251005005,0.2863582456360812,0.22521582701594692
0.28186918516853554,-0.21234456331004523,-1.322246661967445e-05,-0.0075802848128455145,-0.36603647479042983,-0.13215661655786448,-0.21234456331004523,0.7021376508934583,4.725807000103147e-05,-0.024311295467278032,0.057933397986617875,0.0518499633497121,-1.3222466619674472e-05,4.72580700010315e-05,0.9999999863037345,5.0626567887240355e-06,-4.1075444899531084e-05,-2.4454634509147765e-05,-0.00758028481284551,-0.02431129546727804,5.0626567887240355e-06,0.9977794237289164,0.01142142004107199,0.007525292241015823,-0.3660364747904299,0.0579333979866179,-4.107544489953109e-05,0.011421420041071988,0.6945185272165072,-0.1298699081440891,-0.1321566165578645,0.051849963349712105,-2.445463450914775e-05,0.007525292241015818,-0.12986990814408908,0.9383615814720958
0.42424006758200256,0.3063458131588,0.199994883850525,0.20621724747750955,0.28641286282321154,0.22526903915818863
0.28188832190831714,-0.21225427649298703,-1.3251816764516398e-05,-0.007570196461723121,-0.36607760925409616,-0.1321966928197144,-0.21225427649298703,0.7025636229007045,4.71195964506225e-05,-0.024263698767696643,0.05773932604352074,0.05166088410482882,-1.3251816764516405e-05,4.711959645062247e-05,0.9999999863487489,5.04718421329848e-06,-4.101235665148061e-05,-2.4393169264305082e-05,-0.0075701964617231185,-0.024263698767696643,5.047184213298481e-06,0.9977847420263063,0.011399735086979607,0.0075041651534431065,-0.36607760925409616,0.05773932604352073,-4.101235665148062e-05,0.011399735086979603,0.6946069460030696,-0.12978376404457978,-0.13219669281971444,0.051660884104828865,-2.4393169264305092e-05,0.007504165153443107,-0.12978376404457978,0.9384455094276535
0.456359245204102,0.30798579419324923,0.1999973081677117,0.20579749673242437,0.30824127239185595,0.2343372345592108
0.2829095522206761,-0.20805747151339388,-1.4070445089266813e-05,-0.007195530816911532,-0.3683184179769345,-0.13350533149496038,-0.20805747151339382,0.7272076026947362,4.188908325337103e-05,-0.021985439654908782,0.043504777775339294,0.043175047447042675,-1.407044508926683e-05,4.188908325337102e-05,0.9999999878270199,4.500088094148336e-06,-3.822609501785418e-05,-2.2221855254474232e-05,-0.007195530816911526,-0.021985439654908786,4.500088094148336e-06,0.9980063336132249,0.010123671084735244,0.006655568482997898,-0.36831841797693454,0.043504777775339454,-3.82260950178542e-05,0.010123671084735256,0.7031586878874437,-0.12506840696067276,-0.1335053314949604,0.0431750474470427,-2.2221855254474232e-05,0.006655568482997898,-0.1250684069606727,0.9417538724435212
0.42426547683733995,0.3064656934940817,0.19999484488021915,0.20623064251005005,0.2863582456360812,0.22521582701594692
0.28186918516853554,-0.21234456331004523,-1.322246661967445e-05,-0.0075802848128455145,-0.36603647479042983,-0.13215661655786448,-0.21234456331004523,0.7021376508934583,4.725807000103147e-05,-0.024311295467278032,0.057933397986617875,0.0518499633497121,-1.3222466619674472e-05,4.72580700010315e-05,0.9999999863037345,5.0626567887240355e-06,-4.1075444899531084e-05,-2.4454634509147765e-05,-0.00758028481284551,-0.02431129546727804,5.0626567887240355e-06,0.9977794237289164,0.01142142004107199,0.007525292241015823,-0.3660364747904299,0.0579333979866179,-4.107544489953109e-05,0.011421420041071988,0.6945185272165072,-0.1298699081440891,-0.1321566165578645,0.051849963349712105,-2.445463450914775e-05,0.007525292241015818,-0.12986990814408908,0.9383615814720958
0.42426547683733995,0.3064656934940817,0.19999484488021915,0.20623064251005005,0.2863582456360812,0.22521582701594692
0.28186918516853554,-0.21234456331004523,-1.322246661967445e-05,-0.0075802848128455145,-0.36603647479042983,-0.13215661655786448,-0.21234456331004523,0.7021376508934583,4.725807000103147e-05,-0.024311295467278032,0.057933397986617875,0.0518499633497121,-1.3222466619674472e-05,4.72580700010315e-05,0.9999999863037345,5.0626567887240355e-06,-4.1075444899531084e-05,-2.4454634509147765e-05,-0.00758028481284551,-0.02431129546727804,5.0626567887240355e-06,0.9977794237289164,0.01142142004107199,0.007525292241015823,-0.3660364747904299,0.0579333979866179,-4.107544489953109e-05,0.011421420041071988,0.6945185272165072,-0.1298699081440891,-0.1321566165578645,0.051849963349712105,-2.445463450914775e-05,0.007525292241015818,-0.12986990814408908,0.9383615814720958
0.42426547683733995,0.3064656934940817,0.19999484488021915,0.20623064251005005,0.2863582456360812,0.22521582701594692
0.28186918516853554,-0.21234456331004523,-1.322246661967445e-05,-0.0075802848128455145,-0.36603647479042983,-0.13215661655786448,-0.21234456331004523,0.7021376508934583,4.725807000103147e-05,-0.024311295467278032,0.057933397986617875,0.0518499633497121,-1.3222466619674472e-05,4.72580700010315e-05,0.9999999863037345,5.0626567887240355e-06,-4.1075444899531084e-05,-2.4454634509147765e-05,-0.00758028481284551,-0.02431129546727804,5.0626567887240355e-06,0.9977794237289164,0.01142142004107199,0.007525292241015823,-0.3660364747904299,0.0579333979866179,-4.107544489953109e-05,0.011421420041071988,0.6945185272165072,-0.1298699081440891,-0.1321566165578645,0.051849963349712105,-2.445463450914775e-05,0.007525292241015818,-0.12986990814408908,0.9383615814720958
0.42426547683733995,0.3064656934940817,0.19999484488021915,0.20623064251005005,0.2863582456360812,0.22521582701594692
0.28186918516853554,-0.21234456331004523,-1.322246661967445e-05,-0.0075802848128455145,-0.36603647479042983,-0.13215661655786448,-0.21234456331004523,0.7021376508934583,4.725807000103147e-05,-0.024311295467278032,0.057933397986617875,0.0518499633497121,-1.3222466619674472e-05,4.72580700010315e-05,0.9999999863037345,5.0626567887240355e-06,-4.1075444899531084e-05,-2.4454634509147765e-05,-0.00758028481284551,-0.02431129546727804,5.0626567887240355e-06,0.9977794237289164,0.01142142004107199,0.007525292241015823,-0.3660364747904299,0.0579333979866179,-4.107544489953109e-05,0.011421420041071988,0.6945185272165072,-0.1298699081440891,-0.1321566165578645,0.051849963349712105,-2.445463450914775e-05,0.007525292241015818,-0.12986990814408908,0.9383615814720958
0.42426547683733995,0.3064656934940817,0.19999484488021915,0.20623064251005005,0.2863582456360812,0.22521582701594692
0.28186918516853554,-0.21234456331004523,-1.322246661967445e-05,-0.0075802848128455145,-0.36603647479042983,-0.13215661655786448,-0.21234456331004523,0.7021376508934583,4.725807000103147e-05,-0.024311295467278032,0.057933397986617875,0.0518499633497121,-1.3222466619674472e-05,4.72580700010315e-05,0.9999999863037345,5.0626567887240355e-06,-4.1075444899531084e-05,-2.4454634509147765e-05,-0.00758028481284551,-0.02431129546727804,5.0626567887240355e-06,0.9977794237289164,0.01142142004107199,0.007525292241015823,-0.3660364747904299,0.0579333979866179,-4.107544489953109e-05,0.011421420041071988,0.6945185272165072,-0.1298699081440891,-0.1321566165578645,0.051849963349712105,-2.445463450914775e-05,0.007525292241015818,-0.12986990814408908,0.9383615814720958
0.42426538611397746,0.306465265462811,0.1999948450193621,0.20623059468325056,0.2863584406461395,0.2252160170092626
0.2818692534616971,-0.21234424110407693,-1.3222571361330264e-05,-0.0075802488106155915,-0.3660366215867244,-0.13215675957774256,-0.21234424110407693,0.7021391710556936,4.7257575831694513e-05,-0.024311125609374307,0.057932705404214975,0.05184928858437825,-1.3222571361330286e-05,4.725757583169455e-05,0.999999986303895,5.062601571875656e-06,-4.1075219757122705e-05,-2.445441515865355e-05,-0.007580248810615587,-0.024311125609374314,5.062601571875656e-06,0.9977794427082768,0.011421342654203416,0.007525216844967656,-0.36603662158672445,0.057932705404215,-4.107521975712271e-05,0.011421342654203415,0.6945188427554496,-0.12986960072256168,-0.1321567595777426,0.051849288584378254,-2.4454415158653535e-05,0.007525216844967651,-0.12986960072256165,0.9383618809850317
0.42152298321203535,0.29379856876060445,0.19999756958898895,0.2054865196313538,0.2932879777993092,0.22895231842150776
0.2840621027955991,-0.20200978377407855,-1.6523821072120742e-05,-0.006453574922496952,-0.3707934159450551,-0.1366651328645503,-0.20200978377407852,0.7506952931564802,3.250661429256405e-05,-0.019383621057339255,0.034951077590880515,0.03169563945590682,-1.6523821072120752e-05,3.250661429256405e-05,0.9999999868758103,5.4493788405074026e-06,-3.084221730724673e-05,-2.3624897454923855e-05,-0.006453574922496947,-0.01938362105733926,5.449378840507404e-06,0.9973718149886341,0.007522470275914631,0.008030462157878443,-0.37079341594505516,0.03495107759088058,-3.084221730724676e-05,0.007522470275914642,0.7026918967851385,-0.11592868962335397,-0.13666513286455031,0.03169563945590686,-2.3624897454923866e-05,0.008030462157878445,-0.11592868962335393,0.9395603873674836
0.42426547683733995,0.3064656934940817,0.19999484488021915,0.20623064251005005,0.2863582456360812,0.22521582701594692
0.28186918516853554,-0.21234456331004523,-1.322246661967445e-05,-0.0075802848128455145,-0.36603647479042983,-0.13215661655786448,-0.21234456331004523,0.7021376508934583,4.725807000103147e-05,-0.024311295467278032,0.057933397986617875,0.0518499633497121,-1.3222466619674472e-05,4.72580700010315e-05,0.9999999863037345,5.0626567887240355e-06,-4.1075444899531084e-05,-2.4454634509147765e-05,-0.00758028481284551,-0.02431129546727804,5.0626567887240355e-06,0.9977794237289164,0.01142142004107199,0.007525292241015823,-0.3660364747904299,0.0579333979866179,-4.107544489953109e-05,0.011421420041071988,0.6945185272165072,-0.1298699081440891,-0.1321566165578645,0.051849963349712105,-2.445463450914775e-05,0.007525292241015818,-0.12986990814408908,0.9383615814720958
0.42426547683733995,0.3064656934940817,0.19999484488021915,0.20623064251005005,0.2863582456360812,0.22521582701594692
0.28186918516853554,-0.21234456331004523,-1.322246661967445e-05,-0.0075802848128455145,-0.36603647479042983,-0.13215661655786448,-0.21234456331004523,0.7021376508934583,4.725807000103147e-05,-0.024311295467278032,0.057933397986617875,0.0518499633497121,-1.3222466619674472e-05,4.72580700010315e-05,0.9999999863037345,5.0626567887240355e-06,-4.1075444899531084e-05,-2.4454634509147765e-05,-0.00758028481284551,-0.02431129546727804,5.0626567887240355e-06,0.9977794237289164,0.01142142004107199,0.007525292241015823,-0.3660364747904299,0.0579333979866179,-4.107544489953109e-05,0.011421420041071988,0.6945185272165072,-0.1298699081440891,-0.1321566165578645,0.051849963349712105,-2.445463450914775e-05,0.007525292241015818,-0.12986990814408908,0.9383615814720958
0.42426547683733995,0.3064656934940817,0.19999484488021915,0.20623064251005005,0.2863582456360812,0.22521582701594692
0.28186918516853554,-0.21234456331004523,-1.322246661967445e-05,-0.0075802848128455145,-0.36603647479042983,-0.13215661655786448,-0.21234456331004523,0.7021376508934583,4.725807000103147e-05,-0.024311295467278032,0.057933397986617875,0.0518499633497121,-1.3222466619674472e-05,4.72580700010315e-05,0.9999999863037345,5.0626567887240355e-06,-4.1075444899531084e-05,-2.4454634509147765e-05,-0.00758028481284551,-0.02431129546727804,5.0626567887240355e-06,0.9977794237289164,0.01142142004107199,0.007525292241015823,-0.3660364747904299,0.0579333979866179,-4.107544489953109e-05,0.011421420041071988,0.6945185272165072,-0.1298699081440891,-0.1321566165578645,0.051849963349712105,-2.445463450914775e-05,0.007525292241015818,-0.12986990814408908,0.9383615814720958
0.42426547683733995,0.3064656934940817,0.19999484488021915,0.20623064251005005,0.2863582456360812,0.22521582701594692
0.28186918516853554,-0.21234456331004523,-1.322246661967445e-05,-0.0075802848128455145,-0.36603647479042983,-0.13215661655786448,-0.21234456331004523,0.7021376508934583,4.725807000103147e-05,-0.024311295467278032,0.057933397986617875,0.0518499633497121,-1.3222466619674472e-05,4.72580700010315e-05,0.9999999863037345,5.0626567887240355e-06,-4.1075444899531084e-05,-2.4454634509147765e-05,-0.00758028481284551,-0.02431129546727804,5.0626567887240355e-06,0.9977794237289164,0.01142142004107199,0.007525292241015823,-0.3660364747904299,0.0579333979866179,-4.107544489953109e-05,0.011421420041071988,0.6945185272165072,-0.1298699081440891,-0.1321566165578645,0.051849963349712105,-2.445463450914775e-05,0.007525292241015818,-0.12986990814408908,0.9383615814720958
0.42426547683733995,0.3064656934940817,0.19999484488021915,0.20623064251005005,0.2863582456360812,0.22521582701594692
0.28186918516853554,-0.21234456331004523,-1.322246661967445e-05,-0.0075802848128455145,-0.36603647479042983,-0.13215661655786448,-0.21234456331004523,0.7021376508934583,4.725807000103147e-05,-0.024311295467278032,0.057933397986617875,0.0518499633497121,-1.3222466619674472e-05,4.72580700010315e-05,0.9999999863037345,5.0626567887240355e-06,-4.1075444899531084e-05,-2.4454634509147765e-05,-0.00758028481284551,-0.02431129546727804,5.0626567887240355e-06,0.9977794237289164,0.01142142004107199,0.007525292241015823,-0.3660364747904299,0.0579333979866179,-4.107544489953109e-05,0.011421420041071988,0.6945185272165072,-0.1298699081440891,-0.1321566165578645,0.051849963349712105,-2.445463450914775e-05,0.007525292241015818,-0.12986990814408908,0.9383615814720958
0.42426547683733995,0.3064656934940817,0.19999484488021915,0.20623064251005005,0.2863582456360812,0.22521582701594692
0.28186918516853554,-0.21234456331004523,-1.322246661967445e-05,-0.0075802848128455145,-0.36603647479042983,-0.13215661655786448,-0.21234456331004523,0.7021376508934583,4.725807000103147e-05,-0.024311295467278032,0.057933397986617875,0.0518499633497121,-1.3222466619674472e-05,4.72580700010315e-05,0.9999999863037345,5.0626567887240355e-06,-4.1075444899531084e-05,-2.4454634509147765e-05,-0.00758028481284551,-0.02431129546727804,5.0626567887240355e-06,0.9977794237289164,0.01142142004107199,0.007525292241015823,-0.3660364747904299,0.0579333979866179,-4.107544489953109e-05,0.011421420041071988,0.6945185272165072,-0.1298699081440891,-0.1321566165578645,0.051849963349712105,-2.445463450914775e-05,0.007525292241015818,-0.12986990814408908,0.9383615814720958
0.5578051925025631,0.3156787692193548,0.20000461007240936,0.20467467750473173,0.3752561325421692,0.2621911234404597
0.2861030244647574,-0.1961580888008509,-1.6782006904009597e-05,-0.006066926992541733,-0.3741290562167439,-0.13752660735505712,-0.19615808880085098,0.794211760798208,2.6399418151904184e-05,-0.015574314684820092,0.006190351228768252,0.018988447371293043,-1.678200690400959e-05,2.639941815190418e-05,0.9999999921072522,2.897546239442629e-06,-3.0122924524471506e-05,-1.5948452583365855e-05,-0.006066926992541737,-0.015574314684820088,2.897546239442629e-06,0.9986405195930059,0.006640894854039809,0.0042231698696895085,-0.37412905621674386,0.006190351228768159,-3.0122924524471496e-05,0.006640894854039803,0.7249931030715171,-0.11192407148079783,-0.1375266073550571,0.018988447371293005,-1.594845258336584e-05,0.004223169869689506,-0.11192407148079782,0.9512012717144649
0.42426547683733995,0.3064656934940817,0.19999484488021915,0.20623064251005005,0.2863582456360812,0.22521582701594692
0.28186918516853554,-0.21234456331004523,-1.322246661967445e-05,-0.0075802848128455145,-0.36603647479042983,-0.13215661655786448,-0.21234456331004523,0.7021376508934583,4.725807000103147e-05,-0.024311295467278032,0.057933397986617875,0.0518499633497121,-1.3222466619674472e-05,4.72580700010315e-05,0.9999999863037345,5.0626567887240355e-06,-4.1075444899531084e-05,-2.4454634509147765e-05,-0.00758028481284551,-0.02431129546727804,5.0626567887240355e-06,0.9977794237289164,0.01142142004107199,0.007525292241015823,-0.3660364747904299,0.0579333979866179,-4.107544489953109e-05,0.011421420041071988,0.6945185272165072,-0.1298699081440891,-0.1321566165578645,0.051849963349712105,-2.445463450914775e-05,0.007525292241015818,-0.12986990814408908,0.9383615814720958
0.4563591584795714,0.3079854001069161,0.19999730829243517,0.2057974532903391,0.3082414521101516,0.23433740552696655
0.2829096210169342,-0.20805715889521154,-1.4070544029154632e-05,-0.007195496355463443,-0.36831856054266754,-0.1335054671191231,-0.20805715889521148,0.7272090232680428,4.188863365903689e-05,-0.021985283058088747,0.04350412994010106,0.0431744311551051,-1.407054402915465e-05,4.188863365903688e-05,0.9999999878271622,4.500038533141724e-06,-3.822588998580744e-05,-2.222166020550207e-05,-0.007195496355463437,-0.02198528305808875,4.500038533141724e-06,0.9980063508756667,0.010123599670653518,0.006655500546090177,-0.3683185605426676,0.04350412994010122,-3.8225889985807464e-05,0.01012359967065353,0.7031589833248518,-0.12506812590820449,-0.13350546711912312,0.04317443115510513,-2.222166020550207e-05,0.006655500546090177,-0.12506812590820443,0.9417541398114566
0.6947214373205979,0.33192751210238725,0.20001272918202218,0.20378897330604265,0.4619195720639814,0.29707303677741
0.29043299249415694,-0.18379353324060604,-1.9448386788561263e-05,-0.004923213216042073,-0.37949314573235005,-0.14133825954093066,-0.18379353324060604,0.8561591132576039,1.2821943696759932e-05,-0.009778944363083726,-0.02782727285083159,-0.002359024714767669,-1.9448386788561267e-05,1.2821943696759935e-05,0.9999999956057637,1.5372812033101856e-06,-2.3046595475080428e-05,-1.0756760397092567e-05,-0.004923213216042073,-0.009778944363083724,1.5372812033101851e-06,0.9991982265940397,0.003519519602133254,0.0021364860246828998,-0.37949314573235005,-0.027827272850831582,-2.304659547508042e-05,0.0035195196021332547,0.745092163417175,-0.10025506362289957,-0.14133825954093068,-0.0023590247147676547,-1.0756760397092572e-05,0.0021364860246829015,-0.10025506362289957,0.9591497965024283
0.4222416406958956,0.2969585635248002,0.19999772640287897,0.20526907081321713,0.2908634353584809,0.22915278922817076
0.2834539514475618,-0.20486791863833753,-1.5651694504999036e-05,-0.0067454815482974355,-0.3694438607535318,-0.13547361940229716,-0.20486791863833756,0.7373898654965676,3.5921151492466206e-05,-0.020431449679894572,0.041770233618739744,0.036368409000901915,-1.5651694504999042e-05,3.592115149246621e-05,0.999999989351623,4.103069483232304e-06,-3.538013488113161e-05,-2.0285524498579605e-05,-0.006745481548297431,-0.02043144967989458,4.103069483232304e-06,0.9980675922651874,0.009402859015148354,0.0062115389817905585,-0.3694438607535318,0.04177023361873972,-3.538013488113162e-05,0.009402859015148358,0.7015157898306591,-0.12209822009431305,-0.13547361940229716,0.036368409000902026,-2.0285524498579625e-05,0.006211538981790567,-0.1220982200943131,0.9440642887054401
0.42426547683733995,0.3064656934940817,0.19999484488021915,0.20623064251005005,0.2863582456360812,0.22521582701594692
0.28186918516853554,-0.21234456331004523,-1.322246661967445e-05,-0.0075802848128455145,-0.36603647479042983,-0.13215661655786448,-0.21234456331004523,0.7021376508934583,4.725807000103147e-05,-0.024311295467278032,0.057933397986617875,0.0518499633497121,-1.3222466619674472e-05,4.72580700010315e-05,0.9999999863037345,5.0626567887240355e-06,-4.1075444899531084e-05,-2.4454634509147765e-05,-0.00758028481284551,-0.02431129546727804,5.0626567887240355e-06,0.9977794237289164,0.01142142004107199,0.007525292241015823,-0.3660364747904299,0.0579333979866179,-4.107544489953109e-05,0.011421420041071988,0.6945185272165072,-0.1298699081440891,-0.1321566165578645,0.051849963349712105,-2.445463450914775e-05,0.007525292241015818,-0.12986990814408908,0.9383615814720958
0.5578178633249035,0.3157303886833638,0.20000459441705154,0.20468024662002718,0.3752330807695632,0.2621696722668291
0.28609152292137363,-0.19620494475769315,-1.6767796241723333e-05,-0.006071982183077747,-0.3741081316898603,-0.13750713572192108,-0.19620494475769323,0.79402087505198,2.6457310745668595e-05,-0.015594908946101363,0.006275595330005907,0.01906777255152447,-1.6767796241723326e-05,2.645731074566859e-05,0.9999999920896941,2.903792149500313e-06,-3.0148777696964878e-05,-1.5972510641786497e-05,-0.006071982183077751,-0.01559490894610136,2.903792149500313e-06,0.9986382977215144,0.006650091660654577,0.0042317280963782514,-0.37410813168986023,0.0062755953300058145,-3.0148777696964868e-05,0.006650091660654571,0.7249550355000022,-0.11195949583189764,-0.13750713572192105,0.01906777255152443,-1.5972510641786484e-05,0.004231728096378249,-0.11195949583189763,0.9511683070518689
0.42426547683733995,0.3064656934940817,0.19999484488021915,0.20623064251005005,0.2863582456360812,0.22521582701594692
0.28186918516853554,-0.21234456331004523,-1.322246661967445e-05,-0.0075802848128455145,-0.36603647479042983,-0.13215661655786448,-0.21234456331004523,0.7021376508934583,4.725807000103147e-05,-0.024311295467278032,0.057933397986617875,0.0518499633497121,-1.3222466619674472e-05,4.72580700010315e-05,0.9999999863037345,5.0626567887240355e-06,-4.1075444899531084e-05,-2.4454634509147765e-05,-0.00758028481284551,-0.02431129546727804,5.0626567887240355e-06,0.9977794237289164,0.01142142004107199,0.007525292241015823,-0.3660364747904299,0.0579333979866179,-4.107544489953109e-05,0.011421420041071988,0.6945185272165072,-0.1298699081440891,-0.1321566165578645,0.051849963349712105,-2.445463450914775e-05,0.007525292241015818,-0.12986990814408908,0.9383615814720958
0.42426547683733995,0.3064656934940817,0.19999484488021915,0.20623064251005005,0.2863582456360812,0.22521582701594692
0.28186918516853554,-0.21234456331004523,-1.322246661967445e-05,-0.0075802848128455145,-0.36603647479042983,-0.13215661655786448,-0.21234456331004523,0.7021376508934583,4.725807000103147e-05,-0.024311295467278032,0.057933397986617875,0.0518499633497121,-1.3222466619674472e-05,4.72580700010315e-05,0.9999999863037345,5.0626567887240355e-06,-4.1075444899531084e-05,-2.4454634509147765e-05,-0.00758028481284551,-0.02431129546727804,5.0626567887240355e-06,0.9977794237289164,0.01142142004107199,0.007525292241015823,-0.3660364747904299,0.0579333979866179,-4.107544489953109e-05,0.011421420041071988,0.6945185272165072,-0.1298699081440891,-0.1321566165578645,0.051849963349712105,-2.445463450914775e-05,0.007525292241015818,-0.12986990814408908,0.9383615814720958
0.42426547683733995,0.3064656934940817,0.19999484488021915,0.20623064251005005,0.2863582456360812,0.22521582701594692
0.28186918516853554,-0.21234456331004523,-1.322246661967445e-05,-0.0075802848128455145,-0.36603647479042983,-0.13215661655786448,-0.21234456331004523,0.7021376508934583,4.725807000103147e-05,-0.024311295467278032,0.057933397986617875,0.0518499633497121,-1.3222466619674472e-05,4.72580700010315e-05,0.9999999863037345,5.0626567887240355e-06,-4.1075444899531084e-05,-2.4454634509147765e-05,-0.00758028481284551,-0.02431129546727804,5.0626567887240355e-06,0.9977794237289164,0.01142142004107199,0.007525292241015823,-0.3660364747904299,0.0579333979866179,-4.107544489953109e-05,0.011421420041071988,0.6945185272165072,-0.1298699081440891,-0.1321566165578645,0.051849963349712105,-2.445463450914775e-05,0.007525292241015818,-0.12986990814408908,0.9383615814720958
0.42426547683733995,0.3064656934940817,0.19999484488021915,0.20623064251005005,0.2863582456360812,0.22521582701594692
0.28186918516853554,-0.21234456331004523,-1.322246661967445e-05,-0.0075802848128455145,-0.36603647479042983,-0.13215661655786448,-0.21234456331004523,0.7021376508934583,4.725807000103147e-05,-0.024311295467278032,0.057933397986617875,0.0518499633497121,-1.3222466619674472e-05,4.72580700010315e-05,0.9999999863037345,5.0626567887240355e-06,-4.1075444899531084e-05,-2.4454634509147765e-05,-0.00758028481284551,-0.02431129546727804,5.0626567887240355e-06,0.9977794237289164,0.01142142004107199,0.007525292241015823,-0.3660364747904299,0.0579333979866179,-4.107544489953109e-05,0.011421420041071988,0.6945185272165072,-0.1298699081440891,-0.1321566165578645,0.051849963349712105,-2.445463450914775e-05,0.007525292241015818,-0.12986990814408908,0.9383615814720958
0.42426547683733995,0.3064656934940817,0.19999484488021915,0.20623064251005005,0.2863582456360812,0.22521582701594692
0.28186918516853554,-0.21234456331004523,-1.322246661967445e-05,-0.0075802848128455145,-0.36603647479042983,-0.13215661655786448,-0.21234456331004523,0.7021376508934583,4.725807000103147e-05,-0.024311295467278032,0.057933397986617875,0.0518499633497121,-1.3222466619674472e-05,4.72580700010315e-05,0.9999999863037345,5.0626567887240355e-06,-4.1075444899531084e-05,-2.4454634509147765e-05,-0.00758028481284551,-0.02431129546727804,5.0626567887240355e-06,0.9977794237289164,0.01142142004107199,0.007525292241015823,-0.3660364747904299,0.0579333979866179,-4.107544489953109e-05,0.011421420041071988,0.6945185272165072,-0.1298699081440891,-0.1321566165578645,0.051849963349712105,-2.445463450914775e-05,0.007525292241015818,-0.12986990814408908,0.9383615814720958
0.42426547683733995,0.3064656934940817,0.19999484488021915,0.20623064251005005,0.2863582456360812,0.22521582701594692
0.28186918516853554,-0.21234456331004523,-1.322246661967445e-05,-0.0075802848128455145,-0.36603647479042983,-0.13215661655786448,-0.21234456331004523,0.7021376508934583,4.725807000103147e-05,-0.024311295467278032,0.057933397986617875,0.0518499633497121,-1.3222466619674472e-05,4.72580700010315e-05,0.9999999863037345,5.0626567887240355e-06,-4.1075444899531084e-05,-2.4454634509147765e-05,-0.00758028481284551,-0.02431129546727804,5.0626567887240355e-06,0.9977794237289164,0.01142142004107199,0.007525292241015823,-0.3660364747904299,0.0579333979866179,-4.107544489953109e-05,0.011421420041071988,0.6945185272165072,-0.1298699081440891,-0.1321566165578645,0.051849963349712105,-2.445463450914775e-05,0.007525292241015818,-0.12986990814408908,0.9383615814720958
0.42384066627628625,0.30446144761342736,0.1999954964139181,0.20600669469421692,0.28727137488542676,0.2261054659353655
0.28219166138496093,-0.21082312588497787,-1.371705060988486e-05,-0.007410284403090342,-0.3667296380998001,-0.1328319480411973,-0.21082312588497784,0.709315777372455,4.4924629092591556e-05,-0.023509235474981537,0.05466305769793527,0.04866375706985183,-1.3717050609884872e-05,4.49246290925916e-05,0.9999999870622815,4.801925855705251e-06,-4.001233406206885e-05,-2.341887346932141e-05,-0.0074102844030903385,-0.023509235474981554,4.80192585570525e-06,0.9978690432466314,0.011056003128485524,0.00716927615088292,-0.3667296380998001,0.05466305769793537,-4.001233406206886e-05,0.011056003128485526,0.6960084884655698,-0.12841827894552987,-0.13283194804119733,0.048663757069851946,-2.3418873469321413e-05,0.007169276150882925,-0.12841827894552985,0.9397758655307344
0.42414394516265297,0.3058923091358622,0.19999503127411944,0.20616657443701505,0.28661947822516926,0.22547033925079882
0.2819608902610414,-0.21191190025534046,-1.3363115301698611e-05,-0.007531940473152643,-0.36623359507870207,-0.13234866581664206,-0.2119119002553404,0.7041789477701171,4.659449192982831e-05,-0.024083207701183686,0.05700338784500349,0.05094387823834373,-1.3363115301698633e-05,4.6594491929828315e-05,0.9999999865194481,4.9885107683089805e-06,-4.077312026315488e-05,-2.416008734287188e-05,-0.007531940473152632,-0.0240832077011837,4.988510768308981e-06,0.9978049095020227,0.011317503781721657,0.00742404928546806,-0.3662335950787022,0.057003387845003604,-4.077312026315491e-05,0.011317503781721666,0.6949422376887052,-0.1294570978604042,-0.1323486658166421,0.05094387823834381,-2.416008734287188e-05,0.007424049285468063,-0.12945709786040419,0.9387637719807025
0.42426547683733995,0.3064656934940817,0.19999484488021915,0.20623064251005005,0.2863582456360812,0.22521582701594692
0.28186918516853554,-0.21234456331004523,-1.322246661967445e-05,-0.0075802848128455145,-0.36603647479042983,-0.13215661655786448,-0.21234456331004523,0.7021376508934583,4.725807000103147e-05,-0.024311295467278032,0.057933397986617875,0.0518499633497121,-1.3222466619674472e-05,4.72580700010315e-05,0.9999999863037345,5.0626567887240355e-06,-4.1075444899531084e-05,-2.4454634509147765e-05,-0.00758028481284551,-0.02431129546727804,5.0626567887240355e-06,0.9977794237289164,0.01142142004107199,0.007525292241015823,-0.3660364747904299,0.0579333979866179,-4.107544489953109e-05,0.011421420041071988,0.6945185272165072,-0.1298699081440891,-0.1321566165578645,0.051849963349712105,-2.445463450914775e-05,0.007525292241015818,-0.12986990814408908,0.9383615814720958
0.42426547683733995,0.3064656934940817,0.19999484488021915,0.20623064251005005,0.2863582456360812,0.22521582701594692
0.28186918516853554,-0.21234456331004523,-1.322246661967445e-05,-0.0075802848128455145,-0.36603647479042983,-0.13215661655786448,-0.21234456331004523,0.7021376508934583,4.725807000103147e-05,-0.024311295467278032,0.057933397986617875,0.0518499633497121,-1.3222466619674472e-05,4.72580700010315e-05,0.9999999863037345,5.0626567887240355e-06,-4.1075444899531084e-05,-2.4454634509147765e-05,-0.00758028481284551,-0.02431129546727804,5.0626567887240355e-06,0.9977794237289164,0.01142142004107199,0.007525292241015823,-0.3660364747904299,0.0579333979866179,-4.107544489953109e-05,0.011421420041071988,0.6945185272165072,-0.1298699081440891,-0.1321566165578645,0.051849963349712105,-2.445463450914775e-05,0.007525292241015818,-0.12986990814408908,0.9383615814720958
0.42426547683733995,0.3064656934940817,0.19999484488021915,0.20623064251005005,0.2863582456360812,0.22521582701594692
0.28186918516853554,-0.21234456331004523,-1.322246661967445e-05,-0.0075802848128455145,-0.36603647479042983,-0.13215661655786448,-0.21234456331004523,0.7021376508934583,4.725807000103147e-05,-0.024311295467278032,0.057933397986617875,0.0518499633497121,-1.3222466619674472e-05,4.72580700010315e-05,0.9999999863037345,5.0626567887240355e-06,-4.1075444899531084e-05,-2.4454634509147765e-05,-0.00758028481284551,-0.02431129546727804,5.0626567887240355e-06,0.9977794237289164,0.01142142004107199,0.007525292241015823,-0.3660364747904299,0.0579333979866179,-4.107544489953109e-05,0.011421420041071988,0.6945185272165072,-0.1298699081440891,-0.1321566165578645,0.051849963349712105,-2.445463450914775e-05,0.007525292241015818,-0.12986990814408908,0.9383615814720958
0.42426547683733995,0.3064656934940817,0.19999484488021915,0.20623064251005005,0.2863582456360812,0.22521582701594692
0.28186918516853554,-0.21234456331004523,-1.322246661967445e-05,-0.0075802848128455145,-0.36603647479042983,-0.13215661655786448,-0.21234456331004523,0.7021376508934583,4.725807000103147e-05,-0.024311295467278032,0.057933397986617875,0.0518499633497121,-1.3222466619674472e-05,4.72580700010315e-05,0.9999999863037345,5.0626567887240355e-06,-4.1075444899531084e-05,-2.4454634509147765e-05,-0.00758028481284551,-0.02431129546727804,5.0626567887240355e-06,0.9977794237289164,0.01142142004107199,0.007525292241015823,-0.3660364747904299,0.0579333979866179,-4.107544489953109e-05,0.011421420041071988,0.6945185272165072,-0.1298699081440891,-0.1321566165578645,0.051849963349712105,-2.445463450914775e-05,0.007525292241015818,-0.12986990814408908,0.9383615814720958
0.6947214373205979,0.33192751210238725,0.20001272918202218,0.20378897330604265,0.4619195720639814,0.29707303677741
0.29043299249415694,-0.18379353324060604,-1.9448386788561263e-05,-0.004923213216042073,-0.37949314573235005,-0.14133825954093066,-0.18379353324060604,0.8561591132576039,1.2821943696759932e-05,-0.009778944363083726,-0.02782727285083159,-0.002359024714767669,-1.9448386788561267e-05,1.2821943696759935e-05,0.9999999956057637,1.5372812033101856e-06,-2.3046595475080428e-05,-1.0756760397092567e-05,-0.004923213216042073,-0.009778944363083724,1.5372812033101851e-06,0.9991982265940397,0.003519519602133254,0.0021364860246828998,-0.37949314573235005,-0.027827272850831582,-2.304659547508042e-05,0.0035195196021332547,0.745092163417175,-0.10025506362289957,-0.14133825954093068,-0.0023590247147676547,-1.0756760397092572e-05,0.0021364860246829015,-0.10025506362289957,0.9591497965024283
0.4242634003530912,0.30645589667699263,0.1999948480649362,0.20622954784608885,0.2863627090433167,0.22522017559953855
0.28187074833002956,-0.21233718834090515,-1.3224864050373079e-05,-0.0075794607581695945,-0.3660398348093338,-0.13215989013840582,-0.21233718834090518,0.7021724458714602,4.724675896408521e-05,-0.02430740759144061,0.057917545475016534,0.05183451865282431,-1.322486405037309e-05,4.724675896408524e-05,0.9999999863074113,5.061392930840948e-06,-4.1070291617226804e-05,-2.4449613797908566e-05,-0.007579460758169592,-0.024307407591440622,5.061392930840948e-06,0.997779858147312,0.011419648733821433,0.007523566501633455,-0.3660398348093338,0.05791754547501652,-4.107029161722682e-05,0.011419648733821433,0.6945257495841739,-0.1298628715758641,-0.13215989013840582,0.05183451865282442,-2.444961379790858e-05,0.007523566501633461,-0.12986287157586412,0.9383684370206723
0.42426547683733995,0.3064656934940817,0.19999484488021915,0.20623064251005005,0.2863582456360812,0.22521582701594692
0.28186918516853554,-0.21234456331004523,-1.322246661967445e-05,-0.0075802848128455145,-0.36603647479042983,-0.13215661655786448,-0.21234456331004523,0.7021376508934583,4.725807000103147e-05,-0.024311295467278032,0.057933397986617875,0.0518499633497121,-1.3222466619674472e-05,4.72580700010315e-05,0.9999999863037345,5.0626567887240355e-06,-4.1075444899531084e-05,-2.4454634509147765e-05,-0.00758028481284551,-0.02431129546727804,5.0626567887240355e-06,0.9977794237289164,0.01142142004107199,0.007525292241015823,-0.3660364747904299,0.0579333979866179,-4.107544489953109e-05,0.011421420041071988,0.6945185272165072,-0.1298699081440891,-0.1321566165578645,0.051849963349712105,-2.445463450914775e-05,0.007525292241015818,-0.12986990814408908,0.9383615814720958
0.42426547683733995,0.3064656934940817,0.19999484488021915,0.20623064251005005,0.2863582456360812,0.22521582701594692
0.28186918516853554,-0.21234456331004523,-1.322246661967445e-05,-0.0075802848128455145,-0.36603647479042983,-0.13215661655786448,-0.21234456331004523,0.7021376508934583,4.725807000103147e-05,-0.024311295467278032,0.057933397986617875,0.0518499633497121,-1.3222466619674472e-05,4.72580700010315e-05,0.9999999863037345,5.0626567887240355e-06,-4.1075444899531084e-05,-2.4454634509147765e-05,-0.00758028481284551,-0.02431129546727804,5.0626567887240355e-06,0.9977794237289164,0.01142142004107199,0.007525292241015823,-0.3660364747904299,0.0579333979866179,-4.107544489953109e-05,0.011421420041071988,0.6945185272165072,-0.1298699081440891,-0.1321566165578645,0.051849963349712105,-2.445463450914775e-05,0.007525292241015818,-0.12986990814408908,0.9383615814720958
0.456359245204102,0.30798579419324923,0.1999973081677117,0.20579749673242437,0.30824127239185595,0.2343372345592108
0.2829095522206761,-0.20805747151339388,-1.4070445089266813e-05,-0.007195530816911532,-0.3683184179769345,-0.13350533149496038,-0.20805747151339382,0.7272076026947362,4.188908325337103e-05,-0.021985439654908782,0.043504777775339294,0.043175047447042675,-1.407044508926683e-05,4.188908325337102e-05,0.9999999878270199,4.500088094148336e-06,-3.822609501785418e-05,-2.2221855254474232e-05,-0.007195530816911526,-0.021985439654908786,4.500088094148336e-06,0.9980063336132249,0.010123671084735244,0.006655568482997898,-0.36831841797693454,0.043504777775339454,-3.82260950178542e-05,0.010123671084735256,0.7031586878874437,-0.12506840696067276,-0.1335053314949604,0.0431750474470427,-2.2221855254474232e-05,0.006655568482997898,-0.1250684069606727,0.9417538724435212
0.42426547683733995,0.3064656934940817,0.19999484488021915,0.20623064251005005,0.2863582456360812,0.22521582701594692
0.28186918516853554,-0.21234456331004523,-1.322246661967445e-05,-0.0075802848128455145,-0.36603647479042983,-0.13215661655786448,-0.21234456331004523,0.7021376508934583,4.725807000103147e-05,-0.024311295467278032,0.057933397986617875,0.0518499633497121,-1.3222466619674472e-05,4.72580700010315e-05,0.9999999863037345,5.0626567887240355e-06,-4.1075444899531084e-05,-2.4454634509147765e-05,-0.00758028481284551,-0.02431129546727804,5.0626567887240355e-06,0.9977794237289164,0.01142142004107199,0.007525292241015823,-0.3660364747904299,0.0579333979866179,-4.107544489953109e-05,0.011421420041071988,0.6945185272165072,-0.1298699081440891,-0.1321566165578645,0.051849963349712105,-2.445463450914775e-05,0.007525292241015818,-0.12986990814408908,0.9383615814720958
0.42409928850836587,0.3056816198063117,0.19999509976431334,0.2061430327077023,0.2867154677970201,0.22556385943730992
0.28199469806366406,-0.21175239562200107,-1.3414966543009835e-05,-0.007514117952618707,-0.36630626502119606,-0.13241946628428383,-0.21175239562200104,0.7049314878964552,4.6349858662003425e-05,-0.0239991213547657,0.05666053230180943,0.05060984284546275,-1.3414966543009837e-05,4.634985866200342e-05,0.9999999865989727,4.9611762555251985e-06,-4.0661665911436055e-05,-2.4051500216591554e-05,-0.0075141179526187025,-0.023999121354765708,4.961176255525199e-06,0.9978143050324488,0.011279194236532836,0.0073867252747228124,-0.36630626502119606,0.05666053230180943,-4.0661665911436055e-05,0.01127919423653284,0.6950984418821897,-0.12930491210702844,-0.13241946628428383,0.05060984284546271,-2.405150021659153e-05,0.0073867252747228055,-0.1293049121070284,0.9389120426705859
0.4242468971559628,0.3063780348758103,0.1999948733759943,0.20622084782577393,0.28639818270007217,0.2252547366766662
0.2818831763944007,-0.21227855294620623,-1.3243925051526095e-05,-0.007572909032967813,-0.3660665489597104,-0.1321859170523468,-0.2122785529462061,0.7024490866587471,4.715682948732242e-05,-0.024276496664224205,0.057791508571356225,0.05171172411890777,-1.3243925051526119e-05,4.715682948732242e-05,0.9999999863366453,5.051344508342991e-06,-4.1029319955347884e-05,-2.440969615491499e-05,-0.007572909032967803,-0.024276496664224205,5.051344508342991e-06,0.9977833120321519,0.011405565786784673,0.007509845846275008,-0.36606654895971047,0.057791508571356336,-4.102931995534791e-05,0.011405565786784685,0.6945831717063443,-0.12980692666986215,-0.13218591705234686,0.05171172411890778,-2.4409696154914988e-05,0.007509845846275008,-0.1298069266698621,0.9384229427127199
0.42224170193833777,0.2969583181772534,0.19999772675225252,0.20526890891354263,0.29086340196754523,0.2291532907695258
0.2834539830163781,-0.20486776381739227,-1.5651722917557756e-05,-0.006745467553116308,-0.36944394951152815,-0.13547366786384493,-0.20486776381739225,0.73738919977305,3.592111989130052e-05,-0.020431433558396963,0.04177097675694884,0.03636847031508371,-1.5651722917557762e-05,3.592111989130052e-05,0.9999999893525192,4.102647915302317e-06,-3.53809009670961e-05,-2.0284334525978852e-05,-0.006745467553116305,-0.020431433558396966,4.102647915302318e-06,0.9980677913971936,0.009403218985763979,0.0062109781622761715,-0.3694439495115282,0.04177097675694891,-3.538090096709613e-05,0.009403218985763987,0.7015157168684629,-0.12209933825393463,-0.13547366786384496,0.03636847031508375,-2.028433452597886e-05,0.006210978162276175,-0.12209933825393457,0.9440658567536048
0.42426547683733995,0.3064656934940817,0.19999484488021915,0.20623064251005005,0.2863582456360812,0.22521582701594692
0.28186918516853554,-0.21234456331004523,-1.322246661967445e-05,-0.0075802848128455145,-0.36603647479042983,-0.13215661655786448,-0.21234456331004523,0.7021376508934583,4.725807000103147e-05,-0.024311295467278032,0.057933397986617875,0.0518499633497121,-1.3222466619674472e-05,4.72580700010315e-05,0.9999999863037345,5.0626567887240355e-06,-4.1075444899531084e-05,-2.4454634509147765e-05,-0.00758028481284551,-0.02431129546727804,5.0626567887240355e-06,0.9977794237289164,0.01142142004107199,0.007525292241015823,-0.3660364747904299,0.0579333979866179,-4.107544489953109e-05,0.011421420041071988,0.6945185272165072,-0.1298699081440891,-0.1321566165578645,0.051849963349712105,-2.445463450914775e-05,0.007525292241015818,-0.12986990814408908,0.9383615814720958
0.42426547683733995,0.3064656934940817,0.19999484488021915,0.20623064251005005,0.2863582456360812,0.22521582701594692
0.28186918516853554,-0.21234456331004523,-1.322246661967445e-05,-0.0075802848128455145,-0.36603647479042983,-0.13215661655786448,-0.21234456331004523,0.7021376508934583,4.725807000103147e-05,-0.024311295467278032,0.057933397986617875,0.0518499633497121,-1.3222466619674472e-05,4.72580700010315e-05,0.9999999863037345,5.0626567887240355e-06,-4.1075444899531084e-05,-2.4454634509147765e-05,-0.00758028481284551,-0.02431129546727804,5.0626567887240355e-06,0.9977794237289164,0.01142142004107199,0.007525292241015823,-0.3660364747904299,0.0579333979866179,-4.107544489953109e-05,0.011421420041071988,0.6945185272165072,-0.1298699081440891,-0.1321566165578645,0.051849963349712105,-2.445463450914775e-05,0.007525292241015818,-0.12986990814408908,0.9383615814720958
0.456359245204102,0.30798579419324923,0.1999973081677117,0.20579749673242437,0.30824127239185595,0.2343372345592108
0.2829095522206761,-0.20805747151339388,-1.4070445089266813e-05,-0.007195530816911532,-0.3683184179769345,-0.13350533149496038,-0.20805747151339382,0.7272076026947362,4.188908325337103e-05,-0.021985439654908782,0.043504777775339294,0.043175047447042675,-1.407044508926683e-05,4.188908325337102e-05,0.9999999878270199,4.500088094148336e-06,-3.822609501785418e-05,-2.2221855254474232e-05,-0.007195530816911526,-0.021985439654908786,4.500088094148336e-06,0.9980063336132249,0.010123671084735244,0.006655568482997898,-0.36831841797693454,0.043504777775339454,-3.82260950178542e-05,0.010123671084735256,0.7031586878874437,-0.12506840696067276,-0.1335053314949604,0.0431750474470427,-2.2221855254474232e-05,0.006655568482997898,-0.1250684069606727,0.9417538724435212
0.42426547683733995,0.3064656934940817,0.19999484488021915,0.20623064251005005,0.2863582456360812,0.22521582701594692
0.28186918516853554,-0.21234456331004523,-1.322246661967445e-05,-0.0075802848128455145,-0.36603647479042983,-0.13215661655786448,-0.21234456331004523,0.7021376508934583,4.725807000103147e-05,-0.024311295467278032,0.057933397986617875,0.0518499633497121,-1.3222466619674472e-05,4.72580700010315e-05,0.9999999863037345,5.0626567887240355e-06,-4.1075444899531084e-05,-2.4454634509147765e-05,-0.00758028481284551,-0.02431129546727804,5.0626567887240355e-06,0.9977794237289164,0.01142142004107199,0.007525292241015823,-0.3660364747904299,0.0579333979866179,-4.107544489953109e-05,0.011421420041071988,0.6945185272165072,-0.1298699081440891,-0.1321566165578645,0.051849963349712105,-2.445463450914775e-05,0.007525292241015818,-0.12986990814408908,0.9383615814720958
0.42426547683733995,0.3064656934940817,0.19999484488021915,0.20623064251005005,0.2863582456360812,0.22521582701594692
0.28186918516853554,-0.21234456331004523,-1.322246661967445e-05,-0.0075802848128455145,-0.36603647479042983,-0.13215661655786448,-0.21234456331004523,0.7021376508934583,4.725807000103147e-05,-0.024311295467278032,0.057933397986617875,0.0518499633497121,-1.3222466619674472e-05,4.72580700010315e-05,0.9999999863037345,5.0626567887240355e-06,-4.1075444899531084e-05,-2.4454634509147765e-05,-0.00758028481284551,-0.02431129546727804,5.0626567887240355e-06,0.9977794237289164,0.01142142004107199,0.007525292241015823,-0.3660364747904299,0.0579333979866179,-4.107544489953109e-05,0.011421420041071988,0.6945185272165072,-0.1298699081440891,-0.1321566165578645,0.051849963349712105,-2.445463450914775e-05,0.007525292241015818,-0.12986990814408908,0.9383615814720958
0.42426547683733995,0.3064656934940817,0.19999484488021915,0.20623064251005005,0.2863582456360812,0.22521582701594692
0.28186918516853554,-0.21234456331004523,-1.322246661967445e-05,-0.0075802848128455145,-0.36603647479042983,-0.13215661655786448,-0.21234456331004523,0.7021376508934583,4.725807000103147e-05,-0.024311295467278032,0.057933397986617875,0.0518499633497121,-1.3222466619674472e-05,4.72580700010315e-05,0.9999999863037345,5.0626567887240355e-06,-4.1075444899531084e-05,-2.4454634509147765e-05,-0.00758028481284551,-0.02431129546727804,5.0626567887240355e-06,0.9977794237289164,0.01142142004107199,0.007525292241015823,-0.3660364747904299,0.0579333979866179,-4.107544489953109e-05,0.011421420041071988,0.6945185272165072,-0.1298699081440891,-0.1321566165578645,0.051849963349712105,-2.445463450914775e-05,0.007525292241015818,-0.12986990814408908,0.9383615814720958
0.6947214373205979,0.33192751210238725,0.20001272918202218,0.20378897330604265,0.4619195720639814,0.29707303677741
0.29043299249415694,-0.18379353324060604,-1.9448386788561263e-05,-0.004923213216042073,-0.37949314573235005,-0.14133825954093066,-0.18379353324060604,0.8561591132576039,1.2821943696759932e-05,-0.009778944363083726,-0.02782727285083159,-0.002359024714767669,-1.9448386788561267e-05,1.2821943696759935e-05,0.9999999956057637,1.5372812033101856e-06,-2.3046595475080428e-05,-1.0756760397092567e-05,-0.004923213216042073,-0.009778944363083724,1.5372812033101851e-06,0.9991982265940397,0.003519519602133254,0.0021364860246828998,-0.37949314573235005,-0.027827272850831582,-2.304659547508042e-05,0.0035195196021332547,0.745092163417175,-0.10025506362289957,-0.14133825954093068,-0.0023590247147676547,-1.0756760397092572e-05,0.0021364860246829015,-0.10025506362289957,0.9591497965024283
0.4242468971559671,0.30637803487580384,0.1999948733759943,0.20622084782577324,0.2863981827000777,0.22525473667666965
0.28188317639440186,-0.2122785529462017,-1.3243925051526998e-05,-0.007572909032967405,-0.3660665489597128,-0.13218591705234836,-0.2122785529462017,0.7024490866587141,4.715682948732908e-05,-0.024276496664227258,0.05779150857138356,0.05171172411892096,-1.3243925051527002e-05,4.7156829487329085e-05,0.9999999863366453,5.051344508343515e-06,-4.102931995535364e-05,-2.4409696154917153e-05,-0.007572909032967404,-0.024276496664227258,5.0513445083435145e-06,0.9977833120321516,0.011405565786787215,0.007509845846276124,-0.3660665489597128,0.05779150857138355,-4.102931995535363e-05,0.011405565786787216,0.6945831717063236,-0.12980692666987287,-0.13218591705234836,0.05171172411892097,-2.4409696154917153e-05,0.007509845846276126,-0.1298069266698729,0.9384229427127153
0.42426547683733995,0.3064656934940817,0.19999484488021915,0.20623064251005005,0.2863582456360812,0.22521582701594692
0.28186918516853554,-0.21234456331004523,-1.322246661967445e-05,-0.0075802848128455145,-0.36603647479042983,-0.13215661655786448,-0.21234456331004523,0.7021376508934583,4.725807000103147e-05,-0.024311295467278032,0.057933397986617875,0.0518499633497121,-1.3222466619674472e-05,4.72580700010315e-05,0.9999999863037345,5.0626567887240355e-06,-4.1075444899531084e-05,-2.4454634509147765e-05,-0.00758028481284551,-0.02431129546727804,5.0626567887240355e-06,0.9977794237289164,0.01142142004107199,0.007525292241015823,-0.3660364747904299,0.0579333979866179,-4.107544489953109e-05,0.011421420041071988,0.6945185272165072,-0.1298699081440891,-0.1321566165578645,0.051849963349712105,-2.445463450914775e-05,0.007525292241015818,-0.12986990814408908,0.9383615814720958
0.6947214373205979,0.33192751210238725,0.20001272918202218,0.20378897330604265,0.4619195720639814,0.29707303677741
0.29043299249415694,-0.18379353324060604,-1.9448386788561263e-05,-0.004923213216042073,-0.37949314573235005,-0.14133825954093066,-0.18379353324060604,0.8561591132576039,1.2821943696759932e-05,-0.009778944363083726,-0.02782727285083159,-0.002359024714767669,-1.9448386788561267e-05,1.2821943696759935e-05,0.9999999956057637,1.5372812033101856e-06,-2.3046595475080428e-05,-1.0756760397092567e-05,-0.004923213216042073,-0.009778944363083724,1.5372812033101851e-06,0.9991982265940397,0.003519519602133254,0.0021364860246828998,-0.37949314573235005,-0.027827272850831582,-2.304659547508042e-05,0.0035195196021332547,0.745092163417175,-0.10025506362289957,-0.14133825954093068,-0.0023590247147676547,-1.0756760397092572e-05,0.0021364860246829015,-0.10025506362289957,0.9591497965024283
0.42426547683733995,0.3064656934940817,0.19999484488021915,0.20623064251005005,0.2863582456360812,0.22521582701594692
0.28186918516853554,-0.21234456331004523,-1.322246661967445e-05,-0.0075802848128455145,-0.36603647479042983,-0.13215661655786448,-0.21234456331004523,0.7021376508934583,4.725807000103147e-05,-0.024311295467278032,0.057933397986617875,0.0518499633497121,-1.3222466619674472e-05,4.72580700010315e-05,0.9999999863037345,5.0626567887240355e-06,-4.1075444899531084e-05,-2.4454634509147765e-05,-0.00758028481284551,-0.02431129546727804,5.0626567887240355e-06,0.9977794237289164,0.01142142004107199,0.007525292241015823,-0.3660364747904299,0.0579333979866179,-4.107544489953109e-05,0.011421420041071988,0.6945185272165072,-0.1298699081440891,-0.1321566165578645,0.051849963349712105,-2.445463450914775e-05,0.007525292241015818,-0.12986990814408908,0.9383615814720958
0.4242601654433506,0.30644063442833647,0.1999948530263378,0.2062278424928689,0.2863696624885395,0.225226950163507
0.2818731838022318,-0.21232569782479255,-1.3228599349540068e-05,-0.007578176845877353,-0.3660450698619307,-0.13216499051635405,-0.21232569782479255,0.702226657929734,4.7229135886596746e-05,-0.024301350115233527,0.05789284658645304,0.051810455157010236,-1.3228599349540061e-05,4.722913588659676e-05,0.9999999863131401,5.059423786411032e-06,-4.1062262583822396e-05,-2.4441791315884562e-05,-0.0075781768458773515,-0.02430135011523353,5.059423786411032e-06,0.9977805349896819,0.011416888961650058,0.0075208777261472175,-0.36604506986193064,0.05789284658645296,-4.106226258382235e-05,0.011416888961650053,0.6945370023407801,-0.12985190830274024,-0.13216499051635408,0.051810455157010396,-2.4441791315884596e-05,0.007520877726147229,-0.12985190830274035,0.9383791182574516
0.42426547683733995,0.3064656934940817,0.19999484488021915,0.20623064251005005,0.2863582456360812,0.22521582701594692
0.28186918516853554,-0.21234456331004523,-1.322246661967445e-05,-0.0075802848128455145,-0.36603647479042983,-0.13215661655786448,-0.21234456331004523,0.7021376508934583,4.725807000103147e-05,-0.024311295467278032,0.057933397986617875,0.0518499633497121,-1.3222466619674472e-05,4.72580700010315e-05,0.9999999863037345,5.0626567887240355e-06,-4.1075444899531084e-05,-2.4454634509147765e-05,-0.00758028481284551,-0.02431129546727804,5.0626567887240355e-06,0.9977794237289164,0.01142142004107199,0.007525292241015823,-0.3660364747904299,0.0579333979866179,-4.107544489953109e-05,0.011421420041071988,0.6945185272165072,-0.1298699081440891,-0.1321566165578645,0.051849963349712105,-2.445463450914775e-05,0.007525292241015818,-0.12986990814408908,0.9383615814720958
0.42426547683733995,0.3064656934940817,0.19999484488021915,0.20623064251005005,0.2863582456360812,0.22521582701594692
0.28186918516853554,-0.21234456331004523,-1.322246661967445e-05,-0.0075802848128455145,-0.36603647479042983,-0.13215661655786448,-0.21234456331004523,0.7021376508934583,4.725807000103147e-05,-0.024311295467278032,0.057933397986617875,0.0518499633497121,-1.3222466619674472e-05,4.72580700010315e-05,0.9999999863037345,5.0626567887240355e-06,-4.1075444899531084e-05,-2.4454634509147765e-05,-0.00758028481284551,-0.02431129546727804,5.0626567887240355e-06,0.9977794237289164,0.01142142004107199,0.007525292241015823,-0.3660364747904299,0.0579333979866179,-4.107544489953109e-05,0.011421420041071988,0.6945185272165072,-0.1298699081440891,-0.1321566165578645,0.051849963349712105,-2.445463450914775e-05,0.007525292241015818,-0.12986990814408908,0.9383615814720958
0.42426547683733995,0.3064656934940817,0.19999484488021915,0.20623064251005005,0.2863582456360812,0.22521582701594692
0.28186918516853554,-0.21234456331004523,-1.322246661967445e-05,-0.0075802848128455145,-0.36603647479042983,-0.13215661655786448,-0.21234456331004523,0.7021376508934583,4.725807000103147e-05,-0.024311295467278032,0.057933397986617875,0.0518499633497121,-1.3222466619674472e-05,4.72580700010315e-05,0.9999999863037345,5.0626567887240355e-06,-4.1075444899531084e-05,-2.4454634509147765e-05,-0.00758028481284551,-0.02431129546727804,5.0626567887240355e-06,0.9977794237289164,0.01142142004107199,0.007525292241015823,-0.3660364747904299,0.0579333979866179,-4.107544489953109e-05,0.011421420041071988,0.6945185272165072,-0.1298699081440891,-0.1321566165578645,0.051849963349712105,-2.445463450914775e-05,0.007525292241015818,-0.12986990814408908,0.9383615814720958
0.42426547683733995,0.3064656934940817,0.19999484488021915,0.20623064251005005,0.2863582456360812,0.22521582701594692
0.28186918516853554,-0.21234456331004523,-1.322246661967445e-05,-0.0075802848128455145,-0.36603647479042983,-0.13215661655786448,-0.21234456331004523,0.7021376508934583,4.725807000103147e-05,-0.024311295467278032,0.057933397986617875,0.0518499633497121,-1.3222466619674472e-05,4.72580700010315e-05,0.9999999863037345,5.0626567887240355e-06,-4.1075444899531084e-05,-2.4454634509147765e-05,-0.00758028481284551,-0.02431129546727804,5.0626567887240355e-06,0.9977794237289164,0.01142142004107199,0.007525292241015823,-0.3660364747904299,0.0579333979866179,-4.107544489953109e-05,0.011421420041071988,0.6945185272165072,-0.1298699081440891,-0.1321566165578645,0.051849963349712105,-2.445463450914775e-05,0.007525292241015818,-0.12986990814408908,0.9383615814720958
0.42426547683733995,0.3064656934940817,0.19999484488021915,0.20623064251005005,0.2863582456360812,0.22521582701594692
0.28186918516853554,-0.21234456331004523,-1.322246661967445e-05,-0.0075802848128455145,-0.36603647479042983,-0.13215661655786448,-0.21234456331004523,0.7021376508934583,4.725807000103147e-05,-0.024311295467278032,0.057933397986617875,0.0518499633497121,-1.3222466619674472e-05,4.72580700010315e-05,0.9999999863037345,5.0626567887240355e-06,-4.1075444899531084e-05,-2.4454634509147765e-05,-0.00758028481284551,-0.02431129546727804,5.0626567887240355e-06,0.9977794237289164,0.01142142004107199,0.007525292241015823,-0.3660364747904299,0.0579333979866179,-4.107544489953109e-05,0.011421420041071988,0.6945185272165072,-0.1298699081440891,-0.1321566165578645,0.051849963349712105,-2.445463450914775e-05,0.007525292241015818,-0.12986990814408908,0.9383615814720958
0.42426547683733995,0.3064656934940817,0.19999484488021915,0.20623064251005005,0.2863582456360812,0.22521582701594692
0.28186918516853554,-0.21234456331004523,-1.322246661967445e-05,-0.0075802848128455145,-0.36603647479042983,-0.13215661655786448,-0.21234456331004523,0.7021376508934583,4.725807000103147e-05,-0.024311295467278032,0.057933397986617875,0.0518499633497121,-1.3222466619674472e-05,4.72580700010315e-05,0.9999999863037345,5.0626567887240355e-06,-4.1075444899531084e-05,-2.4454634509147765e-05,-0.00758028481284551,-0.02431129546727804,5.0626567887240355e-06,0.9977794237289164,0.01142142004107199,0.007525292241015823,-0.3660364747904299,0.0579333979866179,-4.107544489953109e-05,0.011421420041071988,0.6945185272165072,-0.1298699081440891,-0.1321566165578645,0.051849963349712105,-2.445463450914775e-05,0.007525292241015818,-0.12986990814408908,0.9383615814720958
0.42426547683733995,0.3064656934940817,0.19999484488021915,0.20623064251005005,0.2863582456360812,0.22521582701594692
0.28186918516853554,-0.21234456331004523,-1.322246661967445e-05,-0.0075802848128455145,-0.36603647479042983,-0.13215661655786448,-0.21234456331004523,0.7021376508934583,4.725807000103147e-05,-0.024311295467278032,0.057933397986617875,0.0518499633497121,-1.3222466619674472e-05,4.72580700010315e-05,0.9999999863037345,5.0626567887240355e-06,-4.1075444899531084e-05,-2.4454634509147765e-05,-0.00758028481284551,-0.02431129546727804,5.0626567887240355e-06,0.9977794237289164,0.01142142004107199,0.007525292241015823,-0.3660364747904299,0.0579333979866179,-4.107544489953109e-05,0.011421420041071988,0.6945185272165072,-0.1298699081440891,-0.1321566165578645,0.051849963349712105,-2.445463450914775e-05,0.007525292241015818,-0.12986990814408908,0.9383615814720958
0.42426547683733995,0.3064656934940817,0.19999484488021915,0.20623064251005005,0.2863582456360812,0.22521582701594692
0.28186918516853554,-0.21234456331004523,-1.322246661967445e-05,-0.0075802848128455145,-0.36603647479042983,-0.13215661655786448,-0.21234456331004523,0.7021376508934583,4.725807000103147e-05,-0.024311295467278032,0.057933397986617875,0.0518499633497121,-1.3222466619674472e-05,4.72580700010315e-05,0.9999999863037345,5.0626567887240355e-06,-4.1075444899531084e-05,-2.4454634509147765e-05,-0.00758028481284551,-0.02431129546727804,5.0626567887240355e-06,0.9977794237289164,0.01142142004107199,0.007525292241015823,-0.3660364747904299,0.0579333979866179,-4.107544489953109e-05,0.011421420041071988,0.6945185272165072,-0.1298699081440891,-0.1321566165578645,0.051849963349712105,-2.445463450914775e-05,0.007525292241015818,-0.12986990814408908,0.9383615814720958
0.42426547683733995,0.3064656934940817,0.19999484488021915,0.20623064251005005,0.2863582456360812,0.22521582701594692
0.28186918516853554,-0.21234456331004523,-1.322246661967445e-05,-0.0075802848128455145,-0.36603647479042983,-0.13215661655786448,-0.21234456331004523,0.7021376508934583,4.725807000103147e-05,-0.024311295467278032,0.057933397986617875,0.0518499633497121,-1.3222466619674472e-05,4.72580700010315e-05,0.9999999863037345,5.0626567887240355e-06,-4.1075444899531084e-05,-2.4454634509147765e-05,-0.00758028481284551,-0.02431129546727804,5.0626567887240355e-06,0.9977794237289164,0.01142142004107199,0.007525292241015823,-0.3660364747904299,0.0579333979866179,-4.107544489953109e-05,0.011421420041071988,0.6945185272165072,-0.1298699081440891,-0.1321566165578645,0.051849963349712105,-2.445463450914775e-05,0.007525292241015818,-0.12986990814408908,0.9383615814720958
0.4242639585006173,0.3064585300074517,0.1999948472089018,0.20622984208573072,0.28636150930404247,0.22521900672422718
0.28187032814816343,-0.21233917075174774,-1.322421961478002e-05,-0.007579682266204878,-0.36603893162753315,-0.13215901019146145,-0.21233917075174774,0.7021630928910807,4.7249799400168465e-05,-0.024308452662554724,0.0579218066712721,0.05183867022742656,-1.3224219614780026e-05,4.724979940016848e-05,0.999999986306423,5.061732659119626e-06,-4.1071676832882946e-05,-2.4450963378118363e-05,-0.007579682266204876,-0.024308452662554724,5.061732659119627e-06,0.9977797413745199,0.011420124865806906,0.007524030384857712,-0.36603893162753315,0.0579218066712721,-4.107167683288294e-05,0.011420124865806909,0.6945238081930032,-0.1298647630236628,-0.13215901019146148,0.051838670227426636,-2.445096337811837e-05,0.0075240303848577135,-0.1298647630236628,0.9383665942314247
0.42426547528772424,0.30646568618302017,0.19999484488259578,0.2062306416931362,0.28635824896698414,0.22521583026116054
0.28186918633502617,-0.21234455780656045,-1.322246840872914e-05,-0.007580284197904328,-0.36603647729780453,-0.13215661900073572,-0.21234455780656045,0.7021376768588046,4.7258061560302104e-05,-0.02431129256599605,0.05793338615686601,0.051849951824287185,-1.3222468408729162e-05,4.725806156030214e-05,0.9999999863037373,5.062655845584837e-06,-4.10754410539543e-05,-2.445463076250057e-05,-0.007580284197904324,-0.024311292565996057,5.062655845584837e-06,0.9977794240530958,0.011421418719254615,0.007525290953202937,-0.3660364772978046,0.05793338615686604,-4.107544105395431e-05,0.011421418719254613,0.6945185326061144,-0.12986990289313216,-0.13215661900073575,0.05184995182428719,-2.4454630762500557e-05,0.007525290953202932,-0.12986990289313213,0.9383615865879681
0.42426547683733995,0.3064656934940817,0.19999484488021915,0.20623064251005005,0.2863582456360812,0.22521582701594692
0.28186918516853554,-0.21234456331004523,-1.322246661967445e-05,-0.0075802848128455145,-0.36603647479042983,-0.13215661655786448,-0.21234456331004523,0.7021376508934583,4.725807000103147e-05,-0.024311295467278032,0.057933397986617875,0.0518499633497121,-1.3222466619674472e-05,4.72580700010315e-05,0.9999999863037345,5.0626567887240355e-06,-4.1075444899531084e-05,-2.4454634509147765e-05,-0.00758028481284551,-0.02431129546727804,5.0626567887240355e-06,0.9977794237289164,0.01142142004107199,0.007525292241015823,-0.3660364747904299,0.0579333979866179,-4.107544489953109e-05,0.011421420041071988,0.6945185272165072,-0.1298699081440891,-0.1321566165578645,0.051849963349712105,-2.445463450914775e-05,0.007525292241015818,-0.12986990814408908,0.9383615814720958
0.42426547683733995,0.3064656934940817,0.19999484488021915,0.20623064251005005,0.2863582456360812,0.22521582701594692
0.28186918516853554,-0.21234456331004523,-1.322246661967445e-05,-0.0075802848128455145,-0.36603647479042983,-0.13215661655786448,-0.21234456331004523,0.7021376508934583,4.725807000103147e-05,-0.024311295467278032,0.057933397986617875,0.0518499633497121,-1.3222466619674472e-05,4.72580700010315e-05,0.9999999863037345,5.0626567887240355e-06,-4.1075444899531084e-05,-2.4454634509147765e-05,-0.00758028481284551,-0.02431129546727804,5.0626567887240355e-06,0.9977794237289164,0.01142142004107199,0.007525292241015823,-0.3660364747904299,0.0579333979866179,-4.107544489953109e-05,0.011421420041071988,0.6945185272165072,-0.1298699081440891,-0.1321566165578645,0.051849963349712105,-2.445463450914775e-05,0.007525292241015818,-0.12986990814408908,0.9383615814720958
0.5578178633249035,0.3157303886833638,0.20000459441705154,0.20468024662002718,0.3752330807695632,0.2621696722668291
0.28609152292137363,-0.19620494475769315,-1.6767796241723333e-05,-0.006071982183077747,-0.3741081316898603,-0.13750713572192108,-0.19620494475769323,0.79402087505198,2.6457310745668595e-05,-0.015594908946101363,0.006275595330005907,0.01906777255152447,-1.6767796241723326e-05,2.645731074566859e-05,0.9999999920896941,2.903792149500313e-06,-3.0148777696964878e-05,-1.5972510641786497e-05,-0.006071982183077751,-0.01559490894610136,2.903792149500313e-06,0.9986382977215144,0.006650091660654577,0.0042317280963782514,-0.37410813168986023,0.0062755953300058145,-3.0148777696964868e-05,0.006650091660654571,0.7249550355000022,-0.11195949583189764,-0.13750713572192105,0.01906777255152443,-1.5972510641786484e-05,0.004231728096378249,-0.11195949583189763,0.9511683070518689
0.5578178302457563,0.3157302539227444,0.20000459445792224,0.20468023208098773,0.3752331409497919,0.26216972826844576
0.2860915529416878,-0.1962048224584067,-1.676783333314083e-05,-0.006071968988465218,-0.37410818630521503,-0.13750718654506086,-0.19620482245840679,0.7940213732851207,2.645715963952578e-05,-0.015594855192776737,0.006275372833370372,0.01906756550393457,-1.6767833333140822e-05,2.6457159639525778e-05,0.9999999920897399,2.903775846976695e-06,-3.0148710217293986e-05,-1.597244784756406e-05,-0.0060719689884652225,-0.015594855192776733,2.903775846976695e-06,0.9986383035208471,0.006650067655960999,0.004231705758449685,-0.374108186305215,0.0062753728333702795,-3.0148710217293975e-05,0.006650067655960993,0.72495513486062,-0.1119594033703804,-0.13750718654506083,0.01906756550393453,-1.5972447847564045e-05,0.004231705758449682,-0.11195940337038039,0.9511683930933245
0.42426547683733995,0.3064656934940817,0.19999484488021915,0.20623064251005005,0.2863582456360812,0.22521582701594692
0.28186918516853554,-0.21234456331004523,-1.322246661967445e-05,-0.0075802848128455145,-0.36603647479042983,-0.13215661655786448,-0.21234456331004523,0.7021376508934583,4.725807000103147e-05,-0.024311295467278032,0.057933397986617875,0.0518499633497121,-1.3222466619674472e-05,4.72580700010315e-05,0.9999999863037345,5.0626567887240355e-06,-4.1075444899531084e-05,-2.4454634509147765e-05,-0.00758028481284551,-0.02431129546727804,5.0626567887240355e-06,0.9977794237289164,0.01142142004107199,0.007525292241015823,-0.3660364747904299,0.0579333979866179,-4.107544489953109e-05,0.011421420041071988,0.6945185272165072,-0.1298699081440891,-0.1321566165578645,0.051849963349712105,-2.445463450914775e-05,0.007525292241015818,-0.12986990814408908,0.9383615814720958
0.42426547683733995,0.3064656934940817,0.19999484488021915,0.20623064251005005,0.2863582456360812,0.22521582701594692
0.28186918516853554,-0.21234456331004523,-1.322246661967445e-05,-0.0075802848128455145,-0.36603647479042983,-0.13215661655786448,-0.21234456331004523,0.7021376508934583,4.725807000103147e-05,-0.024311295467278032,0.057933397986617875,0.0518499633497121,-1.3222466619674472e-05,4.72580700010315e-05,0.9999999863037345,5.0626567887240355e-06,-4.1075444899531084e-05,-2.4454634509147765e-05,-0.00758028481284551,-0.02431129546727804,5.0626567887240355e-06,0.9977794237289164,0.01142142004107199,0.007525292241015823,-0.3660364747904299,0.0579333979866179,-4.107544489953109e-05,0.011421420041071988,0.6945185272165072,-0.1298699081440891,-0.1321566165578645,0.051849963349712105,-2.445463450914775e-05,0.007525292241015818,-0.12986990814408908,0.9383615814720958
0.4222416177582923,0.29695868722497265,0.1999977261115158,0.20526920738809046,0.29086355785854734,0.2291523837984829
0.2834539394579753,-0.20486797761501707,-1.5651682745913428e-05,-0.0067454873216731,-0.3694438277208132,-0.13547359968603345,-0.20486797761501713,0.7373901004076505,3.5921256500272374e-05,-0.02043149981410238,0.04176988705330946,0.036368511711226945,-1.5651682745913434e-05,3.5921256500272374e-05,0.9999999893507994,4.103458314700637e-06,-3.537950945239957e-05,-2.028663120745001e-05,-0.006745487321673101,-0.020431499814102385,4.103458314700637e-06,0.9980674084016986,0.009402564023048867,0.006212061820461596,-0.36944382772081324,0.04176988705330948,-3.5379509452399586e-05,0.00940256402304887,0.7015155860469448,-0.12209734232831077,-0.13547359968603345,0.036368511711227,-2.0286631207450012e-05,0.0062120618204615985,-0.12209734232831074,0.9440628061817028
0.42426547683733995,0.3064656934940817,0.19999484488021915,0.20623064251005005,0.2863582456360812,0.22521582701594692
0.28186918516853554,-0.21234456331004523,-1.322246661967445e-05,-0.0075802848128455145,-0.36603647479042983,-0.13215661655786448,-0.21234456331004523,0.7021376508934583,4.725807000103147e-05,-0.024311295467278032,0.057933397986617875,0.0518499633497121,-1.3222466619674472e-05,4.72580700010315e-05,0.9999999863037345,5.0626567887240355e-06,-4.1075444899531084e-05,-2.4454634509147765e-05,-0.00758028481284551,-0.02431129546727804,5.0626567887240355e-06,0.9977794237289164,0.01142142004107199,0.007525292241015823,-0.3660364747904299,0.0579333979866179,-4.107544489953109e-05,0.011421420041071988,0.6945185272165072,-0.1298699081440891,-0.1321566165578645,0.051849963349712105,-2.445463450914775e-05,0.007525292241015818,-0.12986990814408908,0.9383615814720958
0.42426547683733995,0.3064656934940817,0.19999484488021915,0.20623064251005005,0.2863582456360812,0.22521582701594692
0.28186918516853554,-0.21234456331004523,-1.322246661967445e-05,-0.0075802848128455145,-0.36603647479042983,-0.13215661655786448,-0.21234456331004523,0.7021376508934583,4.725807000103147e-05,-0.024311295467278032,0.057933397986617875,0.0518499633497121,-1.3222466619674472e-05,4.72580700010315e-05,0.9999999863037345,5.0626567887240355e-06,-4.1075444899531084e-05,-2.4454634509147765e-05,-0.00758028481284551,-0.02431129546727804,5.0626567887240355e-06,0.9977794237289164,0.01142142004107199,0.007525292241015823,-0.3660364747904299,0.0579333979866179,-4.107544489953109e-05,0.011421420041071988,0.6945185272165072,-0.1298699081440891,-0.1321566165578645,0.051849963349712105,-2.445463450914775e-05,0.007525292241015818,-0.12986990814408908,0.9383615814720958
0.4227833718259767,0.2994731491816658,0.19999711799355577,0.20544931871415517,0.28954403235100384,0.22831965786205444
0.2830176119016778,-0.20692630564945685,-1.4983816068136512e-05,-0.006974866596791438,-0.3685050204050648,-0.13456165759218902,-0.20692630564945688,0.7277009031050551,3.8948052466105645e-05,-0.021454942217339564,0.04628683813327272,0.04050301902385609,-1.4983816068136522e-05,3.894805246610566e-05,0.9999999890051275,4.134122914039097e-06,-3.7289419848904715e-05,-2.076600737726544e-05,-0.006974866596791433,-0.021454942217339568,4.134122914039098e-06,0.9980985831936244,0.010120071986491517,0.00625742221735512,-0.3685050204050648,0.0462868381332727,-3.728941984890472e-05,0.010120071986491518,0.6998246738768144,-0.12470026604730486,-0.13456165759218908,0.04050301902385622,-2.076600737726546e-05,0.006257422217355131,-0.12470026604730494,0.9433982310858166
0.42426547683733995,0.3064656934940817,0.19999484488021915,0.20623064251005005,0.2863582456360812,0.22521582701594692
0.28186918516853554,-0.21234456331004523,-1.322246661967445e-05,-0.0075802848128455145,-0.36603647479042983,-0.13215661655786448,-0.21234456331004523,0.7021376508934583,4.725807000103147e-05,-0.024311295467278032,0.057933397986617875,0.0518499633497121,-1.3222466619674472e-05,4.72580700010315e-05,0.9999999863037345,5.0626567887240355e-06,-4.1075444899531084e-05,-2.4454634509147765e-05,-0.00758028481284551,-0.02431129546727804,5.0626567887240355e-06,0.9977794237289164,0.01142142004107199,0.007525292241015823,-0.3660364747904299,0.0579333979866179,-4.107544489953109e-05,0.011421420041071988,0.6945185272165072,-0.1298699081440891,-0.1321566165578645,0.051849963349712105,-2.445463450914775e-05,0.007525292241015818,-0.12986990814408908,0.9383615814720958
0.42426547683733995,0.3064656934940817,0.19999484488021915,0.20623064251005005,0.2863582456360812,0.22521582701594692
0.28186918516853554,-0.21234456331004523,-1.322246661967445e-05,-0.0075802848128455145,-0.36603647479042983,-0.13215661655786448,-0.21234456331004523,0.7021376508934583,4.725807000103147e-05,-0.024311295467278032,0.057933397986617875,0.0518499633497121,-1.3222466619674472e-05,4.72580700010315e-05,0.9999999863037345,5.0626567887240355e-06,-4.1075444899531084e-05,-2.4454634509147765e-05,-0.00758028481284551,-0.02431129546727804,5.0626567887240355e-06,0.9977794237289164,0.01142142004107199,0.007525292241015823,-0.3660364747904299,0.0579333979866179,-4.107544489953109e-05,0.011421420041071988,0.6945185272165072,-0.1298699081440891,-0.1321566165578645,0.051849963349712105,-2.445463450914775e-05,0.007525292241015818,-0.12986990814408908,0.9383615814720958
0.4242646650420174,0.3064618634576696,0.19999484612527474,0.20623021455444032,0.2863599905918233,0.22521752708172818
0.28186979626651015,-0.21234168016027202,-1.3223403864514856e-05,-0.007579962659219274,-0.3660377883468062,-0.1321578963222696,-0.21234168016027197,0.7021512535446722,4.7253648095938186e-05,-0.02430977555199094,0.057927200650147,0.05184392544318264,-1.3223403864514865e-05,4.725364809593818e-05,0.9999999863051718,5.062162699664204e-06,-4.107343028978516e-05,-2.4452671726362558e-05,-0.0075799626592192694,-0.02430977555199094,5.062162699664205e-06,0.9977795935592264,0.011420727571178181,0.007524617585296726,-0.3660377883468062,0.05792720065014699,-4.1073430289785165e-05,0.011420727571178181,0.6945213507086876,-0.12986715728782175,-0.13215789632226962,0.05184392544318272,-2.4452671726362568e-05,0.007524617585296734,-0.12986715728782178,0.9383642615610482
0.42426547683733995,0.3064656934940817,0.19999484488021915,0.20623064251005005,0.2863582456360812,0.22521582701594692
0.28186918516853554,-0.21234456331004523,-1.322246661967445e-05,-0.0075802848128455145,-0.36603647479042983,-0.13215661655786448,-0.21234456331004523,0.7021376508934583,4.725807000103147e-05,-0.024311295467278032,0.057933397986617875,0.0518499633497121,-1.3222466619674472e-05,4.72580700010315e-05,0.9999999863037345,5.0626567887240355e-06,-4.1075444899531084e-05,-2.4454634509147765e-05,-0.00758028481284551,-0.02431129546727804,5.0626567887240355e-06,0.9977794237289164,0.01142142004107199,0.007525292241015823,-0.3660364747904299,0.0579333979866179,-4.107544489953109e-05,0.011421420041071988,0.6945185272165072,-0.1298699081440891,-0.1321566165578645,0.051849963349712105,-2.445463450914775e-05,0.007525292241015818,-0.12986990814408908,0.9383615814720958
0.42426547683733995,0.3064656934940817,0.19999484488021915,0.20623064251005005,0.2863582456360812,0.22521582701594692
0.28186918516853554,-0.21234456331004523,-1.322246661967445e-05,-0.0075802848128455145,-0.36603647479042983,-0.13215661655786448,-0.21234456331004523,0.7021376508934583,4.725807000103147e-05,-0.024311295467278032,0.057933397986617875,0.0518499633497121,-1.3222466619674472e-05,4.72580700010315e-05,0.9999999863037345,5.0626567887240355e-06,-4.1075444899531084e-05,-2.4454634509147765e-05,-0.00758028481284551,-0.02431129546727804,5.0626567887240355e-06,0.9977794237289164,0.01142142004107199,0.007525292241015823,-0.3660364747904299,0.0579333979866179,-4.107544489953109e-05,0.011421420041071988,0.6945185272165072,-0.1298699081440891,-0.1321566165578645,0.051849963349712105,-2.445463450914775e-05,0.007525292241015818,-0.12986990814408908,0.9383615814720958
0.42426547683733995,0.3064656934940817,0.19999484488021915,0.20623064251005005,0.2863582456360812,0.22521582701594692
0.28186918516853554,-0.21234456331004523,-1.322246661967445e-05,-0.0075802848128455145,-0.36603647479042983,-0.13215661655786448,-0.21234456331004523,0.7021376508934583,4.725807000103147e-05,-0.024311295467278032,0.057933397986617875,0.0518499633497121,-1.3222466619674472e-05,4.72580700010315e-05,0.9999999863037345,5.0626567887240355e-06,-4.1075444899531084e-05,-2.4454634509147765e-05,-0.00758028481284551,-0.02431129546727804,5.0626567887240355e-06,0.9977794237289164,0.01142142004107199,0.007525292241015823,-0.3660364747904299,0.0579333979866179,-4.107544489953109e-05,0.011421420041071988,0.6945185272165072,-0.1298699081440891,-0.1321566165578645,0.051849963349712105,-2.445463450914775e-05,0.007525292241015818,-0.12986990814408908,0.9383615814720958
0.42426547683733995,0.3064656934940817,0.19999484488021915,0.20623064251005005,0.2863582456360812,0.22521582701594692
0.28186918516853554,-0.21234456331004523,-1.322246661967445e-05,-0.0075802848128455145,-0.36603647479042983,-0.13215661655786448,-0.21234456331004523,0.7021376508934583,4.725807000103147e-05,-0.024311295467278032,0.057933397986617875,0.0518499633497121,-1.3222466619674472e-05,4.72580700010315e-05,0.9999999863037345,5.0626567887240355e-06,-4.1075444899531084e-05,-2.4454634509147765e-05,-0.00758028481284551,-0.02431129546727804,5.0626567887240355e-06,0.9977794237289164,0.01142142004107199,0.007525292241015823,-0.3660364747904299,0.0579333979866179,-4.107544489953109e-05,0.011421420041071988,0.6945185272165072,-0.1298699081440891,-0.1321566165578645,0.051849963349712105,-2.445463450914775e-05,0.007525292241015818,-0.12986990814408908,0.9383615814720958
0.42426547683733995,0.3064656934940817,0.19999484488021915,0.20623064251005005,0.2863582456360812,0.22521582701594692
0.28186918516853554,-0.21234456331004523,-1.322246661967445e-05,-0.0075802848128455145,-0.36603647479042983,-0.13215661655786448,-0.21234456331004523,0.7021376508934583,4.725807000103147e-05,-0.024311295467278032,0.057933397986617875,0.0518499633497121,-1.3222466619674472e-05,4.72580700010315e-05,0.9999999863037345,5.0626567887240355e-06,-4.1075444899531084e-05,-2.4454634509147765e-05,-0.00758028481284551,-0.02431129546727804,5.0626567887240355e-06,0.9977794237289164,0.01142142004107199,0.007525292241015823,-0.3660364747904299,0.0579333979866179,-4.107544489953109e-05,0.011421420041071988,0.6945185272165072,-0.1298699081440891,-0.1321566165578645,0.051849963349712105,-2.445463450914775e-05,0.007525292241015818,-0.12986990814408908,0.9383615814720958
0.42426547683733995,0.3064656934940817,0.19999484488021915,0.20623064251005005,0.2863582456360812,0.22521582701594692
0.28186918516853554,-0.21234456331004523,-1.322246661967445e-05,-0.0075802848128455145,-0.36603647479042983,-0.13215661655786448,-0.21234456331004523,0.7021376508934583,4.725807000103147e-05,-0.024311295467278032,0.057933397986617875,0.0518499633497121,-1.3222466619674472e-05,4.72580700010315e-05,0.9999999863037345,5.0626567887240355e-06,-4.1075444899531084e-05,-2.4454634509147765e-05,-0.00758028481284551,-0.02431129546727804,5.0626567887240355e-06,0.9977794237289164,0.01142142004107199,0.007525292241015823,-0.3660364747904299,0.0579333979866179,-4.107544489953109e-05,0.011421420041071988,0.6945185272165072,-0.1298699081440891,-0.1321566165578645,0.051849963349712105,-2.445463450914775e-05,0.007525292241015818,-0.12986990814408908,0.9383615814720958
0.42426547683733995,0.3064656934940817,0.19999484488021915,0.20623064251005005,0.2863582456360812,0.22521582701594692
0.28186918516853554,-0.21234456331004523,-1.322246661967445e-05,-0.0075802848128455145,-0.36603647479042983,-0.13215661655786448,-0.21234456331004523,0.7021376508934583,4.725807000103147e-05,-0.024311295467278032,0.057933397986617875,0.0518499633497121,-1.3222466619674472e-05,4.72580700010315e-05,0.9999999863037345,5.0626567887240355e-06,-4.1075444899531084e-05,-2.4454634509147765e-05,-0.00758028481284551,-0.02431129546727804,5.0626567887240355e-06,0.9977794237289164,0.01142142004107199,0.007525292241015823,-0.3660364747904299,0.0579333979866179,-4.107544489953109e-05,0.011421420041071988,0.6945185272165072,-0.1298699081440891,-0.1321566165578645,0.051849963349712105,-2.445463450914775e-05,0.007525292241015818,-0.12986990814408908,0.9383615814720958
0.42426547683733995,0.3064656934940817,0.19999484488021915,0.20623064251005005,0.2863582456360812,0.22521582701594692
0.28186918516853554,-0.21234456331004523,-1.322246661967445e-05,-0.0075802848128455145,-0.36603647479042983,-0.13215661655786448,-0.21234456331004523,0.7021376508934583,4.725807000103147e-05,-0.024311295467278032,0.057933397986617875,0.0518499633497121,-1.3222466619674472e-05,4.72580700010315e-05,0.9999999863037345,5.0626567887240355e-06,-4.1075444899531084e-05,-2.4454634509147765e-05,-0.00758028481284551,-0.02431129546727804,5.0626567887240355e-06,0.9977794237289164,0.01142142004107199,0.007525292241015823,-0.3660364747904299,0.0579333979866179,-4.107544489953109e-05,0.011421420041071988,0.6945185272165072,-0.1298699081440891,-0.1321566165578645,0.051849963349712105,-2.445463450914775e-05,0.007525292241015818,-0.12986990814408908,0.9383615814720958
0.4182474632216685,0.280359029811508,0.1999957629326666,0.20665647266436976,0.3043415437832032,0.22689464120275285
0.28749657577837434,-0.1872116079577007,-1.8863942266928954e-05,-0.005641744229687418,-0.37935495583967155,-0.14027691560296177,-0.18721160795770067,0.8144738082050511,2.454373632194397e-05,-0.01706555429683798,-0.003822745271482234,0.019178484177739243,-1.8863942266928958e-05,2.4543736321943947e-05,0.9999999744114383,1.1758482161762905e-05,-1.4730831802296305e-05,-4.041042948106364e-05,-0.005641744229687416,-0.017065554296837968,1.1758482161762908e-05,0.9942789884644836,0.0006265946923845645,0.01650677457352319,-0.37935495583967155,-0.0038227452714822458,-1.4730831802296312e-05,0.0006265946923845675,0.7168530219502801,-0.092997156594104,-0.14027691560296177,0.01917848417773925,-4.0410429481063656e-05,0.016506774573523193,-0.09299715659410396,0.9170743395481773
0.42426547683733995,0.3064656934940817,0.19999484488021915,0.20623064251005005,0.2863582456360812,0.22521582701594692
0.28186918516853554,-0.21234456331004523,-1.322246661967445e-05,-0.0075802848128455145,-0.36603647479042983,-0.13215661655786448,-0.21234456331004523,0.7021376508934583,4.725807000103147e-05,-0.024311295467278032,0.057933397986617875,0.0518499633497121,-1.3222466619674472e-05,4.72580700010315e-05,0.9999999863037345,5.0626567887240355e-06,-4.1075444899531084e-05,-2.4454634509147765e-05,-0.00758028481284551,-0.02431129546727804,5.0626567887240355e-06,0.9977794237289164,0.01142142004107199,0.007525292241015823,-0.3660364747904299,0.0579333979866179,-4.107544489953109e-05,0.011421420041071988,0.6945185272165072,-0.1298699081440891,-0.1321566165578645,0.051849963349712105,-2.445463450914775e-05,0.007525292241015818,-0.12986990814408908,0.9383615814720958
0.42426547683733995,0.3064656934940817,0.19999484488021915,0.20623064251005005,0.2863582456360812,0.22521582701594692
0.28186918516853554,-0.21234456331004523,-1.322246661967445e-05,-0.0075802848128455145,-0.36603647479042983,-0.13215661655786448,-0.21234456331004523,0.7021376508934583,4.725807000103147e-05,-0.024311295467278032,0.057933397986617875,0.0518499633497121,-1.3222466619674472e-05,4.72580700010315e-05,0.9999999863037345,5.0626567887240355e-06,-4.1075444899531084e-05,-2.4454634509147765e-05,-0.00758028481284551,-0.02431129546727804,5.0626567887240355e-06,0.9977794237289164,0.01142142004107199,0.007525292241015823,-0.3660364747904299,0.0579333979866179,-4.107544489953109e-05,0.011421420041071988,0.6945185272165072,-0.1298699081440891,-0.1321566165578645,0.051849963349712105,-2.445463450914775e-05,0.007525292241015818,-0.12986990814408908,0.9383615814720958
0.42426547683733995,0.3064656934940817,0.19999484488021915,0.20623064251005005,0.2863582456360812,0.22521582701594692
0.28186918516853554,-0.21234456331004523,-1.322246661967445e-05,-0.0075802848128455145,-0.36603647479042983,-0.13215661655786448,-0.21234456331004523,0.7021376508934583,4.725807000103147e-05,-0.024311295467278032,0.057933397986617875,0.0518499633497121,-1.3222466619674472e-05,4.72580700010315e-05,0.9999999863037345,5.0626567887240355e-06,-4.1075444899531084e-05,-2.4454634509147765e-05,-0.00758028481284551,-0.02431129546727804,5.0626567887240355e-06,0.9977794237289164,0.01142142004107199,0.007525292241015823,-0.3660364747904299,0.0579333979866179,-4.107544489953109e-05,0.011421420041071988,0.6945185272165072,-0.1298699081440891,-0.1321566165578645,0.051849963349712105,-2.445463450914775e-05,0.007525292241015818,-0.12986990814408908,0.9383615814720958
0.42426436662159167,0.3064604555152371,0.19999484658296404,0.20623005723560642,0.2863606320471408,0.2252181520352512
0.28187002091443647,-0.21234062027520428,-1.3223748408465382e-05,-0.007579844231164849,-0.3660382712279943,-0.13215836678107043,-0.21234062027520414,0.7021562540643105,4.725202254347391e-05,-0.024309216810454955,0.057924922424938664,0.0518417058266036,-1.3223748408465406e-05,4.725202254347391e-05,0.9999999863057003,5.06198106580485e-06,-4.107268969183471e-05,-2.445195018071144e-05,-0.0075798442311648395,-0.024309216810454955,5.06198106580485e-06,0.997779655991159,0.011420473009823918,0.007524369572676826,-0.36603827122799437,0.057924922424938775,-4.107268969183474e-05,0.01142047300982393,0.694522388662838,-0.12986614603563085,-0.13215836678107049,0.05184170582660361,-2.4451950180711436e-05,0.007524369572676826,-0.1298661460356308,0.9383652467982059
0.42426547683733995,0.3064656934940817,0.19999484488021915,0.20623064251005005,0.2863582456360812,0.22521582701594692
0.28186918516853554,-0.21234456331004523,-1.322246661967445e-05,-0.0075802848128455145,-0.36603647479042983,-0.13215661655786448,-0.21234456331004523,0.7021376508934583,4.725807000103147e-05,-0.024311295467278032,0.057933397986617875,0.0518499633497121,-1.3222466619674472e-05,4.72580700010315e-05,0.9999999863037345,5.0626567887240355e-06,-4.1075444899531084e-05,-2.4454634509147765e-05,-0.00758028481284551,-0.02431129546727804,5.0626567887240355e-06,0.9977794237289164,0.01142142004107199,0.007525292241015823,-0.3660364747904299,0.0579333979866179,-4.107544489953109e-05,0.011421420041071988,0.6945185272165072,-0.1298699081440891,-0.1321566165578645,0.051849963349712105,-2.445463450914775e-05,0.007525292241015818,-0.12986990814408908,0.9383615814720958
0.42426547683733995,0.3064656934940817,0.19999484488021915,0.20623064251005005,0.2863582456360812,0.22521582701594692
0.28186918516853554,-0.21234456331004523,-1.322246661967445e-05,-0.0075802848128455145,-0.36603647479042983,-0.13215661655786448,-0.21234456331004523,0.7021376508934583,4.725807000103147e-05,-0.024311295467278032,0.057933397986617875,0.0518499633497121,-1.3222466619674472e-05,4.72580700010315e-05,0.9999999863037345,5.0626567887240355e-06,-4.1075444899531084e-05,-2.4454634509147765e-05,-0.00758028481284551,-0.02431129546727804,5.0626567887240355e-06,0.9977794237289164,0.01142142004107199,0.007525292241015823,-0.3660364747904299,0.0579333979866179,-4.107544489953109e-05,0.011421420041071988,0.6945185272165072,-0.1298699081440891,-0.1321566165578645,0.051849963349712105,-2.445463450914775e-05,0.007525292241015818,-0.12986990814408908,0.9383615814720958
0.42426547683733995,0.3064656934940817,0.19999484488021915,0.20623064251005005,0.2863582456360812,0.22521582701594692
0.28186918516853554,-0.21234456331004523,-1.322246661967445e-05,-0.0075802848128455145,-0.36603647479042983,-0.13215661655786448,-0.21234456331004523,0.7021376508934583,4.725807000103147e-05,-0.024311295467278032,0.057933397986617875,0.0518499633497121,-1.3222466619674472e-05,4.72580700010315e-05,0.9999999863037345,5.0626567887240355e-06,-4.1075444899531084e-05,-2.4454634509147765e-05,-0.00758028481284551,-0.02431129546727804,5.0626567887240355e-06,0.9977794237289164,0.01142142004107199,0.007525292241015823,-0.3660364747904299,0.0579333979866179,-4.107544489953109e-05,0.011421420041071988,0.6945185272165072,-0.1298699081440891,-0.1321566165578645,0.051849963349712105,-2.445463450914775e-05,0.007525292241015818,-0.12986990814408908,0.9383615814720958
0.42426547683733995,0.3064656934940817,0.19999484488021915,0.20623064251005005,0.2863582456360812,0.22521582701594692
0.28186918516853554,-0.21234456331004523,-1.322246661967445e-05,-0.0075802848128455145,-0.36603647479042983,-0.13215661655786448,-0.21234456331004523,0.7021376508934583,4.725807000103147e-05,-0.024311295467278032,0.057933397986617875,0.0518499633497121,-1.3222466619674472e-05,4.72580700010315e-05,0.9999999863037345,5.0626567887240355e-06,-4.1075444899531084e-05,-2.4454634509147765e-05,-0.00758028481284551,-0.02431129546727804,5.0626567887240355e-06,0.9977794237289164,0.01142142004107199,0.007525292241015823,-0.3660364747904299,0.0579333979866179,-4.107544489953109e-05,0.011421420041071988,0.6945185272165072,-0.1298699081440891,-0.1321566165578645,0.051849963349712105,-2.445463450914775e-05,0.007525292241015818,-0.12986990814408908,0.9383615814720958
0.6947214373205979,0.33192751210238725,0.20001272918202218,0.20378897330604265,0.4619195720639814,0.29707303677741
0.29043299249415694,-0.18379353324060604,-1.9448386788561263e-05,-0.004923213216042073,-0.37949314573235005,-0.14133825954093066,-0.18379353324060604,0.8561591132576039,1.2821943696759932e-05,-0.009778944363083726,-0.02782727285083159,-0.002359024714767669,-1.9448386788561267e-05,1.2821943696759935e-05,0.9999999956057637,1.5372812033101856e-06,-2.3046595475080428e-05,-1.0756760397092567e-05,-0.004923213216042073,-0.009778944363083724,1.5372812033101851e-06,0.9991982265940397,0.003519519602133254,0.0021364860246828998,-0.37949314573235005,-0.027827272850831582,-2.304659547508042e-05,0.0035195196021332547,0.745092163417175,-0.10025506362289957,-0.14133825954093068,-0.0023590247147676547,-1.0756760397092572e-05,0.0021364860246829015,-0.10025506362289957,0.9591497965024283
0.4242307278304724,0.306301748275255,0.19999489817499136,0.20621232381317067,0.2864329386990657,0.22528859855817474
0.28189536092665207,-0.2122210665318769,-1.3262612545920558e-05,-0.007566485691035092,-0.3660927396372858,-0.13221143396011484,-0.2122210665318769,0.7027203065762353,4.706866220906655e-05,-0.024246191447080696,0.05766794140347844,0.05159133578541461,-1.3262612545920561e-05,4.7068662209066544e-05,0.9999999863653064,5.04149298808134e-06,-4.098915114704348e-05,-2.437056071163255e-05,-0.007566485691035089,-0.0242461914470807,5.041492988081341e-06,0.9977866982369508,0.011391758799860246,0.007496394051798183,-0.3660927396372858,0.05766794140347838,-4.0989151147043486e-05,0.011391758799860237,0.6946394686225814,-0.12975207802322422,-0.13221143396011484,0.051591335785414714,-2.4370560711632576e-05,0.007496394051798189,-0.1297520780232243,0.9384763803472994
0.4240992885083662,0.3056816198063097,0.19999509976431334,0.2061430327077021,0.2867154677970216,0.225563859437311
0.28199469806366434,-0.21175239562199943,-1.3414966543010266e-05,-0.0075141179526185395,-0.366306265021197,-0.13241946628428444,-0.2117523956219994,0.7049314878964525,4.634985866200351e-05,-0.023999121354765868,0.05666053230181242,0.05060984284546344,-1.3414966543010264e-05,4.634985866200349e-05,0.9999999865989727,4.96117625552517e-06,-4.0661665911436496e-05,-2.4051500216591412e-05,-0.0075141179526185395,-0.02399912135476586,4.961176255525171e-06,0.997814305032449,0.011279194236533082,0.00738672527472283,-0.366306265021197,0.05666053230181243,-4.066166591143653e-05,0.011279194236533091,0.6950984418821871,-0.12930491210702946,-0.13241946628428444,0.05060984284546339,-2.4051500216591402e-05,0.007386725274722823,-0.12930491210702938,0.9389120426705861
0.42384059057709156,0.3044617152271568,0.19999549633580233,0.20600672346125792,0.2872711420779282,0.22610532673766934
0.28219161460800757,-0.21082331337464463,-1.3717013869673748e-05,-0.007410301166616031,-0.3667295390316009,-0.1328318896687266,-0.21082331337464466,0.7093170905382273,4.492437050099045e-05,-0.023509116319906296,0.054661960849698085,0.04866323436056237,-1.3717013869673762e-05,4.492437050099046e-05,0.9999999870623145,4.8019054380664796e-06,-4.001210419177105e-05,-2.3418787623954127e-05,-0.007410301166616028,-0.023509116319906306,4.8019054380664796e-06,0.9978690535336979,0.011055901384854855,0.007169231709041709,-0.36672953903160094,0.054661960849698155,-4.0012104191771085e-05,0.01105590138485486,0.6960093485196146,-0.12841784156308303,-0.13283188966872664,0.04866323436056244,-2.341878762395413e-05,0.0071692317090417115,-0.128417841563083,0.9397760535867458
0.42426547683733995,0.3064656934940817,0.19999484488021915,0.20623064251005005,0.2863582456360812,0.22521582701594692
0.28186918516853554,-0.21234456331004523,-1.322246661967445e-05,-0.0075802848128455145,-0.36603647479042983,-0.13215661655786448,-0.21234456331004523,0.7021376508934583,4.725807000103147e-05,-0.024311295467278032,0.057933397986617875,0.0518499633497121,-1.3222466619674472e-05,4.72580700010315e-05,0.9999999863037345,5.0626567887240355e-06,-4.1075444899531084e-05,-2.4454634509147765e-05,-0.00758028481284551,-0.02431129546727804,5.0626567887240355e-06,0.9977794237289164,0.01142142004107199,0.007525292241015823,-0.3660364747904299,0.0579333979866179,-4.107544489953109e-05,0.011421420041071988,0.6945185272165072,-0.1298699081440891,-0.1321566165578645,0.051849963349712105,-2.445463450914775e-05,0.007525292241015818,-0.12986990814408908,0.9383615814720958
0.42426547683733995,0.3064656934940817,0.19999484488021915,0.20623064251005005,0.2863582456360812,0.22521582701594692
0.28186918516853554,-0.21234456331004523,-1.322246661967445e-05,-0.0075802848128455145,-0.36603647479042983,-0.13215661655786448,-0.21234456331004523,0.7021376508934583,4.725807000103147e-05,-0.024311295467278032,0.057933397986617875,0.0518499633497121,-1.3222466619674472e-05,4.72580700010315e-05,0.9999999863037345,5.0626567887240355e-06,-4.1075444899531084e-05,-2.4454634509147765e-05,-0.00758028481284551,-0.02431129546727804,5.0626567887240355e-06,0.9977794237289164,0.01142142004107199,0.007525292241015823,-0.3660364747904299,0.0579333979866179,-4.107544489953109e-05,0.011421420041071988,0.6945185272165072,-0.1298699081440891,-0.1321566165578645,0.051849963349712105,-2.445463450914775e-05,0.007525292241015818,-0.12986990814408908,0.9383615814720958
0.4231806760490762,0.3013476223219146,0.19999650864596072,0.20565876615249867,0.28869002697464696,0.22748762203116452
0.28270334066735214,-0.2084090319542012,-1.4501816217071359e-05,-0.00714054154425642,-0.3678294937745466,-0.13390350915265814,-0.20840903195420116,0.720705421541022,4.122212030453319e-05,-0.022236594158972372,0.049473964312106315,0.04360815360907309,-1.4501816217071369e-05,4.122212030453318e-05,0.9999999882658811,4.388219723831036e-06,-3.832548010407196e-05,-2.1775414162699708e-05,-0.007140541544256412,-0.022236594158972382,4.388219723831037e-06,0.9980112439943069,0.010476190893149533,0.006604379668434439,-0.36782949377454666,0.04947396431210643,-3.832548010407198e-05,0.010476190893149542,0.698372625848368,-0.12611495856195665,-0.13390350915265817,0.043608153609073094,-2.17754141626997e-05,0.006604379668434437,-0.1261149585619566,0.9420199327580165
0.42426547683733995,0.3064656934940817,0.19999484488021915,0.20623064251005005,0.2863582456360812,0.22521582701594692
0.28186918516853554,-0.21234456331004523,-1.322246661967445e-05,-0.0075802848128455145,-0.36603647479042983,-0.13215661655786448,-0.21234456331004523,0.7021376508934583,4.725807000103147e-05,-0.024311295467278032,0.057933397986617875,0.0518499633497121,-1.3222466619674472e-05,4.72580700010315e-05,0.9999999863037345,5.0626567887240355e-06,-4.1075444899531084e-05,-2.4454634509147765e-05,-0.00758028481284551,-0.02431129546727804,5.0626567887240355e-06,0.9977794237289164,0.01142142004107199,0.007525292241015823,-0.3660364747904299,0.0579333979866179,-4.107544489953109e-05,0.011421420041071988,0.6945185272165072,-0.1298699081440891,-0.1321566165578645,0.051849963349712105,-2.445463450914775e-05,0.007525292241015818,-0.12986990814408908,0.9383615814720958
0.42426547683733995,0.3064656934940817,0.19999484488021915,0.20623064251005005,0.2863582456360812,0.22521582701594692
0.28186918516853554,-0.21234456331004523,-1.322246661967445e-05,-0.0075802848128455145,-0.36603647479042983,-0.13215661655786448,-0.21234456331004523,0.7021376508934583,4.725807000103147e-05,-0.024311295467278032,0.057933397986617875,0.0518499633497121,-1.3222466619674472e-05,4.72580700010315e-05,0.9999999863037345,5.0626567887240355e-06,-4.1075444899531084e-05,-2.4454634509147765e-05,-0.00758028481284551,-0.02431129546727804,5.0626567887240355e-06,0.9977794237289164,0.01142142004107199,0.007525292241015823,-0.3660364747904299,0.0579333979866179,-4.107544489953109e-05,0.011421420041071988,0.6945185272165072,-0.1298699081440891,-0.1321566165578645,0.051849963349712105,-2.445463450914775e-05,0.007525292241015818,-0.12986990814408908,0.9383615814720958
0.42426547683733995,0.3064656934940817,0.19999484488021915,0.20623064251005005,0.2863582456360812,0.22521582701594692
